layer_stack.1.weight
0.030584201 0.016100327 -0.031957638 0.0054182326 0.010941378 -0.0145322345 -0.0012992237 0.004559632 -0.00958263 -0.0007090654 -0.027087376 0.010491023 0.018421995 -0.0034729785 -0.016363084 0.031196881 -0.01156589 0.009352863 -0.020282125 -0.021123853 -0.0249997 0.008707609 0.017934186 -0.010553884 -0.019651044 -0.0125247715 -0.025930632 0.032150067 0.016281117 0.02339312 0.0053243595 0.0058471565 0.0053694975 -0.0326879 -0.010248653 -0.01056041 0.013303758 -0.010057362 -0.002259461 -0.020810585 0.023347894 0.031751823 0.018119821 0.012137138 -0.01930747 0.035406917 -0.0020345089 0.023131447 0.026691686 -0.018395156 0.027624322 0.008451457 -0.027551252 0.022775719 -0.003734444 -0.022969808 0.018201321 0.0243261 0.00039387433 0.03408282 0.014719819 -0.012569706 -0.010220437 -0.023885109 -0.004957136 0.017723665 -0.0016341949 0.0272768 0.004712116 0.052303586 0.020595392 -0.010163197 0.013006692 0.024901927 -0.022542503 0.036568213 0.016279515 -0.023635993 0.022293342 0.032223456 0.02715018 -0.009426463 0.0048145144 -0.034936793 0.033374816 -0.018391145 0.004416482 0.034800358 0.003166079 0.006561908 -0.0072257663 -0.013427132 0.0050283493 0.0051744725 0.026855698 -0.021472808 0.0025344118 -0.0030122218 0.01943462 0.014764686 0.00609176 0.00157516 0.054267935 -0.0078697475 -0.0071202805 0.004632364 0.006514242 -0.018353084 0.032393552 -0.04029281 -0.007896679 -0.015352812 0.012953248 0.032886073 0.021613898 0.004331832 -0.02323714 -0.04394855 0.003858962 -0.0094516305 -0.011688965 -0.043192487 0.029570052 -0.055798035 0.031224921 0.033212345 0.029123943 0.04620379 0.09104069 0.061519973 0.015917161 -0.013438573 0.037651327 -0.028513392 -0.053137004 0.006519377 -0.03196476 0.01746622 -0.0020791132 -0.0077565727 0.027996 0.034557268 0.0040115085 -0.030841934 -0.030416178 -0.06979425 -0.061617736 -0.053773735 -0.016282164 -0.022561336 -0.049267262 0.027148658 0.016183414 0.0438648 0.04972614 0.035557274 -0.03362074 0.03818566 0.047468953 -0.0029547885 -0.027783187 0.039007306 -0.030809162 -0.0068786847 -0.036007505 0.010903269 0.034111068 -0.030533683 -0.017883996 -0.027420195 -0.010217809 0.02157133 -0.0054587326 -0.05817905 -0.033584714 -0.04137542 -0.02512899 -0.07636976 -0.061327215 -0.018692592 0.028469326 0.011582874 -0.03155759 -0.004390182 -0.06228693 0.008406481 -0.020221513 0.040282525 -0.025068859 -0.015700985 0.0006464059 0.001053712 0.0137864025 -0.025851972 -0.030742457 0.033216394 0.035126284 0.029809382 0.0010461867 -0.010437517 -0.025438478 -0.03992689 -0.01943106 -0.054683894 -0.06621231 -0.0080143465 0.0045606853 -0.039333172 -0.010594382 0.0052411747 -0.0321333 -0.006777874 -0.039679825 -0.014314824 0.09887736 0.0033126178 0.032961346 -0.0033203631 -0.023848386 0.052325785 -0.013851357 0.025649711 -0.019391807 0.011185703 -0.00079603464 -0.02662705 -0.03411562 -0.00026878872 -0.04524601 -0.051952656 -0.036981985 -0.062032364 -0.019770674 0.028547874 -0.009242644 0.047321547 0.06057408 0.06311154 -0.013458612 -0.031401996 -0.048791397 0.006731457 0.027722342 -0.026739014 -0.0058682514 -0.058758605 -0.006432888 0.046126336 -0.006609886 0.012670625 -0.0042346893 0.02982784 -0.02181461 -0.009292748 -0.026909506 -0.0020416966 -0.02216679 -0.024752423 -0.013642727 -0.10905174 -0.02260644 0.014529464 0.013311167 0.06594239 0.012692162 -0.038571265 -0.04328709 -0.08632112 -0.061551336 -0.04883755 -0.028366802 -0.056549463 -0.09886353 -0.04227098 -0.024921512 0.06924948 0.016477909 0.03200946 0.032558467 0.009968424 0.0054724305 0.02091978 -0.010739729 0.010783659 0.008571757 -0.025634214 -0.04873242 0.029490978 -0.009119274 0.011896813 0.017477827 0.0512458 -0.036652505 -0.009278921 0.06871359 -0.007771485 -0.07137702 -0.04446966 -0.0027556773 -0.047404934 -0.043228555 0.00073081563 -0.03081369 0.01629246 -0.03857133 -0.058089785 0.022900056 0.0013875455 0.025830977 -0.018123362 -0.028504156 0.017601537 -0.05946022 -0.019822191 -0.008034983 0.044641517 0.07306759 0.077669874 -0.047164936 -0.025020733 0.06512836 0.11610082 0.12400859 0.017871909 -0.0733092 -0.104992226 -0.03645833 -0.09661145 -0.03576018 0.033372913 -0.03580963 0.03986089 -0.014413529 0.026325515 -0.021592379 -0.009549174 -0.007316483 -0.018006628 -0.011137327 0.0032674314 -0.034773346 0.0022545196 -0.009317991 0.02427955 0.0018735694 0.04706035 -0.019940006 -0.02716913 0.023557737 0.077530004 0.0927891 0.028136337 0.016408779 -0.03185684 -0.033543166 -0.08779409 0.03775342 0.083816476 0.06833367 0.0011235876 0.06812296 -0.014850138 -0.023374103 0.014690197 0.010281443 -0.0045469715 -0.010760491 -0.017031843 -0.046697006 -0.064881995 -0.04366276 -0.00101757 -0.004963957 -0.013492802 -0.06258956 -0.016323863 0.019596837 -0.022293942 -0.045141805 0.051410306 0.08962483 -0.015412558 -0.026264388 -0.02167906 0.029536176 0.015345903 0.052908327 0.067681424 0.042414427 0.052636914 0.03910846 -0.020269718 0.0010449169 -0.0016941505 -0.010082761 0.02054259 -0.04900155 -0.007585327 -0.057249915 -0.07892018 -0.0946252 -0.12338064 -0.080115564 0.00052706985 0.054339368 0.094620444 0.085733175 -0.011923342 0.023250379 -0.058553863 -0.07881651 -0.046496388 -0.06214101 -0.06137325 0.0110605825 -0.00082965195 0.02213966 0.0056559956 -0.013425099 -0.024757262 -0.015617279 -0.0079296995 -0.0050675594 0.009483685 -0.031205915 -0.06390638 -0.08517535 -0.030580545 -0.12294617 -0.029954955 -0.0019733822 0.11843872 0.21526085 0.1911873 0.078587875 -0.05061316 -0.013328694 -0.0496653 -0.053514186 -0.045216806 -0.108582444 -0.11136527 -0.06629825 0.007884952 0.0033816895 -0.0047959816 -0.020786649 0.00040361536 0.0039005792 -0.0075636636 -0.02159915 -0.031631526 0.004373063 -0.06247862 -0.091783024 -0.111190304 -0.063720636 0.062251475 0.1364636 0.3208181 0.29864076 0.1294837 -0.08394771 -0.13999648 -0.067509025 -0.05542117 -0.04190354 -0.071719766 -0.08407335 -0.033866454 -0.039423794 -0.0437162 0.020088205 0.053216472 0.0037126548 -0.01679633 0.012404736 0.006393822 0.006604927 -0.010027862 0.019144874 -0.075984634 -0.15781975 -0.12737526 -0.068172716 0.074386366 0.27313784 0.31072637 0.31707358 -0.0637094 -0.20782784 -0.2237999 -0.06560393 -0.09667303 -0.12738834 -0.05875117 -0.050435375 0.004422961 -0.043357994 -0.05329933 0.008855286 -0.010154409 -0.031848513 0.020499114 -0.034466263 0.028643137 0.020495549 -0.026311789 -0.061576057 -0.07544803 -0.0686988 -0.06926046 -0.0017675487 0.18418236 0.23370348 0.23243608 0.20154043 -0.102992356 -0.233605 -0.17429431 -0.056910176 -0.068382904 -0.052540466 -0.057054058 0.023569824 0.03008678 0.0013947341 -0.034491632 -0.013854173 0.035845023 0.008639681 0.02362065 -0.024681514 0.006643054 0.013017359 -0.036398254 -0.09025883 -0.10624742 -0.087473355 -0.0127123315 0.08510629 0.14543661 0.23388721 0.17883588 0.04852389 -0.13666584 -0.21469991 -0.09000159 -0.08496117 -0.09935946 -0.09547484 -0.06599726 -0.025334612 0.008398839 0.023094337 0.044393092 -0.0068898806 -0.028745001 0.0016384396 0.01575449 -0.034352493 -0.008605923 0.024604406 -0.026025223 -0.07594888 -0.066313095 -0.035497963 -0.0012334496 0.058405325 0.084610194 0.20017412 0.22412069 0.08072319 -0.10711039 -0.13840176 -0.068860516 -0.11526078 -0.095226124 -0.07832601 -0.07405424 0.01230959 0.02656085 0.022131568 -0.003923196 0.0091777975 0.014543283 -0.001463149 -0.0031597232 -0.017249031 -0.031358033 0.010380478 -0.021526773 -0.028742248 -0.026637424 0.08913509 0.059271958 0.0402869 0.11916293 0.08908517 0.109763935 0.048503608 0.045200743 -0.048131213 -0.11006235 -0.096478365 -0.074274436 -0.07179893 -0.016013103 -0.0028012742 0.0364548 0.022596477 0.011123125 -0.0063200532 -0.038275566 0.01996925 -0.026739018 0.03382292 0.018859847 0.027682189 -0.02234235 -0.043179467 0.021104764 0.061314456 0.03591097 0.0029296775 0.06552228 0.07598123 0.039916154 0.066112064 0.042616993 0.019745152 -0.028093543 -0.04921861 -0.08202248 -0.008627612 -0.013835768 -0.019702438 0.0391282 0.011119175 -0.03066131 -0.05007879 -0.02559482 0.028911633 -0.014005321 -0.008265904 -0.00035020284 0.019877136 0.027554007 -0.035085306 -0.063943945 -0.102548994 -0.09076035 0.00046580468 0.02686556 0.057922598 0.08290555 0.10642413 0.12734199 0.03638827 0.011762569 0.039414324 -0.07246832 -0.02446331 0.051626846 -0.000588534 -0.030953849 -0.03110353 -0.001195333 -0.03451441 -0.0021273438 0.0075039584 0.0310921 0.012062316 0.00044104885 0.0074485764 -0.0066211037 -0.07416843 -0.0668238 -0.08393471 -0.08271185 -0.038439088 -0.04508717 0.057815254 0.11909116 0.15928532 0.051925927 0.043931704 0.0097243115 0.008590708 -0.037210934 0.019900028 0.011282496 -0.04634258 -0.023411546 -0.06079729 0.004255735 -2.2450242e-05 0.025673943 0.003374395 0.005473448 -0.012963538 -0.014608154 -0.027923932 -0.015850399 0.0004890227 -0.04386061 -0.052482136 -0.00558025 -0.053537585 -0.041608434 0.055613574 0.040114067 0.0021646325 0.036394835 0.07485055 0.039697018 -0.018542742 -0.023097811 -0.039612833 -0.0207592 -0.040982887 -0.05224872 0.008627038 -0.021117153 0.014848545 -0.027238661 -0.009426943 0.02429984 -0.016285961 0.0027482766 -0.012955407 -0.0151194725 0.007243328 0.01821133 -0.010309699 0.017145118 0.009982267 -0.031888336 -0.03592438 0.015134011 -0.024199082 0.0032197863 -0.050622214 -0.010655975 -0.016493656 -0.028708283 0.015494633 -0.0306006 -0.0034240845 -0.00917568 -0.026053702 0.015842676 0.008510493 0.029692361 -0.00037215865 0.024621628 -0.015829228 0.01906335 0.025821615 -0.005705825 -0.024887055 -0.03414536 0.033578116 0.024637422 -0.0076970626 0.005610713 -0.0349096 -0.00312922 -0.008103488 -0.0369633 0.027022809 0.004389339 0.014566403 0.008215985 -0.03526065 -0.0077399933 0.0012130958 0.02067308 -0.021780849 0.019602032 -0.007164219 -0.023126962 0.021342048 -0.02505107 0.004080249 0.008277416 0.0013295115 0.02164295 -0.026110914 -0.020294994 -0.009381968 -0.016781492 0.019519746 0.0027495923 -0.020377612 -0.002644305 0.0009976537 0.0339517 -0.020798868 -0.01460956 0.032952882 -0.032115944 -0.008044958 -0.03414489 -0.013522315 0.022635913 -0.006269506 0.016756816 -0.02762846 -0.007470106 0.0051688044 0.03498552 0.023277126 0.017449005 -0.01976775 0.009059519 0.000682463 -0.00091749773 0.026953086 0.024473993 -0.012699433 -0.022936165 -0.0025426866 0.0069146007 -0.0018153281 -0.029587528 0.02057735 -0.039836947 -0.028534936 -0.02265222 0.0031417194 -0.028862491 -0.028542446 -0.027802927 -0.020830316 0.02069394 -0.03132708 -0.023728559 -0.009689975 0.013403957 -0.0022333947 -0.03437869 0.010050354 0.03201031 -0.0012377023 0.01099445 0.022680735 -0.027329702 -0.028006675 0.010047387 0.01154153 -0.025410863 -0.004941819 -0.022873366 0.004908043 0.004840662 -0.019529698 0.02330172 -0.0076654083 -0.02548745 -0.0010498791 0.0014203837 0.0042705224 -0.007909793 -0.0041675903 0.00031358525 -0.0022330626 0.034588624 -0.0034622126 0.00098598 0.026295876 0.01033501 -0.007786023 -0.02496942 0.009275774 -0.0030417438 -0.053415626 -0.025717823 -0.04264686 -0.03101042 -0.072406225 -0.09034828 -0.0746776 -0.033913754 -0.059351727 -0.024273185 -0.051402174 -0.020419838 0.020318385 0.034195255 0.04186836 -0.01919427 -0.0018976614 0.030407654 -0.019449757 0.03072657 0.032815088 -0.013657484 0.016808197 -0.014913625 -0.009975801 -0.035607442 -0.018743025 0.0017835253 -0.020551046 -0.026164565 -0.030114362 -0.022814926 0.016210426 0.047411513 -0.020430166 -0.045594346 -0.044628378 -0.06265646 -0.04756211 0.022144813 0.11018862 0.13329121 0.08144838 0.060584784 0.016550919 0.04183695 0.034076843 -0.01665177 -0.03111561 0.0028996682 0.014500626 0.02820424 -0.020044832 -0.013170707 0.023076471 0.029279828 0.07798339 0.13251472 0.110594146 0.060541674 0.017332213 -0.04085821 -0.12149389 -0.111076646 -0.08648408 -0.014696557 -0.0744294 0.01166395 0.031910688 0.0517534 0.0561521 0.05185086 0.050953146 -0.011139914 0.011761801 0.024346977 -0.022485236 0.024748657 0.00076235656 -0.0071822284 -0.04427101 0.015343031 0.06518409 0.05156326 0.06920134 0.14619838 0.05239947 -0.030444885 -0.0476009 -0.14743894 -0.18936819 -0.14051907 -0.079788476 -0.006624526 0.0009998291 0.052969515 0.01151555 -0.020538108 0.061988138 0.10651112 0.05501988 0.043524724 -0.007173471 -0.0061539663 0.013312593 0.028896663 -0.022966713 0.0352082 -0.04051134 0.031854793 0.09453913 0.0418357 0.08583422 0.1458797 0.075947836 -0.0549282 -0.11294507 -0.21126199 -0.16453412 -0.010214408 0.097315304 0.10408826 0.11984171 0.0774312 0.041946903 0.0747516 0.104546435 0.08409481 0.017431792 0.023095746 0.027493719 0.0058375956 0.03390266 -0.03036494 0.034465816 -0.01518169 -0.0050786235 0.078910075 0.09949078 0.06296927 0.06755096 0.16831453 0.13616012 -0.02248603 -0.16090234 -0.19703184 -0.12594527 0.06742625 0.11190947 0.18028033 0.1277809 0.011136324 0.029139696 0.06596964 -0.019874541 0.0027235693 0.066397965 0.061175153 -0.0066786986 0.02708191 0.016985802 -8.247872e-05 0.008458859 0.025531497 0.0092413705 0.06071119 0.04119115 0.02994452 0.10304229 0.19915183 0.09936478 -0.0049572596 -0.15492351 -0.25326157 -0.17869471 0.040681418 0.15200466 0.16198696 0.07817924 0.018869242 0.052391887 0.0393253 -0.08476149 -0.059387706 -0.013201341 0.018996246 -0.009608603 0.015011155 0.008705926 0.030636843 0.024121642 -0.027380796 0.035986796 0.040086467 0.019621357 0.048524898 0.099821605 0.1526472 0.08845147 0.0078056897 -0.0987736 -0.2868905 -0.22752157 -0.07017681 0.023909489 0.061523803 0.07399558 0.055516034 -0.07734308 -0.051426917 -0.05401236 -0.117257684 0.005339248 -0.03209634 0.010547153 -0.021976018 0.0049661347 -0.006107004 0.036309257 0.02066306 -0.028691284 0.049427994 0.037260327 0.07778912 0.0909261 0.16318312 0.110879034 0.05303997 -0.093036264 -0.25756323 -0.24706905 -0.03262633 0.103747495 0.0034494314 0.027345067 -0.0029705863 -0.09758824 -0.09252915 -0.06878487 -0.12387378 -0.08438123 -0.02900992 0.021783575 -0.033842474 -0.006560034 0.037706435 -0.015829284 0.029753763 0.020209389 0.03702188 0.034596674 0.075539134 0.09227165 -0.017228087 0.06638305 0.04444618 -0.103287004 -0.22275758 -0.30348453 -0.08575782 0.051523168 -0.0250891 0.0007074359 -0.0033322258 -0.07648416 -0.03714863 -0.060894523 -0.10145554 -0.07516693 0.0014228637 0.011770175 0.0010276004 0.021281073 0.029733019 0.020625927 0.0029316454 0.0594234 0.0884135 0.038778372 0.048640985 -0.003522979 0.039736565 0.081999466 0.03265545 -0.07387485 -0.26974985 -0.27887985 -0.14339124 -0.043492287 0.055712633 0.05849486 0.008805403 0.01721873 0.05507921 0.0058272653 -0.02331269 -0.072886 -0.059147302 -0.004159126 -0.01796544 0.0070769973 -0.004742432 0.021976667 0.03018492 0.04262911 0.13606574 -0.0036542895 0.031334605 0.030307675 0.096408226 0.045659885 0.062425718 -0.04192804 -0.19011448 -0.20741214 -0.1427723 0.008370037 0.12278885 0.06571832 0.081471816 -0.0013715874 -0.054536775 0.006234997 0.011810905 -0.069614135 -0.06590686 0.018972402 0.009274619 -0.013829107 0.017487152 0.028905421 0.051593497 0.06508131 -0.006925508 -0.010824061 0.08895099 0.08241568 0.14359853 0.12250763 0.05065746 -0.09297638 -0.1427914 -0.25970367 -0.19344014 -0.049877908 0.06555321 0.020295272 0.08451713 -0.0027829253 -0.019905964 0.034048878 0.035833277 -0.08715112 -0.026510015 -0.02099543 0.00016211861 0.0039053366 -0.027887806 0.03273519 0.015413472 -0.017442793 0.016265186 0.07519772 0.11753971 0.13168217 0.09532961 -0.038688045 -0.050251506 -0.09952534 -0.18238279 -0.11110345 -0.028538119 0.06280497 0.01772878 0.029712273 0.12004339 0.11004838 0.07250356 -0.013484878 0.012468287 -0.05938394 -0.03482122 -0.015958609 -0.011507722 0.031723846 -0.02350984 0.02573441 -0.041038122 -0.006495643 0.027074112 0.067455396 0.037689555 0.06856616 0.09335331 -0.0033451184 -0.100174606 -0.16140884 -0.21226321 -0.02225359 0.024860896 0.12642118 0.09128134 0.101481766 0.0022399593 0.07406131 0.02283304 0.009849927 -0.032823395 -0.0149175925 -0.021619856 -0.025288153 -0.0029482627 0.012085527 -0.031131154 0.0315131 0.019326786 -0.019472707 0.09074812 0.082748465 0.029282251 0.022062832 -0.024919238 -0.08513554 -0.15185377 -0.16358086 -0.10026211 0.05909667 0.08171883 0.1939248 0.039900735 0.11099907 0.03396991 0.01033583 0.018274339 -0.0637142 -0.013873834 0.03993121 0.0153789185 -0.023497004 -0.028517364 -0.0096112965 0.0131564075 -0.0112925125 0.017135194 0.019758372 0.059005048 0.061784923 -0.0043455926 0.0025430908 0.022580218 -0.08148413 -0.15307857 -0.23131956 -0.11897699 0.11773906 0.12286089 0.08222361 -0.0059413537 0.049196146 -0.005785606 -0.051057067 0.017541148 -0.08786641 -0.058389068 0.007315003 -0.028607113 0.01115384 -0.00030268298 0.026450379 -0.024838336 0.0048243226 -0.0133742625 0.01626249 0.05583849 0.013108095 0.008762925 -0.0150931645 -0.11450515 -0.09721151 -0.08054223 -0.046227917 -0.008348252 0.06413005 0.082127914 0.09309599 0.09306468 0.057981282 0.015228825 -0.010945 -0.005023351 -0.013118282 -0.008051221 -0.012629601 0.013853378 0.023782473 0.019259539 0.03004557 -0.030019429 0.030548276 -0.028111158 -0.013512057 -0.0015139082 0.009098361 -0.05899671 -0.014279781 -0.055234954 -0.041678295 -0.060428888 0.028474772 0.06317253 0.07750094 0.072633006 0.05210167 0.019679517 0.043622356 0.058223106 0.045268834 0.10422377 0.025835432 0.01706929 0.039883558 0.008857951 -0.007413068 -0.022156235 -0.034851402 0.01740857 0.025864579 -0.042980693 -0.04003597 -0.0029369819 -0.02230247 -0.06947002 -0.046882246 -0.050090447 -0.046944823 -0.009269852 0.035867404 0.037273254 0.09190233 0.041185234 -0.0144615015 -0.061750583 0.027698409 0.081018984 0.118908994 0.11957788 0.020067807 -0.005904314 0.020808801 0.010369508 0.028158043 0.021840254 0.009302757 -0.02391998 0.018585688 -0.011541715 -0.031060597 -0.01322794 -0.048370432 -0.029090863 -0.04144961 0.018721838 -0.045205962 -0.006799393 0.015188303 0.008681615 0.0952647 0.09745522 0.007963095 0.021084413 -0.014979784 0.0860769 0.059544962 0.08503739 -0.037313838 -0.023544729 -0.0061215027 0.034666825 0.009883074 -0.0022291117 -0.015185766 -0.024498137 -0.00842171 -0.01291217 -0.024860345 -0.05570414 -0.023050051 -0.044430934 -0.046775218 -0.020919343 -0.08007817 -0.04295292 -0.04382171 0.0013300066 0.027846836 0.046042945 0.0065595172 0.021414153 0.0040012635 0.043118797 0.03242782 0.024015525 -0.0353809 -0.049524657 0.015655149 0.014273215 0.033593006 0.0028426477 0.020595066 -0.022734715 0.02415443 -0.030612096 -0.037353825 0.015525863 -0.012086843 -0.06566496 -0.02433145 -0.06016899 -0.10523301 -0.09525275 -0.042088855 -0.05595024 0.046017766 0.025451439 0.03395686 0.023357375 0.03760076 -0.025651202 -0.051404 -0.036467697 0.023823826 -0.025428094 -0.009360014 -0.03560656 -0.02293032 0.0093530165 -0.0003803032 0.020019405 0.02596295 3.8146973e-05 -0.03419481 -0.020951124 0.026929447 0.0057969964 -0.038633335 -0.039184872 -0.013588114 -0.019423502 -0.07177569 -0.022935465 -0.021701265 -0.045972716 -0.063663885 -0.031314526 -0.037777413 -0.030243179 -0.01889559 0.0135748545 0.0033017388 0.028600939 -0.0021201898 0.0044856686 -0.020516772 -0.02417648 0.010965003 0.023162987 0.003460514 -0.014917817 -0.00049518584 0.01245235 -0.019736515 0.01421145 -0.00927739 -0.023991464 0.029664127 -0.001982994 -0.017684752 -0.027580861 0.01566953 -0.038932018 -0.011216832 0.0055652014 0.012671382 -0.0071101636 -0.015319629 0.009607798 -0.0075470293 0.01850859 -0.02000363 0.02892622 -0.017349206 -0.017499596 -0.034330737 -0.012068357 -0.019033113 0.023503952 0.00014627406 0.015502858 0.027890995 0.0073676324 -0.023901498 -0.020687193 0.011467824 -0.016371405 0.014250335 -0.009063941 -0.0041376865 0.0009922769 -0.027098857 -0.033482086 -0.0018949723 -0.023334542 0.013106751 0.007977567 0.0064452635 -0.03240327 0.009421128 0.018060787 0.026399996 0.009667848 0.0060965377 -0.010715289 0.023811584 -0.0066824346 -0.013319454 0.030571815 0.011017378 0.028007615 -0.018575482 0.010620262 -0.023787666 0.027064629 0.010597914 -0.014612667 0.004137018 -0.009275015 0.014510224 -0.008596549 -0.0064773946 -0.0008175553 0.032073114 0.02487193 -0.018542502 0.015323602 0.0059137647 -0.032957606 -0.013084135 -0.022884792 0.024463696 0.00093994825 0.03252257 0.003910082 -0.0040784483 -0.027823148 0.004975057 0.032987196 0.018918078 0.022020448 -0.035563856 -0.0069534434 -0.01945888 -0.009814159 -0.012046852 -0.010853428 0.053058073 -0.013764105 0.00829378 -0.025032898 0.03372159 -0.020777147 0.023219366 -0.010300326 0.011987234 0.007013805 0.015273082 0.020800643 0.023468338 0.032177236 0.0019242578 0.013555761 0.031349756 -0.0074158483 -0.013609727 0.027576094 -0.0055821394 0.010995284 0.005586589 -0.006197005 0.028641459 -0.038458418 0.05539004 0.106848225 0.057488326 -0.029128296 0.018745158 -0.013644963 0.026179794 0.016062425 -0.02301339 -0.034313954 0.02487256 -0.028012706 -0.01442906 -0.008781067 0.02705397 0.023485873 0.024066987 0.00020304318 0.02743128 0.0009585432 -0.020629106 -0.04066073 -0.008568381 -0.055266403 -0.047386166 -0.0056100483 -0.048853382 -0.03653623 0.008820093 0.010567462 -0.052295614 -0.08371439 -0.031309497 -0.06054619 -0.07107042 0.02021809 0.0085505005 0.039845977 0.00079678884 -0.010820239 0.029917592 0.00040976162 -0.008951384 -0.011895474 -0.0029615087 -0.023209376 0.00624696 -0.00085029146 0.004219492 0.042517014 -0.026405293 -0.03822335 -0.041985743 -0.023807066 0.029269088 -0.009435557 -0.0262253 -0.010091598 0.04520374 -0.0027166521 -0.10794886 -0.08910732 -0.058279302 -0.072687015 0.031036327 0.060252693 0.03305025 0.037240393 0.00018035463 -0.025303403 0.025669001 -0.028870221 0.013838844 0.013324445 0.040669303 0.0057293153 -0.007679685 -0.0029135675 0.0011864626 -0.015979294 -0.021136953 -0.047122892 -0.061490007 0.037104364 0.021621764 -0.024662515 -0.045332666 -0.018821327 -0.083990104 -0.098845884 -0.055727046 -0.06692647 0.03308169 0.041804653 0.034625497 0.007756007 -0.00012356127 -0.029457167 0.008881042 0.01457269 -0.012175107 0.0012301602 -0.0224435 0.032524098 -0.012370222 -0.0483414 0.0012996322 -0.047085434 -0.09991182 -0.03351018 -0.046633646 -0.028256653 0.056304026 -0.028964274 0.028725848 0.002825928 -0.056196492 0.07511984 -0.023818836 -0.024100572 0.020533998 0.01892425 0.03242018 0.026963146 0.03989607 0.010750561 0.00804228 -0.022594923 0.010405395 -0.012434746 -0.008061156 0.019328168 -0.059335954 -0.04821779 0.010834764 0.05402459 -0.06242064 -0.075915776 -0.031573426 -0.00042843336 0.01703264 0.14429337 0.099546954 0.024339324 0.010554141 0.05638537 -0.054094747 0.07579791 0.010084031 -0.031124948 0.08026044 0.09637146 0.04034315 -0.033344716 -0.014246732 -0.020243026 -0.042812355 -0.037698142 -0.043593574 -0.017140262 0.007944734 0.09920276 0.09226726 0.016786575 0.025449175 0.030331356 0.056971904 0.07030841 0.061287142 0.0615041 -0.046599697 -0.012828416 -0.07212398 -0.07811476 0.07064212 0.04276802 0.03995091 0.03378633 0.017645104 0.043056972 -0.038947955 -0.025209282 0.029065197 0.015828095 -0.030790446 -0.016137036 -0.0021748785 -0.079808615 -0.061900064 0.03954562 0.11055164 0.06407685 0.11521277 0.047651093 0.026410818 -0.082147494 -0.067665294 -0.11641593 -0.163679 -0.052169036 -0.12558375 -0.06927391 -0.006094137 -0.0018367006 0.01795545 0.016461927 0.024722822 0.014257171 0.013521212 0.021516105 0.015559267 -0.02018935 -0.055619385 -0.06266948 -0.099774264 -0.0878362 -0.088797666 0.0007187404 0.09644497 0.10041105 0.016796306 -0.11788072 -0.056878578 -0.119717464 -0.061122984 -0.03608055 -0.0053887297 -0.035147388 -0.05589387 -0.04356751 0.062267907 0.093054265 0.04272082 -0.02040402 -0.015124156 -0.03540248 -0.034533843 0.032105956 0.023050267 0.020762732 -0.029483661 -0.041707132 -0.068270944 -0.06184786 0.031608764 0.055177283 0.004686752 -0.007624301 0.115593284 -0.024264203 -0.0229538 0.12081188 0.14895174 -0.014516052 -0.04141396 -0.03436797 0.014327406 -0.022243299 0.13888669 0.0885677 0.032457594 -0.01301795 -0.030653829 -0.002665244 -0.004368186 0.02808754 -0.0063563213 -0.024590928 -0.0015791364 -0.020523852 -0.06560819 -0.040125582 0.01601396 -0.014106119 0.015811408 -0.00014886787 0.15197834 0.114657246 0.17514916 0.15484624 0.1221916 0.15376842 0.03827753 0.09629995 0.061509572 0.08680208 0.038011074 0.051119868 -0.00050778117 -0.031981483 -0.01952425 -0.012327344 -0.04223112 -0.0017095088 0.012082149 0.020599106 -0.0324704 0.008539538 -0.016202096 -0.053586464 -0.04248644 -0.032351904 -0.0034445203 0.047676794 0.027967224 0.16038167 0.282774 0.18775147 0.27052942 0.25996688 0.17373274 0.1239621 0.051007196 0.041292906 -0.051931072 -0.055689186 0.01798342 -0.055812526 -0.0010358257 -0.025986979 0.01272011 -0.027676271 -0.0074850405 0.008822162 0.008646901 0.02414399 -0.036805235 -0.090222605 -0.14534216 -0.18870157 -0.17967856 -0.07004266 0.08049366 0.15829486 0.30443746 0.3229513 0.19964609 0.053922996 0.074708626 0.018433953 0.035897754 -0.004547959 -0.13394347 -0.036469474 0.023492023 0.026316158 -0.06326256 -0.046766456 0.00542806 -0.033917084 -0.016231805 0.010388659 -0.021956192 -0.027758574 -0.034536764 -0.20081969 -0.22506203 -0.27132112 -0.34569964 -0.29987365 -0.26200178 -0.019895654 0.11806654 0.018489644 -0.008746509 -0.03496234 -0.021148194 -0.07868091 0.024090882 -0.10576015 -0.08539651 -0.039611205 -0.050834306 -0.026167765 -0.06449312 -0.037517067 -0.011733249 -0.0026307218 -0.0056934273 0.0022200285 -0.03394304 0.014899004 -0.10090707 -0.16303855 -0.22667123 -0.23569708 -0.39146614 -0.4721421 -0.5190801 -0.39870197 -0.29431757 -0.24003695 -0.12977971 -0.010922628 -0.047005627 -0.08220718 -0.036169633 -0.07081141 -0.17011377 0.0061460384 -0.07594415 -0.032712117 -0.04255128 -0.051756985 0.007236846 0.02934106 0.020136712 0.026601503 -0.030587174 0.026190965 -0.0678388 -0.1496643 -0.15355672 -0.16829027 -0.27709225 -0.349373 -0.38802394 -0.36839926 -0.39519215 -0.23878105 -0.117848046 -0.059560843 0.0042857938 -0.052973494 -0.038988803 -0.107346274 -0.018127102 0.032452274 -0.031134708 -0.016148461 -0.07800188 -0.053348422 0.02413197 0.016284915 -0.03527034 0.02041989 0.016975153 0.07322965 0.070190504 0.0072408705 -0.04014692 -0.02306768 -0.031186104 -0.05934219 -0.053656455 -0.091118924 -0.2148858 -0.14822735 -0.11086225 -0.0034489464 0.07367937 -0.00037138673 0.089314185 -0.05647514 -0.00999637 0.031115718 0.02611155 -0.054595403 -0.04494181 -0.008740825 0.016426753 -0.017558893 0.0086476505 0.028452458 -0.025043758 0.017971233 0.06728465 0.05645131 0.063230224 0.040333312 0.08626847 0.18646584 0.18765995 0.17467228 -0.016403925 -0.12395924 0.019412393 -0.025939455 0.015978942 0.045167394 0.12253207 0.015812196 -0.011758645 -0.01490333 -0.049972307 -0.050302077 -0.014550454 0.0032915282 -0.0039758803 0.022382263 0.028196266 -0.010096229 -0.027651243 0.01610209 0.103894874 0.12197908 0.11625982 0.1697954 0.12871535 0.106537834 0.19695035 0.17003089 0.04594006 -0.055063106 -0.07344875 -0.03651661 -0.03507667 -0.04748977 0.017348466 -0.017979711 -0.03680505 -0.07107844 -0.044989932 -0.042178445 -0.009873124 -0.017518973 0.004906731 -0.012443037 0.0028432007 -0.00516325 0.001787744 0.02873773 0.0727635 0.051353846 0.038619105 0.034674164 0.09704258 0.044451732 0.07699351 0.10210563 0.020196589 0.0017086986 0.050816774 -0.0067808954 -0.03907579 -0.008531038 0.03208299 0.015229735 -0.06950449 -0.0929067 -0.06995065 0.0037607343 -0.028771495 0.028262254 0.03308392 -0.020670062 0.009353604 0.01823846 0.011283053 0.036237124 0.053742833 0.06368878 0.06369806 0.01693142 0.10637799 0.08844914 0.09311182 0.07854477 0.024496596 0.05055068 0.04932388 -0.065982014 -0.008065194 0.041601688 0.068999924 0.044605106 -0.06721196 -0.04687388 -0.039147582 0.02005262 0.019618336 -0.020945331 -0.026204562 -0.015117497 0.03308789 0.03559111 -0.023710784 0.04927252 0.036005683 0.012879137 0.035678368 0.038552847 0.058040623 0.027459847 0.07486049 -0.048710134 -0.02199295 -0.023236308 0.047704164 -0.06810057 -0.031887773 -0.008113782 0.012077035 0.01866029 0.0155465165 0.014711364 0.04611051 0.022433484 -0.021683836 0.025624208 0.030914348 0.0077181887 0.0064713364 0.016977131 0.02197237 -0.003951715 -0.007554352 -0.002898254 0.016564252 -0.04388701 0.024358958 0.014305009 -0.020631058 -0.07356957 -0.038861245 -0.005373936 -0.031253003 -0.097255 -0.037531704 -0.029735204 0.015828742 0.0036329553 0.034946457 0.036500588 -0.014038886 0.02463346 0.010470107 0.009438468 0.023359297 0.027411062 -0.008288133 -0.034413286 0.024241768 -0.02769849 0.0016202126 -0.0105896 0.023078525 -0.018282672 -0.058088753 0.022160143 0.037638158 -0.022728894 1.02478325e-05 -0.04766708 0.025986541 0.043904893 0.040370762 0.046814546 0.01576269 -0.036110345 -0.0048321066 -0.00388297 -0.033656016 -0.025960002 -0.032971054 -0.032462347 -0.005465082 -0.013680723 0.027611827 -0.007796309 0.015654007 -0.011133122 -0.006219701 0.005278304 0.018915545 -0.0012069774 0.02044499 -0.017655846 -0.03527025 0.01592628 0.022906754 -0.008839139 -0.031880457 0.022121519 -0.020816749 -0.036686722 -0.005667479 -0.0053125117 -0.03733306 -0.017523572 -0.021986546 -0.028007492 0.015562024 -0.032144308 -0.01756367 0.007841736 0.024886051 -0.026998147 -0.0076914136 0.023179285 0.03004649 -0.025664164 0.02025747 0.024455054 -0.02112711 -0.016341444 -0.0025502956 0.014417492 0.012144803 -0.020125762 -0.027837599 0.035644166 -0.020156214 -0.0048964154 -0.012292577 0.0053576105 -0.0059391265 -0.034069635 -0.02319618 0.017785609 -0.019771487 0.01181746 0.016871296 -0.00644468 0.0061655473 0.029313842 0.016889922 0.0100306785 -0.0019739612 0.015234182 -0.015914548 -0.008151344 0.027588656 -0.006787848 -0.03302806 0.030592104 0.023121163 0.017405089 0.01938209 0.015578125 0.0033368205 -0.001931006 0.014231407 0.020010062 0.008023315 0.020186417 0.020181712 0.0075080795 0.017731003 -0.032616492 -0.024550077 0.017533435 0.02903872 0.035073377 0.03179248 0.027814725 -0.01549158 0.020148898 -0.026372144 0.0033105493 0.026624925 0.013600892 -0.015363004 -0.0068542026 0.0077226306 -0.017727967 0.035013262 0.012059174 0.025941145 0.009093321 -0.029575096 -0.015190867 0.007050685 -0.04190839 -0.01790267 0.011489181 -0.009807379 -0.02721387 -0.02143885 0.022826187 0.035705112 -0.005764672 0.033709694 -0.018295454 0.015307783 -0.03708819 -0.011555129 0.01991881 -0.03693519 -0.008816246 -0.03528674 -0.009331601 0.0013384557 -0.025949765 -0.0560052 -0.042416673 0.017465012 -0.014442588 0.008496352 -0.026134074 -0.048097614 -0.01010301 -0.025068808 -0.051118586 -0.017712427 0.030313464 -0.034580328 -0.030649114 0.012882383 0.033015035 -0.0050913393 -0.0069569997 -0.002103252 -0.012983279 0.023256714 -0.000970284 -0.02450227 -0.021016791 -0.014389384 -0.026957951 0.040321216 0.041031808 0.008991943 0.021580447 0.025359258 -0.0666296 -0.063339524 -0.067554034 -0.007090998 -0.009799841 0.013202135 0.0036955478 0.011175822 -0.0315203 0.017926328 0.0019177549 -0.0050314497 0.012588582 0.02526207 0.029100882 0.0342314 0.05319706 0.028057732 0.024851969 -0.0125819 0.004429101 0.0048777047 0.009879304 0.00078108045 0.05893766 0.079522975 0.03289879 0.03734571 -0.066182315 -0.10556967 -0.068441726 -0.09525853 -0.00019717844 -0.013673605 -0.035308767 0.008499067 -0.04187543 -0.041833475 0.016551191 -0.015475014 0.025247026 0.01310926 0.009108353 0.0043981923 -0.009446022 0.05414173 0.01444016 0.0013989311 0.012425978 0.021509478 -0.0111304475 0.0068210387 -0.0015345323 0.017811574 -0.014126755 -0.0063049127 0.08230273 0.05912599 -0.00019451715 0.04546295 0.0081491005 0.0459453 -0.026044304 -0.03928228 0.03255723 -0.026992878 -0.027853874 0.0009399851 -0.03510274 -0.018774861 0.00705699 0.045582954 0.0058761174 0.056317434 -0.005779982 -0.045223217 -0.012787531 0.0069066337 0.016432775 -0.01722316 0.023779178 -0.010911962 -0.023280654 0.047450557 0.12570742 0.08516884 0.11193859 0.12697423 0.06047312 0.074580975 0.01672211 0.0026363872 -0.035390873 -0.024951614 -0.0057708374 -0.016677244 0.0065135844 0.02370246 0.024756674 0.009906915 -0.00010677856 -0.013050587 0.04728656 0.011231251 0.01537763 0.040945858 -0.016769925 -0.0042080153 0.026382435 0.1431053 0.15592809 0.08147796 0.09451318 0.13454886 0.07760802 0.11766009 0.02228711 0.07375233 0.037918314 -0.034507837 -0.00736 -0.024876427 -0.024790058 -0.022477886 0.0015361309 0.04012597 0.04264617 6.824495e-05 0.05246239 0.042120416 0.009891071 0.032578375 -0.013480521 -0.0045762765 -0.025202373 0.05750403 0.115121454 0.18915144 0.18226244 0.05234153 0.08395384 0.080749266 -0.0031086155 -0.007921919 -0.010872935 0.043505106 0.021915352 0.0137576675 0.0053339032 -0.022305232 0.0139165195 0.035298716 -0.034221567 0.0025901103 0.019958973 -0.00054828555 -0.02043872 -0.017926404 -0.035259984 -0.011023151 -0.007782207 0.04691661 0.026457177 -0.041416403 0.037533656 0.026461596 0.089985415 0.039780732 -0.03994243 0.011583844 0.017548207 0.0011763873 0.012911883 -0.005219312 -0.0488667 0.0023033607 -0.008320444 0.009518955 0.002982133 -0.0024401941 -0.00040839272 0.029746003 -0.0014230801 -0.0043101194 -0.063030414 -0.078237504 -0.016882824 -0.0021215812 -0.03758788 0.028850723 0.01716021 -0.12454446 -0.165172 -0.096520305 -0.009132543 -0.07622851 -0.08567367 -0.034014 -0.02902569 -0.051213656 -0.022612473 -0.034758292 -0.019207047 0.026165007 -0.006910322 0.016926361 0.009656114 -0.026123665 0.011323502 0.030759607 0.008061786 -0.04414382 -0.11391141 -0.07544893 -0.0762142 -0.019012164 -0.06448984 -0.05775335 -0.12479808 -0.18636486 -0.30286595 -0.18260509 -0.078255 -0.008114233 -0.079678155 -0.02960179 -0.06799096 -0.03970558 -0.048803303 -0.060690857 0.021139072 0.006270557 0.032056127 0.030677352 0.033465654 0.0027607093 0.024082847 -0.0075968546 -0.024545375 -0.06765341 -0.07994245 -0.13035294 -0.13228959 -0.10018626 -0.10373475 -0.1391425 -0.1561831 -0.31141296 -0.27033246 -0.047436114 -0.04607486 -0.015737543 -0.0048937565 -0.022115776 -0.05600959 -0.04081722 -0.032171115 -0.025544347 -0.056588564 0.027779007 -0.0029195892 -0.009666923 0.006901864 -0.03568062 0.017903237 0.023159536 -0.047290266 -0.048447937 -0.13333611 -0.10919641 -0.14058506 -0.14369448 -0.16018967 -0.1307649 -0.13380596 -0.12735203 -0.117928125 0.043960474 -0.0049374322 -0.04544815 -0.0018306012 0.029701436 0.03438039 -0.058113616 -0.0044203773 -0.014437892 0.015557598 -0.020369004 0.039646853 -0.022190856 -0.014713606 -0.022276146 0.00016657099 -0.019238256 -0.04739082 -0.07728621 -0.13401735 -0.10709375 -0.13574587 -0.114457116 -0.14259924 -0.079492584 -0.038333826 -0.037574336 0.04094862 0.0632799 0.00023479157 0.02210961 0.06625004 0.078098044 -0.06276777 -0.013499642 -0.006158089 0.013654353 -0.018771153 -0.00078463956 0.0082644755 0.023879176 -0.02595721 0.01529755 -0.024532374 -0.029585788 -0.03413789 -0.03432041 -0.0686453 -0.049972937 -0.054011744 -0.050482526 -0.039058153 0.029061591 0.024524856 0.006632835 0.06559416 0.04537967 0.01640428 0.054193407 -0.007989185 -0.018642755 -0.027121574 -0.05853683 -0.0058914167 -0.015919108 -0.058367644 -0.03918497 -0.0073145134 0.040564876 0.035455152 -0.013744125 -0.00129337 0.00841017 0.029835397 -0.0025846164 -0.06316687 -0.052732263 0.0390238 0.02555324 0.036129765 0.0547564 0.048331846 0.047514282 0.0858948 0.06381172 0.08035524 0.07834569 -0.008975616 -0.013603947 -0.04151359 -0.012613287 -0.060409736 -0.07778636 -0.026644403 -0.017214183 0.011253339 0.027962554 0.0063628396 0.019998496 -0.023764146 0.022184378 -0.024975646 -0.024737796 -0.033556048 -0.0023876345 0.007451964 0.07638315 0.038189124 0.015916973 0.03910432 0.03790138 0.08695972 0.08614529 0.07131574 0.05297098 -0.0044648913 -0.052462004 -0.06927123 -0.01273691 -0.03361293 -0.014755245 -0.053131774 0.023114022 -0.006799875 0.038879555 0.032337155 0.031225065 0.021823114 0.024151787 0.024181105 0.010171383 -0.026936203 -0.006329892 0.09440298 0.08246169 0.039291915 0.03899173 0.017962094 0.040782224 0.08309438 0.041479602 0.015854988 -0.0069103325 -0.06653699 -0.11695042 -0.02773907 -0.049549975 -0.073430225 -0.013791345 -0.01567035 -0.011121216 0.02309399 0.031611413 0.016047856 -0.0016051021 0.016283842 0.024880758 0.022510868 0.022098359 -0.014582791 0.02672102 0.05393208 0.08329985 0.05501151 0.029524066 0.05804639 0.05824361 0.004847083 0.01350527 -0.0010896918 -0.03503305 -0.052829158 -0.092825174 -0.023827652 -0.010650903 -0.06785251 0.0026017076 0.03553419 0.014712696 0.022878794 0.028114878 0.016692791 0.006918776 0.028723128 -0.03719152 0.041615672 -0.0025127272 -0.010378536 -0.00037025695 0.009666007 -0.024148468 0.0032102624 -0.0033344545 0.019417347 0.032803427 -0.004564103 0.038814597 0.09378196 -0.0259172 -0.028291402 -0.050844625 -0.034133106 -0.0044329246 -0.03307224 0.0006166667 0.014569861 0.0096213445 -0.0047093523 0.032290254 -0.021809699 0.0068093194 -0.014042552 -0.008624086 -0.023266135 0.05105276 0.06907395 0.082924634 0.043797754 -0.047402475 -0.020858102 -0.014581007 -0.04769663 -0.017167034 -0.059602495 0.039454073 0.043448094 0.015074704 -0.013547128 -0.035697695 -0.05277862 -0.028470704 -0.03288442 -0.014077348 0.040544953 0.015218995 0.018415716 0.016830755 -0.0069205724 0.005760325 -0.022431524 -0.025849236 0.014952352 0.02166766 0.05278376 0.05389555 -0.009887488 -0.045833007 -0.04201131 -0.034388624 -0.035325885 0.008307581 0.013223142 0.052942563 0.053276327 -0.0044256994 -0.06329406 -0.05009441 -0.05078587 -0.018665964 -0.047072917 0.014308139 -0.0059139165 -0.018261416 -0.0026705146 0.030057976 0.014725817 0.03143423 0.008527062 -7.172065e-08 -0.03693619 0.004975106 0.058028005 0.047068976 0.004513246 -0.03631448 -0.0053904 0.029893352 -0.01595063 -0.022107234 0.0017454088 0.03090379 -0.0011508658 -0.085167445 -0.0842952 -0.068939865 -0.05870814 -0.06983885 -0.018808182 -0.013615047 -0.024459066 0.0023220412 -0.01531813 0.0035543325 -0.008131394 0.028306447 0.03341916 -0.023238061 0.0070645506 -0.014858763 0.01869445 0.003243188 0.009971971 0.035232436 0.0590373 0.04510649 0.056184743 0.033264942 0.02174743 -0.008574465 0.05004918 -0.043133095 -0.063323244 -0.012107652 -0.012608031 -0.053501617 -0.054823887 -0.04122277 0.003350193 -0.0029617813 -0.022259299 -0.009587878 -0.011348299 -0.013025812 0.023476832 -0.025098767 -0.008428321 0.008531068 -0.050795 -0.05328874 -0.0147913275 0.020669559 0.074919306 0.034903567 0.039288837 0.016777767 0.027928537 0.027523918 0.01157209 0.015411025 0.03476465 0.004772107 -0.010309539 0.003804876 -0.011231823 -0.032053757 0.018227803 0.004608215 0.02865322 -0.008264432 0.009622072 0.0178582 -0.0055504274 -0.016341066 0.032699913 -0.009001005 -0.029885113 -0.030343574 0.025947096 0.014870843 -0.023579134 0.013330095 0.032914132 0.031221306 -0.015068644 -0.02013516 0.0071403184 -0.01586122 0.023709184 0.010282628 0.0076213162 -0.0033390257 -0.022122135 0.028042886 -0.031846315 0.0043582367 0.013389307 -0.017394688 0.010894916 0.014036047 -0.034437384 0.0107715605 0.028279856 -0.03354303 -0.003562144 -0.0040850514 -0.028315308 -0.025832722 -0.025282372 -0.03442601 0.017845793 -0.013899133 -0.02198884 0.02649839 0.035382904 0.020527538 -0.031077944 0.024454096 0.028900377 -0.0041376185 0.004650648 0.017723033 0.019699924 0.0004852755 0.026789607 -0.006721314 0.0011772302 -0.021793997 -0.030699799 0.035167392 0.010017302 0.0006504996 0.0013544944 0.03092876 0.022970062 -0.03321054 0.018366043 -0.0022944896 -0.007451902 -0.033420667 -0.0126170255 0.007905759 -0.013677072 -0.01916759 0.008061597 0.030507628 -0.013507071 0.028350275 -0.005961171 -0.029924268 -0.028083261 0.0062378007 -0.020861605 -0.034171175 -0.02975819 0.00047819532 0.0041433703 -0.005197419 -0.0049568587 0.00699958 -0.030772813 -0.0029485845 0.012637706 0.033397943 0.020960182 0.0054511563 -0.00010195988 0.0071021174 -0.023609672 -0.034404114 -0.01838341 0.022201886 0.026112607 0.017447624 -0.03128755 -0.008664228 0.004110566 -0.0027909414 -0.031149577 -0.033289544 0.012493709 -0.027417487 -0.008783686 -0.007573818 0.007628373 -0.0033401605 -0.015391362 0.012040581 0.017471574 -0.011869428 -0.03554876 0.014332759 -0.041837018 0.020088669 0.01676079 0.008527549 -0.044895977 -0.014477942 0.024377014 -0.0016976765 0.023939162 0.018910302 0.018853359 0.011126417 0.025145791 0.01313359 -0.021432826 0.03148813 -0.0034855867 -0.02893569 0.017836742 -0.030888146 0.011591387 -0.016581142 0.020354958 0.004876378 -0.010780051 -0.02637376 0.028719094 -0.019740768 -0.007024162 -0.00435891 -0.046804108 -0.059349302 -0.066392414 -0.04197888 -0.037356056 -0.067085296 -0.0069762575 -0.019435367 0.0033002882 -0.009131775 -0.0039018719 -0.027827889 -0.029291706 -0.012159236 0.01185095 -0.0067190873 -0.024374206 -0.005351207 0.020067463 0.002082951 0.027827915 -0.0154892765 -0.0345491 -0.017314145 0.021160841 -0.012786366 0.026805121 0.0043684943 0.062011603 -0.011844988 -0.03548966 -0.055123653 -0.087343596 -0.1298562 -0.04733735 -0.02115911 -0.023901595 0.0013779206 -0.048623737 -0.037534736 -0.025383983 0.017291095 0.0065233274 -0.020348959 -0.015918482 0.013797279 -0.023294559 0.024694458 -0.032217167 0.011073075 -0.030646194 0.018167192 0.0030612159 0.020660968 0.052891526 0.11536046 0.10855417 0.024810538 0.06494881 0.011313268 0.027155077 0.015722599 0.0102423765 0.0352229 -0.07861687 -0.026548523 -0.0990912 -0.074011974 -0.03540201 -0.027519077 -0.020414807 0.03426988 -0.022183526 0.01207029 0.011981435 0.03353045 0.013382955 0.022400292 -0.02408008 0.024988323 -0.0072013945 0.07715521 0.041121338 0.011801598 0.042330306 0.064198494 0.16159055 0.1641506 0.05964851 0.083923176 0.02561972 -0.05120872 -0.038424652 -0.01037989 -0.08160993 -0.11089009 -0.14225394 -0.025728773 -0.04632721 -0.015349926 -0.014890501 0.008924305 -0.012722627 -0.02647076 0.035257593 -0.021937236 -0.024053019 -0.018397005 0.040442742 0.031820074 -0.010987351 -0.041086204 0.0419989 -0.004055701 0.015149675 0.008883352 0.053826645 0.03725716 -0.03154246 -0.05017961 -0.059587654 -0.08973267 -0.039916698 -0.13361332 -0.081802465 -0.044781145 -0.00054851867 -0.008853901 0.022398062 -0.02751883 -0.029291546 0.0056978976 0.027303232 0.007453559 -0.024109146 0.028231096 0.08835137 0.12582424 0.014044984 0.09720274 0.08093078 0.056900788 -0.010142423 -0.012561033 -0.021319391 -0.06836579 0.0015402238 -0.04457744 -0.058469627 -0.024439586 -0.11791217 -0.11426031 -0.10612592 -0.025728172 -0.0039114547 0.0151633425 -0.011244481 -0.012139084 -0.019717082 0.02553269 0.028538747 -0.031065283 -0.015105893 0.108005784 0.081283316 0.06215229 0.005081528 -0.03078612 0.025732445 -0.010856836 -0.07188639 -0.08484207 -0.058283553 -0.012482043 -0.024933327 0.0034386523 0.028088864 0.04124047 -0.04602038 -0.09096786 -0.037065182 -0.04681309 0.031900477 0.039057273 0.029790279 -0.031010006 0.02623678 -0.032913666 0.04548472 0.004589368 0.020713996 0.07189658 0.033009257 0.13363351 -0.03042817 -0.08702897 -0.04440821 -0.04218786 -0.017259631 0.089627765 0.06255607 0.13539106 0.116720125 0.07936637 0.120174505 0.10584606 0.066431075 0.037881073 0.030631041 -0.012386403 0.032006342 0.007945818 -0.013171214 -0.0040394748 -0.02551006 -0.021411788 0.017934034 -0.018714767 0.02718956 0.06547823 0.03173599 0.032860816 -0.040078588 -0.036365952 -0.043815225 -0.03599866 0.11098688 0.15304388 0.07990364 0.060574938 0.061870396 0.023168305 -0.042195257 0.037159573 0.030277582 0.055659615 0.03629083 -0.010680424 0.021259403 -0.0073281536 -0.011598136 0.0025196797 0.012001454 -0.036874387 -0.022293637 0.018775096 -0.025866965 -0.006452625 0.050648414 -0.045813397 -0.057193056 0.030496573 0.050024357 0.084507704 0.18182574 0.18531199 -0.0015967138 0.026710693 -0.00054639776 -0.09420185 -0.037495226 0.010333039 -0.035351478 -0.02164717 -0.07386478 -0.02451497 -0.0050118524 -0.013562171 -0.017813426 -0.011698835 0.035478633 -0.03485646 -0.039246306 -0.019057103 -0.063935496 -0.016064547 0.015309188 -0.045005966 0.0015293104 0.028734045 0.060672488 -0.00086786516 0.07446385 0.015320381 0.040754125 0.03606908 -0.06864801 -0.059863005 -0.053977676 -0.005788739 -0.017371822 -0.028091272 -0.07104532 -0.027913911 -0.02080711 0.006193091 -0.013093512 -0.029416053 0.018042957 -0.009615366 -0.005299498 -0.025873648 -0.08880095 -0.105708934 -0.086145446 -0.00965841 0.100907385 0.2039227 0.21110806 0.13917427 0.07909431 0.027904969 0.028338097 -0.017892 -0.042733386 0.011496625 -0.058895882 0.0337579 0.03899468 -0.036006793 -0.014451103 -0.028306346 -0.018915609 0.00063243805 -0.0195166 0.015659183 0.008907443 -0.028707577 -0.006094804 -0.0304961 -0.12547435 -0.10056367 -0.09904023 -0.114176564 0.049428396 0.23688646 0.3288948 0.24220209 0.090747885 -0.04058003 -0.050553843 -0.021969134 -0.038358156 0.021379266 -0.029845342 -0.014479455 0.012387654 -0.013074897 0.0277597 -0.040899035 -0.004783309 -0.03639787 0.032848507 -0.023867434 0.03093755 0.009076512 -0.017375385 -0.025595844 -0.092515685 -0.14322235 -0.15646017 -0.23813567 -0.19238324 -0.05347176 0.05303935 0.10433119 0.04946273 -0.07239711 0.0031087422 -0.06698992 -0.05466158 0.020313138 -0.0325487 -0.030709133 -0.02776472 -0.081481084 0.0038310655 -0.031999964 -0.03444015 0.002210291 0.013460289 0.0075706667 -0.00029385998 0.03039277 -0.04137948 -0.023791103 -0.16160597 -0.17190354 -0.20898904 -0.33739218 -0.3578644 -0.32524103 -0.2590711 -0.269931 -0.22170736 -0.11917111 -0.089635186 -0.11491697 0.011141534 -0.05307505 -0.021673126 0.017879639 0.004286216 -0.052993502 -0.040271934 -0.019310448 -0.03145079 -0.013648354 0.008469939 -0.027774211 -0.02931327 -0.009981829 0.0040514935 -0.004407484 -0.12216651 -0.18390077 -0.1913615 -0.314418 -0.36474472 -0.4064792 -0.38279563 -0.29168662 -0.24589378 -0.11147323 -0.11531849 -0.087929465 -0.015027494 0.018469347 0.009199251 -0.008762237 0.043082952 -0.03384001 -0.060881417 -0.0061755595 0.003423575 -0.028694846 0.010852996 0.016177868 -0.034460418 0.025235139 0.052348737 -0.008026161 -0.051304143 -0.08234258 -0.13476339 -0.18787639 -0.22178562 -0.27324525 -0.23295002 -0.20509899 -0.12824067 -0.018949145 -0.052764513 -0.052666027 -0.01694835 -0.02193443 0.02829713 0.019570231 0.0013941507 0.012342191 0.021040117 -0.0062017376 0.010235581 -0.0047688517 0.010112677 0.01999952 0.017158603 -0.02196219 -0.012119954 0.034166444 -0.051760487 -0.049628466 0.0067399 -0.053822063 -0.072494976 0.07338661 0.00055397453 0.05842038 0.0027932336 -0.011921131 -0.059022326 -0.022034626 -0.12249479 -0.10176949 -0.028106092 0.005823301 -0.05229368 -0.052842237 0.00437492 -0.0151306195 0.0030082127 0.00030205742 -0.009639518 -0.03173868 -0.020221911 0.0076396964 -0.0066688317 0.0016707599 0.0343849 -0.03863243 -0.030501079 0.031526808 0.028089387 0.19155326 0.13257211 0.061963342 0.032114934 -0.07215934 -0.06975138 -0.08391747 -0.14469212 -0.10769236 -0.100311704 -0.015472541 -0.06732115 0.0022754045 -0.029562328 -0.0044514136 -0.007846831 -0.03229022 -0.029718706 -0.0039167195 -0.031357154 0.031573292 0.031012652 0.009056556 0.016381152 0.05487279 0.049828816 0.0670697 0.08031325 0.14550631 0.1620134 0.04149758 0.003638236 -0.058651544 -0.1027378 -0.1659737 -0.12221797 -0.08033242 -0.053806126 0.012278225 -0.023272483 -0.038833473 0.015309115 -0.003769379 -0.029332723 0.004231479 0.0029833787 -0.02491032 0.0009978287 -0.019519083 0.0438748 0.05489004 0.037520472 0.09877846 0.097292334 0.14046349 0.122533105 0.14648998 0.08059146 -0.040778846 0.05271733 -0.08716937 -0.075787395 -0.08772277 -0.06724247 -0.08665142 -0.037635833 0.047322217 0.06271844 0.016644154 -0.007714778 0.01904469 0.02565609 0.029622419 0.032487083 -0.013068055 0.005465052 0.028465277 0.0051104287 -0.025375336 0.029297285 0.031698175 0.04049929 0.15230116 0.11260893 0.09828012 0.09470411 0.068348244 0.053677775 -0.010655689 0.012499984 0.03300453 0.0068639186 -0.0051407437 0.038504384 0.08322852 0.023862727 0.002939102 0.01718725 0.03836199 -0.020339794 -0.0035292555 0.014010234 0.025193147 -0.017011417 0.024017436 -0.0054813204 0.028944293 -0.013477692 0.010303715 0.05380406 0.043251537 0.07068331 0.060618006 0.105076626 0.08962665 0.10563264 0.18826045 0.099333145 0.06354433 0.08086081 0.033358626 0.022468647 0.028495573 0.043776777 0.034114625 -0.030602233 -0.029683422 0.0122292815 -0.00438012 0.035059705 0.015865846 0.028494343 0.032495886 0.0055250484 0.01494829 0.023964135 0.023462344 -0.008531203 0.036223214 0.014528591 0.008685189 -0.0040740063 0.028454168 -0.023557784 0.035687774 0.0074975705 -0.010979099 0.017932247 0.00012899832 -0.012650491 0.026880445 0.005108227 -0.032607686 0.0038313558 -0.0054139625 -0.004518113 0.03320978 0.0035476175 0.023034148 -0.0019314588 -0.033697028 0.035666104 0.020211183 0.020452373 -0.0019161276 -0.0062879794 0.02214715 -0.0014299282 -0.035130702 -0.0044927257 0.02852152 -0.020089563 -0.010105621 -0.0050204187 -0.029823437 -0.032011673 -0.026526112 -0.024502832 -0.010784771 -0.024776133 -0.028169412 -0.01709142 -0.02080983 -0.023904286 -0.021379324 0.009706553 -0.0025043872 0.025122635 0.029285386 0.011736343 -0.012575959 0.0011041038 -0.025605006 0.012410293 0.007886001 -0.032684382 -0.00833649 0.013622786 0.02217142 0.00087578373 0.015369036 -0.010507518 -0.00401781 -0.02223845 0.003941578 -0.028660607 0.003866409 0.0073096426 -0.0032221458 0.031509314 -0.030339256 -0.008300501 0.029040027 -0.005353136 0.011321375 -0.006901303 -0.01079545 0.03444571 -0.032660272 -0.013779879 0.03217165 -0.02020912 0.0053069443 0.034925036 -0.003021354 -0.007914921 0.009367528 -0.034092642 -0.042636734 -0.033418316 0.015666632 0.025204768 0.042606577 0.0071237534 0.023031233 0.038574994 -0.013715504 -0.022470066 -0.033333108 0.024548301 -0.0026297614 0.029335935 0.034931477 0.028042292 0.009509602 -0.025382457 0.036062066 -0.022780526 0.036053263 -0.004669977 0.033845555 0.025637709 0.028542288 -0.009178734 -0.0038754616 -0.07678639 -0.13559936 -0.13467139 -0.08463658 -0.02838497 -0.025407434 0.012615117 -0.006274312 0.02098833 0.019247053 -0.005774354 -0.016946053 -0.028520165 -0.0059925835 -0.021753956 0.011675188 0.009108881 0.028856589 0.011690133 0.031220268 0.0431212 -0.005956435 0.023067718 -0.027206209 0.021773634 -0.0038093561 -0.018339116 -0.031679343 -0.14799047 -0.1846099 -0.16249424 -0.088109665 -0.0713991 -0.034972183 0.034238987 -0.0013964716 0.022389282 -0.00016150199 0.053827975 0.03416417 0.026260626 -0.011274536 -0.033064604 -0.02391891 -0.022391252 -0.02447477 -0.00056384836 -0.019585654 -0.0032265994 -0.0047130585 -0.025409197 0.019236749 0.0009310317 -0.027238997 -0.0745862 -0.110103056 -0.17888702 -0.18235086 -0.14662693 -0.08163261 -0.083548814 -0.043693516 -0.030553406 -0.009748556 -0.038910136 0.00968446 0.045015283 -0.028175788 -0.005363825 0.02450744 0.02808944 0.03319039 -0.0062834094 -0.008118773 0.017706733 0.032406162 -0.018807389 -0.016357243 0.043561637 0.043977216 -0.023015838 -0.061012603 -0.07210772 -0.13365729 -0.213944 -0.1327334 -0.07225168 0.007142093 -0.0035569544 -0.009439473 -0.023515876 -0.059334863 -0.048644837 0.028221918 0.013050244 -0.04180967 -0.055874266 -0.020499593 -0.02114308 -0.033659022 -0.024471378 0.0033105584 -0.03491046 -0.0059204614 0.02847732 -0.014280564 -0.020329272 0.031550366 0.0110489 -0.04397116 -0.11138237 -0.18939659 -0.21389104 -0.09431531 -0.07367718 0.01855892 0.1206716 -0.011931571 -0.0066982475 -0.015069826 0.050101474 0.035021394 -0.019430546 0.0027796354 -0.042265538 0.03774527 0.034901008 -0.010625042 0.02200008 0.027641112 0.015246627 -0.006950551 0.03314645 0.026522672 -0.030131228 0.033532117 -0.028020546 -0.0077505736 -0.14070274 -0.16513415 -0.13872227 -0.07813917 -0.0055382242 0.123357244 0.19154307 0.05170864 -6.549526e-05 0.04783553 0.037709918 -0.002274356 0.05170031 0.030051444 0.055430017 0.020634396 -0.019814417 0.008433057 -0.012178457 -0.022363951 0.01495687 -0.01267642 -0.0017539553 0.03673233 -0.01054025 0.027019648 0.0054183025 -0.063476026 -0.16436811 -0.22793995 -0.20301421 -0.066010326 0.13508804 0.25192398 0.22629048 0.1490943 0.07588546 0.0213953 0.0024102903 0.009065406 0.057580415 0.12652539 0.09847485 0.021798545 0.026544241 0.034705482 -0.034236696 -0.004240715 0.026402848 0.01747658 0.017001852 -0.020606948 -0.01876687 0.0046947147 -0.040983338 -0.06862323 -0.18533686 -0.22396421 -0.122323416 0.0683775 0.21894613 0.2103133 0.13467969 0.065699816 0.053657044 0.028774878 0.063032106 -0.004058464 0.07796412 0.12369262 0.108903676 0.032740682 -0.0034946245 0.00065247156 -0.0027662583 0.03341484 0.0041807685 0.004183187 0.01717031 -0.024256663 -0.023771446 0.005089564 -0.002170823 -0.119483374 -0.13435057 -0.12564786 0.013944988 0.15192828 0.15428889 0.08495861 0.033137776 0.041359328 -0.037239134 -0.013255642 0.0672815 0.030489877 0.035268296 0.089148775 0.026171768 0.012179806 0.011535539 0.030675711 -0.010415812 0.017858386 0.034769252 0.034121305 -0.010565472 -0.024124991 -0.0019703847 -0.055857208 -0.058108877 -0.07847961 -0.12122405 -0.0052585457 0.10237427 0.122698374 0.024035815 -0.034470785 0.0052858572 -0.062289428 -0.11880811 -0.09847335 -0.107806265 -0.0332095 -0.007972498 -0.03236915 0.012307715 -0.010235561 -0.018806836 0.018038303 0.015073293 0.012176935 -0.008983326 -0.028324649 0.008254011 0.020393645 0.0024617226 -0.0012983796 -0.019249711 0.01409064 -0.02674625 0.058595568 0.09032035 0.03927893 -0.106199116 -0.05458718 0.022684531 -0.0528409 -0.14811894 -0.15898766 -0.09872385 -0.04874113 -0.041223824 -0.022980526 -0.030257782 -0.00066060666 -0.024941714 -0.017015453 -0.01723114 0.009713182 -0.030075237 -0.021964012 0.030866789 0.022843117 -0.06004398 -0.004037231 0.038422156 -0.028156457 -0.011356534 -0.0239952 0.0053083748 -0.033976573 -0.07596615 0.044164788 -0.05060696 -0.101295166 -0.099661745 -0.10459223 -0.08477439 -0.063999325 -0.04234825 -0.011405266 -0.029794827 -0.035956066 0.023896215 -0.0069128787 -0.00928293 0.02214535 -0.025878308 0.023189154 -0.0076155663 -0.009701245 -0.030095773 0.005321077 0.006531984 -0.03066993 -0.0018844097 0.010534176 -0.0026324291 -0.075318456 -0.079605214 -0.041221406 0.0131748775 -0.05515658 -0.09780201 -0.025828185 -0.04889926 -0.034474727 0.015342181 -0.037760463 -0.04528853 -0.010697168 -0.0057799546 0.019174002 0.014740451 0.017692845 0.014893979 -0.010689035 0.049514666 -0.018550845 -0.033779554 -0.060293775 -0.012767725 -0.03701433 0.04382 0.07327701 0.060612522 -0.060140226 -0.023790725 0.04859418 -0.013608917 0.019984605 -0.0054015703 -0.021231128 -0.048622657 0.010273226 -0.044729825 -0.045494918 0.021190364 0.03151464 -0.014969321 0.02724155 0.03308707 0.009070242 -0.052044578 -0.0078104935 0.05396109 0.08930398 -0.0027847558 -0.012468891 0.003672893 0.035311278 0.10333329 0.04013262 -0.01079457 -0.059926055 -0.06361664 0.07058134 -0.0042551127 0.0063807466 -0.026461681 -0.017643219 0.0069864118 -0.040264558 -0.003369866 0.00024729435 -0.015888073 -0.029150227 0.03189645 0.014734759 -0.008375438 -0.036629587 -0.0017102249 -0.04120209 0.024336232 0.029594768 0.013847129 0.026260978 0.10451797 0.094797194 0.12641779 0.14262253 -0.018048422 -0.13201715 -0.018771805 -0.00043601543 0.029611204 0.013630211 -0.026499221 -0.029676974 -0.020069217 -0.0028105227 0.02036739 0.013561817 0.025395112 -0.017143782 -0.010733538 0.032847084 -0.018661605 0.0069115288 0.018326752 -0.051980823 -0.06552791 -0.019284783 0.00076921727 0.06265624 0.07070024 0.112882994 0.1373674 0.18528962 0.03056812 -0.107419595 -0.057952162 0.007062092 2.9413843e-06 0.009472385 0.0028845973 -0.057679303 0.002510059 -0.055466272 0.021452982 0.04564364 0.00074706174 -0.028826067 0.016781636 -0.0116654085 0.005437404 0.009645478 -0.033564568 -0.009167597 -0.015768085 -0.023948485 -0.056672134 0.023018269 0.06627801 0.09146241 0.09381483 0.0971345 0.021632772 0.0067006 -0.018447317 -0.0071348622 -0.032330323 -0.00051307346 -0.027667457 -0.01856487 -0.08013334 -0.0325966 0.016752277 -0.009808544 0.0117873745 0.018057441 -0.023779187 0.03524584 0.014612672 0.016489187 -0.045818534 -0.025770344 -0.020253386 -0.04527583 -0.066317916 -0.06630894 0.016198339 -0.013718814 0.004589176 0.062097423 -0.025370117 0.030484278 -0.04107467 -0.08830098 -0.044600166 -0.03479238 -0.07813998 -0.011700195 -0.021475764 -0.0327125 -0.037532106 -0.022706334 -0.015437285 0.008188709 -0.0044144522 0.012195472 0.01750337 0.032661624 -0.004275851 0.016328469 0.0027283847 -0.00024357566 -0.018864086 -0.022270627 0.0067987097 -0.030214438 -0.048590206 -0.008328056 -0.028001402 0.02338853 -0.042823065 -0.028888313 -0.075598955 -0.05808754 -0.07055134 -0.047166955 -0.026143104 -0.0054378975 -0.04698273 -0.036094055 -0.017310737 0.00985322 -0.0052440553 0.017085783 -0.010282589 0.0016836746 0.0021220366 -0.029741272 0.034312587 0.050298378 -0.044923402 -0.03458626 0.048277352 -0.0013528555 -0.017584853 -0.0250693 -0.05450962 -0.058905076 -0.09522681 -0.02568697 -0.057868846 -0.04484922 -0.004587726 -0.053201046 -0.015851276 0.010444586 -0.029170575 0.022586942 -0.0032300649 0.015920505 0.012803372 -0.008977494 0.035100535 0.014423453 0.021136299 -0.008022989 -0.03278628 -0.010449745 -0.0146603435 -0.06646644 -0.01167606 -0.013070322 -0.014719294 -0.027255865 -0.008284525 0.019606648 -0.023501102 -0.04716092 0.0080743795 -0.022421982 -0.027970998 -0.009900172 -0.02875552 -0.020728592 0.023600997 0.009790426 0.024349263 0.028240768 -0.031210836 -0.010233394 0.028343206 0.011724411 0.008206995 -0.01577533 -0.004874855 0.0048183496 -0.036576737 0.0014130302 0.010804384 -0.027039804 -0.0035615994 -0.031465486 0.021932099 -0.0012690056 -0.03027498 -0.015658526 0.025382677 0.0013165601 0.0027886946 -0.030151494 -0.031310286 -0.021027744 -0.030188156 0.009593755 0.0087365685 -0.010423262 -0.016969942 -0.026863134 0.0073551284 0.028236773 -0.021346522 -0.002090314 0.0032851235 -0.01424176 0.0024629487 -0.011939287 -0.054297816 -0.00430627 -0.036895066 -0.00014116825 0.011465555 -0.022304041 -0.004314994 -0.02107916 -0.02255348 -0.018357428 0.025912093 0.028910995 -0.020890288 0.0067073284 0.0023447282 0.019153273 0.0074593024 0.026683064 0.028159939 -0.02612883 -0.001369587 -0.011500542 0.0324318 -0.016582297 -0.020126767 0.0319592 0.014370476 0.01834847 -0.020783048 -0.009041704 -0.028146442 -0.01902603 0.011329095 -0.031199234 0.0290052 0.005027977 0.018787282 -0.020822112 -0.00022824487 0.024101488 -0.024299758 0.0013238958 -0.004318033 -0.026031317 0.01161672 0.02113768 0.003328 0.030145535 0.0059810155 0.034564104 0.01988048 0.0232673 -0.011172513 -0.008308445 -0.017433424 -0.020570155 -0.008404102 -0.0271863 -0.015232538 -0.019605063 0.023378098 0.025913628 -0.017626772 0.014226135 -0.015379706 -0.001201089 0.0070078676 0.019876847 -0.03444639 0.01800045 0.029871281 -0.013923855 -0.02579142 -0.013471911 0.021114143 0.020392304 -0.022233376 0.01626004 -0.023416584 0.03255512 0.003076481 -0.0037997197 0.0075503504 -0.004780608 -0.011005102 0.033173427 -0.02706691 0.011453112 -0.024858158 -0.011263507 -0.005428931 0.013759268 -0.016202562 -0.020305747 -0.031096138 0.014721141 -0.021009453 -0.018285904 -0.022327634 -0.013489204 -0.03313146 0.018084532 -0.01679415 0.015482652 0.014043693 0.016892416 0.033404045 0.007877948 -0.021802636 0.009134493 0.036013834 0.034176454 0.027205076 0.00996566 -0.022477956 0.018959792 0.0025883396 -0.020686448 0.007297911 -0.017094418 0.017745836 -0.00946904 -0.0077165132 0.036051452 -0.016241854 0.038453814 -0.015206328 0.0043474645 -0.0093010925 -0.0090382695 -0.023763768 0.0057687634 0.029164005 0.03349735 -0.0014508655 -0.0025841573 -0.014947404 -0.019668315 0.007857171 0.013735386 0.011715775 -0.024004217 0.023691462 0.052937023 0.028668344 -0.0060254107 0.03829537 0.043808326 0.004694448 0.052481953 0.029629614 0.0004892821 -0.0090900725 0.0128082475 -0.018215347 0.0019966054 0.01699367 -0.028817277 -0.014091556 -0.02196957 -0.009824286 0.022327255 -0.009594601 0.015358641 -0.020098174 -0.022288851 -0.023492433 0.029368384 -0.0016168883 0.014468709 0.035158243 0.0009661936 0.03219594 -0.0054290923 0.044222698 0.018677037 -0.006103512 0.021085365 0.03756782 0.01585508 0.021812908 0.013516236 -0.020004855 0.015313234 0.039799113 -0.0020867847 0.027274204 0.023945563 0.010648217 0.006907485 -0.021424327 0.032086138 0.026463047 -0.01494 -0.0070719356 -0.07013721 -0.003086083 -0.042484246 0.027120085 -0.034068607 -0.03599869 -0.031436067 -0.04213612 0.024894802 0.017616011 0.022834357 0.06629958 0.017944291 -0.008450431 -0.015361706 -0.01126222 0.036546886 0.02114614 -0.008032849 -0.016071681 -0.006617406 0.0015423946 0.0062918887 -0.007589106 -0.011718812 -0.0495182 -0.06594651 -0.061707366 -0.07226531 -0.015934907 0.012125182 -0.021719469 -0.0075487667 -0.044031333 -0.043159325 -0.06536658 0.0014032549 -0.022169959 0.024344224 0.023516376 0.058854513 -0.041134305 0.020880066 0.052121814 0.03719408 0.06271909 0.0004956695 -0.010467651 -0.0009811228 -0.03203072 -0.0008289404 -0.003427814 -0.0036615941 -0.01705026 -0.044086844 -0.04541187 -0.03061799 -0.05342703 -0.021903865 -0.072956674 -0.008526908 -0.10800584 -0.0279686 -0.04488481 -0.054820407 -0.0070628515 0.006720694 0.0002760901 0.019253355 0.028862266 0.023781866 0.06527606 0.031074228 0.04619953 0.011201565 0.0158275 0.026784323 0.005414881 -0.033061568 -0.004011502 -0.027079068 -0.06026806 -0.048637625 -0.0613469 -0.083110124 -0.022367155 -0.034031272 0.027933344 0.03252396 -0.041037474 -0.031811025 -0.05665195 -0.08468664 -0.032841504 -0.0381317 0.012247028 0.06006847 0.06441078 0.05107139 0.02306773 0.09851171 0.08241021 0.0043834713 0.004527067 0.0017256632 -0.022125283 -0.0077844607 0.012779145 -0.022619342 -0.055938497 0.0031460496 -0.05569109 -0.03166883 0.00946935 -0.0048472304 0.010907191 -0.020990837 -0.03871295 -0.05475653 -0.0670711 -0.019132694 -0.046716116 -0.06453485 -0.034932397 0.031181343 0.010587508 0.049338385 0.027473822 0.10219882 0.029490676 0.028224394 -0.0037574966 -0.03568432 0.00055822305 -0.0016089471 -0.030541185 -0.03423107 -0.007757301 -0.04136645 -0.02897259 -0.042301748 -0.015874114 0.03745574 -0.037024915 0.056644563 0.026747655 0.059266027 0.041625183 0.03601633 0.029409608 -0.013199113 -0.03820695 0.017386066 -0.027159521 -0.032449316 0.028859325 0.020941209 0.055405807 0.02975192 0.03502584 -0.0010070184 0.018083869 -0.009636328 0.015552937 0.010665583 0.016585678 -0.050283957 -0.03683419 -0.041390058 -0.015939552 0.010100729 -0.049583923 -0.004657487 0.10429999 0.17572126 0.12050559 0.089362204 0.10738612 0.05126354 -0.090926625 -0.12364357 -0.098240845 -0.069286555 -0.039844625 0.021716714 0.03159497 -0.018971916 -0.006097082 0.008803006 -0.016676692 0.03252092 -0.0066493093 0.019257404 0.040339056 0.010224167 -0.021628272 -0.052941516 0.02051187 0.0015454936 -0.076533124 -0.09875688 0.07200253 0.17898022 0.091641404 0.081002 0.07199326 0.004040803 -0.06871486 -0.05594938 -0.043825746 -0.092806906 -0.029588725 -0.0058603967 -0.010836607 -0.017176427 0.0004730616 0.024542108 -0.0020907253 0.025465222 -0.024662212 -0.025780046 0.008373182 -0.0060746423 -0.067861274 -0.00518861 0.00873422 -0.1067225 -0.07478953 -0.053254705 0.020829748 0.15445516 0.08933336 0.031175788 -0.00018809664 -0.0837855 -0.047870778 -0.032117106 -0.014583287 -0.0719318 -0.056761764 -0.05051218 0.02161006 -0.0012360426 -0.009022886 -0.012864429 -0.028175302 0.015079799 0.0051974123 -0.01508776 -0.00052355276 -0.076980926 -0.06453286 -0.026758822 -0.044992693 -0.08540498 -0.05754362 -0.06705496 8.1742975e-05 0.03734308 -0.0100116655 -0.036575727 -0.029622624 -0.013386315 0.0060736905 0.018822545 0.014268245 -0.06340175 -0.051321037 -0.032109357 -0.018660622 0.0016294649 -0.0094127655 0.0153859705 -0.012201451 -0.0032861964 0.027801218 -0.004063406 -0.007700616 -0.04615944 -0.034947183 -0.024139682 -0.026165457 -0.086796224 -0.029341128 0.038055725 0.011020303 0.021744339 -0.117777966 -0.040753845 0.008236188 0.0658232 0.012369745 0.03719119 0.010528767 -0.03816117 -0.019663794 -0.046111397 -0.03423432 -0.027765395 0.010104523 0.028973948 0.015554613 -0.004230771 -0.01340736 0.03918197 -0.030358057 -0.03710652 -0.0022988727 -0.029071001 -0.079577185 -0.06014684 -0.040673178 -0.054407395 -0.014724866 0.0016196354 -0.09265198 -0.02444304 -0.0017898425 0.040748484 0.067699224 0.063444406 0.033553876 -0.02008148 -0.040854655 -0.044926297 -0.03932671 -0.039818086 -0.01025064 0.026447957 0.007894591 -0.010718513 -0.01115633 0.056431722 0.007578042 0.0051009622 -0.009836275 -0.009503626 -0.07873113 -0.14314823 -0.07463285 -0.12720257 -0.055114962 -0.07784642 -0.008436622 0.022050265 0.025427746 0.121472105 0.09093711 0.043571886 0.033131264 -0.068041414 -0.037323333 -0.033815436 0.0010665146 0.022493869 0.0006800097 -0.013481508 0.023748448 0.027609488 0.013565477 0.017387195 0.07145511 0.014414394 0.04976564 0.06149142 -0.004954261 -0.08900607 -0.093030944 -0.075966164 -0.067543544 -0.014562711 -0.02135363 0.05669517 0.09323498 0.07900578 0.012971811 -0.013526206 0.0029262088 -0.069632135 -0.053469464 -0.025472255 -0.0034362795 -0.027582243 0.008428466 -0.015633062 0.028619006 -0.030065184 -0.008949659 0.061188333 0.010028426 0.07153614 0.074745245 0.038597293 -0.0035605314 0.017536754 -0.02982805 0.016161406 0.007031406 -0.0014899826 0.039687548 0.07317661 0.092203945 0.06325347 0.018210208 -0.011864177 -0.06934504 -0.050857447 -0.0129079 0.008818965 -0.038852543 -0.0074759345 0.027776275 0.029381575 0.035210982 -0.03327619 -0.010527993 -0.0064463303 0.025541693 0.039200366 -0.0036035657 0.07194738 0.0780485 0.036964804 -0.0022444844 0.00655662 0.04127446 -0.03196256 0.03248986 0.07131768 0.08777162 0.11647258 0.044373 -0.046335824 -0.08329418 -0.010138041 -0.018742654 -0.026382405 0.0068586073 -0.00031177857 0.021996835 -0.0059075938 -0.025802135 -0.025208928 -0.006955488 0.01211331 0.03695536 0.027467629 0.014827955 0.032777287 0.063185506 0.09050959 0.1083237 0.10670074 0.06501462 0.016422307 0.034011953 0.10186971 0.06244929 0.060308285 -0.05413893 -0.07917393 -0.074570626 -0.055028506 -0.030465746 0.020806167 -0.024491971 0.033864547 0.0019806947 -0.003411031 -0.011285807 0.011426302 0.0074619413 0.02847187 -0.023804337 -0.040037047 -0.06354503 -0.028606366 -0.067490526 0.047419503 0.04402912 0.0030944804 0.0048448183 0.021217307 0.07316874 0.014398189 0.0032942707 -0.08881483 -0.08146382 -0.076907836 -0.06371401 0.00020693897 -0.003280792 0.028487481 0.012769058 -0.01659308 -0.0035089217 -0.0026976978 0.03565622 -0.0086694285 0.007295052 0.022660632 0.028351748 0.0028421322 -0.026972102 -0.063297875 -0.03506245 -0.056238968 -0.038728423 0.007985726 0.02020405 -0.01847071 0.035878025 -0.024549864 -0.082061864 -0.08921437 -0.06752831 -0.038065102 -0.036637396 -0.035516694 -0.03009656 -0.009599381 -0.032527175 0.034737363 -0.017434984 -0.030589437 -0.022942102 0.016979486 0.0024432426 0.03494857 -0.021625176 -0.01630729 0.027060641 0.040525742 0.04008482 0.00094409107 -0.029730648 0.00427212 -0.0030307444 0.018543866 -0.011503605 -0.033939846 -0.047674827 -0.054941077 -0.050226167 -0.0105112195 -0.011417852 -0.031113409 0.0026343656 -0.028690124 -0.020827923 0.02008747 -0.0009202958 -0.0063862163 -0.03466956 -0.028535116 -0.011217687 0.03154042 0.031890858 -0.0084046675 -0.0021132652 0.032384206 0.051837515 0.03484341 0.038133673 0.055569544 0.009503818 0.002856916 -0.039089676 -0.009819052 0.008498656 -0.022151992 -0.046148337 0.018862834 0.02199804 0.02356665 0.004138549 -0.024532134 0.013499069 0.0045386255 -0.001601083 0.032565624 0.030599345 -0.0014808306 0.010044945 -0.007104153 0.020598682 0.011097636 -0.0040299385 -0.022089966 -0.0051318984 0.0135703 0.017297145 0.010413434 -0.027792847 -0.012444539 -0.010431653 -0.00021367885 -0.028575541 0.02305329 0.029148463 -0.02684615 0.0035451916 0.0026585127 -0.028445294 -0.02964836 0.012233794 0.03463533 0.014926817 0.03492441 0.022011315 -0.028349783 0.02301575 0.03342858 0.033164404 0.018034013 0.031070512 0.03314409 -0.0018693189 0.016671795 0.0012414642 -0.032057885 -0.022276938 0.016212367 0.011154126 -0.026929252 -0.028683057 -0.019397875 0.022040369 -0.032852292 0.014611596 0.007905597 0.013015624 0.009008846 -0.025210919 0.016491687 0.020851273 0.027661687 0.0089018475 -0.005364384 0.0021301934 0.012249696 0.0029355886 0.013155687 0.0028808715 0.028558787 -0.03297785 -0.031377785 0.033285122 0.010950455 -0.023152987 0.001997688 0.015631188 -0.019315755 0.005297295 0.032725584 -0.01914985 -0.006939978 -0.025498357 0.00045270156 -0.021528509 -0.019159067 0.031283252 0.024785366 0.011148956 0.003121193 -0.0039754426 0.02783649 0.0057834345 0.018298695 0.014431087 -0.008992743 0.008001801 -0.01222947 0.0091183 -0.023343414 -0.0070154355 -0.00046144053 0.022183834 -0.025747765 -0.0015329247 0.030339135 -0.030027216 0.03130664 -0.021095978 0.0078021996 0.0070938244 -0.01346292 0.015564042 0.018060494 0.013414281 -0.021844333 0.028150173 -0.0116654 -0.02042203 0.0033619497 -0.004441752 -0.032143675 -0.005514466 0.0068211188 -0.014652005 0.017291365 -0.009804939 0.011995383 0.02205017 0.037297398 0.034692142 0.007936209 0.011622443 0.039071754 0.045482356 -0.017787041 -0.019538732 -0.013379843 0.024134979 -0.018947266 0.01980088 -0.03291513 -0.03445911 -0.020887993 -0.014681948 0.020892264 -0.020587364 0.02913325 -0.021226648 0.029469293 -0.013864929 0.030271355 0.04503959 0.03465316 -0.0150118545 0.05775462 0.016570227 0.05896834 0.02643977 0.038494192 0.079700194 0.033240933 0.013270268 0.012933203 0.006176939 0.002442994 0.020522043 -0.018898742 0.006442039 -0.021607578 0.0025979981 0.028842822 0.014978925 0.0074132984 0.0075739585 -0.016389571 -0.005842354 -0.004165967 0.043436676 0.032020975 0.070053436 0.045153357 0.064505205 0.104973115 0.042483594 0.049806137 0.04445332 0.020389728 0.034512624 0.042135973 -0.00481385 0.015458943 0.05647693 -0.009629489 -0.00035111234 0.032247767 -0.046218574 -0.031021629 0.004923476 -0.008349969 0.018509295 0.032797318 0.005440359 -0.015538221 -0.031302094 0.015912794 0.009135052 0.064565055 0.05646458 0.0030236419 0.015805341 0.04881178 -0.056671243 -0.02929871 0.007806415 -0.053454272 -0.03254638 -0.02344676 -0.041798405 -0.008532958 0.07612494 0.05862746 0.068043806 0.01869113 0.023994222 -3.2684515e-05 0.00134162 -0.0025463626 0.0013940812 -0.02675972 0.016166694 0.029674407 -0.03329603 -0.015995152 -0.01708365 -0.022593532 -0.027006261 -0.04153567 -0.0636219 -0.08653068 -0.056678705 -0.08354151 -0.050411936 -0.011005051 0.013340878 -0.05402484 -0.069167756 -0.058879036 -0.027337393 0.055013224 -0.00722567 0.001756532 0.02256764 -0.017358871 -0.024484904 0.025002377 0.012537358 0.00038856515 0.0039643287 -0.006824532 0.009208346 0.004761095 0.055926617 -0.0039570085 -0.08345944 -0.10978658 -0.14673004 -0.18049139 -0.11362486 -0.09975127 -0.09245521 0.09812742 0.10917773 0.02969608 -0.03185486 -0.02973033 -0.023439722 0.05787358 0.04987525 0.002743198 -0.062158305 -0.048424464 0.002587498 -0.0138294995 0.027044347 -0.012248059 -0.02767509 0.018681308 -0.0337365 0.04945203 0.02074445 0.01566119 -0.049043752 -0.110105485 -0.121987745 -0.102054015 -0.106107965 -0.11110849 0.07030791 0.13953577 0.15310979 0.104958944 0.068881616 0.03102539 0.07393002 0.007160762 0.015992215 0.03149737 -0.013293589 -0.068620995 -0.0044663027 -0.012226509 -0.006650199 -0.034058314 0.019399183 0.014596541 -0.009015253 0.017200641 0.03748226 0.00937389 0.005406369 -0.11256223 -0.05094546 -0.091844656 -0.17029919 -0.18089601 -0.010737181 0.10921343 0.15329045 0.14896531 0.012445832 -0.008357001 -0.004716082 0.0343724 0.054270208 0.05582841 -0.053284958 -0.03747097 -0.025667796 -0.010632029 0.024953313 -0.034302842 0.00459077 6.9651134e-05 -0.003064145 0.043126993 0.012518509 -0.0018425797 -0.04072207 -0.047041588 -0.12378625 -0.08371863 -0.15114221 -0.11017557 0.004662331 0.07624126 0.08381252 0.0626392 0.06325041 -0.0016065798 -0.020317098 0.011211219 -0.01094519 -0.0035183004 -0.042171814 -0.02874505 -0.047502775 -0.02434034 -0.027431296 0.006924335 -0.015565981 -0.04339864 0.03341927 -0.0083670765 -0.0066304766 -0.066323385 -0.10337976 -0.105125494 -0.07741166 -0.14825262 -0.15541326 -0.09940738 0.046622742 0.103851564 0.07965945 0.009362475 0.05178976 0.054472256 0.003448782 0.030059963 -0.06451818 -0.049124077 -0.05671371 0.0064117964 0.009634311 -0.025837867 -0.018371172 0.026098585 -0.0062081856 -0.020172676 -0.023913443 0.0014558905 -0.022354398 -0.01955087 -0.038166843 -0.04702115 0.00018897596 -0.037264332 -0.08591736 -0.0024856275 0.027746951 0.13985029 -0.041469485 0.038650658 0.0818653 0.049040034 -0.0332779 -0.021774732 -0.077320695 -0.06224344 -0.029079227 -0.03598949 -0.0052298964 -0.0202444 0.010180933 -0.018015265 -0.003400891 0.02109045 -0.008682979 0.014039926 -0.013317281 0.020835282 -0.016452853 0.00023337756 -0.0051591247 -0.06572654 -0.08996883 -0.026136307 0.021382099 0.076016285 0.019707583 0.015900008 0.11350216 0.04623331 0.0005531 -0.016002191 -0.10119375 -0.07357936 -0.035745967 -0.037045844 0.034241613 -0.00085053936 -0.023280786 0.00077598507 -0.028160878 0.011922864 -0.010593894 -0.023084572 -0.034980886 -0.02234238 0.018117161 0.05932389 0.025215574 -0.041590665 -0.071346276 -0.046325758 0.07034426 0.111627735 -0.009240277 0.020518152 -0.016233021 -0.0954906 -0.04256984 -0.07618875 -0.07494895 -0.070245616 -0.096377864 0.00019326327 -6.574589e-05 0.013522575 -0.022966722 -0.01041877 0.008018763 -0.01504328 0.00374468 0.008922249 -0.0017233309 0.026890876 -0.013200596 0.050564837 0.003928301 -0.06474733 0.002781616 0.013697023 0.09524893 0.10928442 -0.055749454 -0.025360394 -0.14896664 -0.10949395 -0.06614533 -0.087448396 -0.04894107 -0.058285188 -0.089461476 -0.014273213 -0.02173464 0.038685367 0.022566358 -0.008503965 0.028172806 0.01778958 0.0028656458 0.027568744 0.0343546 0.030696187 0.016108552 -0.014964288 0.009796291 -0.034525186 -0.009855406 0.054934394 0.09108503 0.050201792 -0.07996336 -0.11665522 -0.17432152 -0.08342177 -0.0005842781 -0.051254585 -0.00247151 0.02726415 -0.015497338 0.0290493 0.031833783 -0.008818527 0.011149206 -0.029007593 0.02100083 0.010848604 0.068303734 0.033065494 0.064084835 -0.018982258 -0.0057298956 -0.014746626 -0.088285655 -0.09680685 -0.038005535 -0.03418362 0.0367493 -0.02068663 -0.07343193 -0.07130484 -0.11648873 -0.0518499 0.013665917 -0.03267616 0.014060679 0.026147459 -0.026524516 -0.0022489966 0.005674379 0.020014383 -0.017845044 0.004242434 -0.009895111 -0.004668952 0.061104354 0.07948317 0.03290276 -0.005886982 0.023535289 0.016454913 -0.04769928 -0.088437825 -0.11650202 -0.08510931 -0.02044794 -0.020291617 0.027567752 0.064318255 0.008891674 0.028481191 0.01077842 -0.00039025562 0.018480815 -0.015471613 -0.00038576356 0.00510936 0.041090805 0.009112771 -0.0183907 0.017637726 -0.024333019 -0.016318448 0.03461495 0.051148564 0.029549342 0.023268163 -0.0013442865 -0.01672945 7.113575e-05 -0.09645657 -0.12526922 -0.13372919 0.005238217 0.1102067 0.15922305 0.22307444 0.12632719 0.13061342 0.06347019 0.061656214 0.08918784 0.016104694 0.07953714 0.0044598933 0.058537297 0.036417536 -0.027230423 0.013845364 0.02321426 0.018142676 0.06542491 0.03804892 0.0066526406 0.03518336 0.09243779 0.05070065 0.094414815 0.032378536 -0.021210331 0.0013603467 0.003931192 0.117253035 0.1974799 0.15703194 0.13252865 0.20885614 0.14410946 0.14204787 0.09522647 0.03339743 0.035926398 0.03663599 0.01635746 -0.012661292 -0.032398324 -0.025330087 0.005157899 0.038702134 0.022813337 0.0053834454 0.01683216 0.06644149 0.106396906 0.06657918 0.03710232 0.025367333 0.006676904 0.037897285 0.06049445 0.07560582 0.07462569 0.111349836 0.123337455 0.16398852 0.12350531 0.07075836 0.02027062 0.053641785 0.010337868 0.016645584 0.01413705 -0.016654413 0.019940037 -0.033952475 -0.035183027 -0.008625003 0.037090193 0.051647283 0.01982457 0.045548126 0.04514224 0.03607196 0.07335497 0.05707353 0.033595227 -0.020848926 0.04655059 0.016733209 0.045070585 0.025847219 0.043859754 0.051316552 0.03301018 0.052753218 0.022855524 0.00034693067 0.026221385 0.0065793665 -0.012415103 0.026449956 -0.030435765 0.034062557 -0.025470236 0.031279776 0.04853016 0.012724574 0.052143227 0.03652389 0.033273246 0.072566085 0.1326828 0.06557217 0.023019709 0.0238212 0.026943762 0.0015710563 -0.0063697523 0.010259777 0.014834657 0.048744686 0.017367058 0.041842036 -0.029205045 -0.0132212145 0.0349368 -0.002817161 0.021372933 0.013524455 0.018767498 0.02447001 -0.032458536 -0.010028834 -0.0075642355 -0.025130128 0.004626847 0.03425424 -0.008977566 0.027157407 0.06650491 0.04355781 -0.038832076 -0.031086681 0.0028220795 -0.013833483 -0.114316754 -0.13734077 -0.024860036 -3.507181e-05 0.011694309 -0.01627644 -0.005322774 0.026229111 0.003339055 -0.017113525 -0.02556283 -0.02095503 -0.024446378 -0.025303092 0.029243335 -0.0011726118 -0.03613903 -0.036793012 0.014929766 0.025501989 0.039808776 0.011284125 0.03896675 0.039028987 0.013812526 0.08808322 0.03322231 -0.0100635225 -0.076811224 -0.08685537 -0.05850854 -0.0387246 -0.035633028 0.005083618 -0.046284776 -0.028759275 -0.023278607 0.0061867298 -0.019315787 0.0034905714 0.015851716 -0.0060056495 0.01892668 0.01594716 -0.0023693861 -0.019563561 0.025719399 0.005382722 -0.0063503464 -0.0072124 -0.05049179 -0.023923183 -0.04185666 -0.01162487 -0.037554786 -0.055900715 0.022081874 -0.01818052 -0.025583936 0.010248316 -0.04177888 0.0013653114 -0.026958851 -0.0135457525 -0.0055150883 0.033248838 0.034988873 -0.026528517 -0.0011169612 0.00508116 -0.020009825 0.017183058 0.033838492 -0.02931478 -0.026290338 0.013795983 -0.035092592 -0.030249815 0.019649288 -0.031262163 0.009444827 0.022999847 -0.009755326 -0.016912019 0.021306956 0.010080248 0.01389102 0.00012089178 -0.033962127 -0.02654766 0.009349741 -0.03254767 -0.020583728 0.019061664 0.025485078 0.0055859177 -0.0066305613 -0.03509246 0.026055822 -0.023928473 0.027888853 -0.03426678 -0.014884455 -0.0133968685 0.0004983928 -0.032007955 0.028225776 0.0043055075 -0.024368934 -0.03336069 -0.035547584 -0.02744455 -0.00871529 -0.004565482 0.0062096165 -0.012580497 -0.016117502 0.015163345 0.027344173 -0.020011242 0.010142437 -0.015551342 0.015622617 -0.023171427 -0.023040118 -0.012013427 -0.010398848 -0.025442772 -0.029159343 -0.012773542 -0.023349565 -0.028504463 0.0027979387 0.02632186 0.0053991927 -0.00012263017 0.024969509 -0.024148699 -0.03554077 -0.026117949 0.024205884 -0.0067982506 -0.031262275 0.019421954 0.019367278 0.03261258 -0.03291766 -0.01484001 0.0007847269 0.0047269636 0.032230552 -0.033529036 -0.0077728503 0.00016320604 0.0050233006 -0.008156618 0.0034882703 0.00042824371 -0.01376815 -0.029422559 0.018260509 -0.027923241 0.0080416845 0.014416655 -0.007428769 -0.030233141 -0.03498369 -0.031835373 -0.015469378 0.009886589 -0.007472388 0.015435778 -0.005122604 0.010424357 0.029494433 0.012839585 0.007369544 0.03408632 -0.02983157 -0.028571539 0.034539886 -0.007115424 0.021946313 -0.013780268 0.0293845 -0.03403165 -0.025359211 0.0143144615 -0.017012127 -0.01545958 -0.05377397 -0.064353615 -0.028590424 -0.03927719 -0.114619456 -0.0655555 -0.057080645 -0.079475656 0.0010329406 0.041876797 0.0080688065 0.00090136536 0.016656786 0.028354805 -0.0007401038 0.012138698 -0.027694767 0.025978168 -0.0043513863 0.011322907 0.02644255 -0.011150411 0.019739727 -0.028120846 0.0131693855 -0.008112104 0.014226664 -0.006424291 -0.06650348 -0.10220314 -0.13530545 -0.084839255 -0.03377764 -0.08990352 -0.056531906 -0.024339493 -0.027659845 -0.0108153 -0.0005606214 0.0029262556 0.034292724 0.015986795 0.07616785 0.058595877 0.019443711 -0.028019592 -0.019957038 -0.029145902 -0.019204278 0.00550039 -0.014004452 -0.03291657 0.031348012 -0.024086978 -0.05297172 -0.090961516 -0.0889088 -0.15631622 -0.16347411 -0.031988278 -0.08582463 -0.038151473 -0.00831766 -0.00963764 -0.045209423 -0.06670896 -0.04660198 -0.05824714 -0.05794826 0.016237441 0.06847718 0.009036164 0.025343807 0.007742053 -0.023699256 0.03234472 0.02481855 0.020052357 -0.03185365 -0.020500943 0.006809264 -0.042179607 -0.03259358 -0.09297568 -0.11981165 -0.120067514 -0.059401076 0.017300678 -0.033509698 0.010972653 -0.005141726 -0.020071171 -0.06032303 -0.053975545 0.009483981 -0.027951188 -0.016665513 0.04805646 0.11628321 0.059854563 -0.015204287 -0.0030470844 -0.0023726304 -0.024536114 -0.013684089 0.024122652 0.040863898 -0.011666465 -0.02334778 0.011346151 -0.07152683 -0.099337325 -0.026952812 0.012367425 0.027291087 0.06454541 0.09891993 -0.019668518 -0.0536319 -0.07906403 -0.05398531 -0.08179819 0.06702669 0.027903844 0.012747175 0.084749326 0.1314936 0.10114644 0.044408664 0.00573457 0.004922178 -0.022651536 0.011212277 0.010802967 0.02600624 -0.04677917 -0.020074617 -0.03282997 0.015368133 -0.0069568306 0.04779361 -0.0038313444 0.045627154 0.06810886 0.13482955 -0.010407105 -0.06250369 -0.07345804 -0.07063526 0.030691622 -0.01834849 -0.032575388 0.02607694 0.04725716 0.09855983 0.14928746 0.072200075 0.046452865 -0.01942522 0.019305943 0.02957932 0.03126195 -0.0017604737 -0.01913227 -0.008093775 -0.023145106 0.042018726 -0.0049046767 0.013557385 -0.033320628 0.005456893 0.055502877 0.055127993 -0.007714396 0.01911943 -0.05274176 0.02392425 0.04689095 0.019956358 0.043986015 0.065859646 0.07588862 0.049706127 0.13571809 0.029001951 0.020293524 -0.020066652 0.033967756 0.026964232 -0.012872583 0.021118108 -0.014509215 -0.026513455 -0.041600253 -0.111199275 -0.08188771 -0.03227437 -0.05066394 -0.033254568 0.054763075 0.055008426 0.026346406 -0.045331817 0.006036657 -0.05259892 -0.014364296 0.051496338 0.046897758 0.06347825 0.06863325 0.053685278 0.11225754 0.05903552 0.029515328 -0.02566338 0.030633526 0.012450794 0.008212825 0.04190025 -0.0035919782 -0.053711582 -0.062196754 -0.14990136 -0.043686476 0.041733284 0.07350761 0.03794282 0.09657449 0.025823716 -0.019849805 -0.06631558 -0.03622267 -0.031733435 -0.02579757 -0.0013395778 -0.02336076 0.04288137 0.045635004 0.060906585 0.058222488 0.06341521 0.014265798 -0.032318566 -0.010701718 -0.023280868 -0.018321445 0.033836745 0.023450727 -0.061598778 -0.06803949 -0.058465995 0.046072524 0.030082515 0.07609367 0.12657174 0.09642413 0.04467602 0.012831585 0.08377779 -0.004173759 -0.058492806 -0.07307644 -0.13786276 -0.028647162 -0.0358752 -0.019228153 0.000587884 0.008111833 0.028664341 0.0055970475 0.028918425 -0.008042982 -0.023461996 0.039129827 0.036420625 0.016859435 -0.016169345 -0.048825514 0.06702973 0.08022131 0.17188042 0.1534395 0.055430394 -0.038303703 -0.07686757 0.0564227 0.12802148 -0.035380047 -0.032673847 -0.08814141 -0.12019362 -0.014279133 -0.042721644 -0.09519489 -0.040889133 -0.038865007 -0.010280847 -0.039623383 0.010238046 0.00079923443 -0.0052208737 -0.003303119 0.021991946 -0.018754115 -0.005492918 -0.07469935 0.038139287 0.10045625 0.16713369 0.06292795 -0.10279273 -0.07275863 0.062236726 0.18001445 0.14853026 0.063324764 -0.09460155 -0.11675071 -0.09130395 -0.0697431 -0.082596436 -0.03996403 0.008250185 -0.014400242 -0.03689532 -0.009098547 0.02075768 -0.017524289 0.008759972 -0.018470071 0.012684083 -0.014673201 -0.03734444 0.024186142 0.011323457 0.05715316 0.05086201 0.05856877 -0.060986236 -0.054042775 0.06347333 0.16839324 0.17746803 0.03383927 -0.02055354 -0.052293845 -0.13015041 -0.03831584 -0.043870676 -0.021878831 0.014395782 -0.06941309 -0.09381659 0.0061221104 -0.017874198 0.017132632 -0.024070855 0.028584238 -0.013812532 -0.049210154 -0.049446475 0.01730943 -0.009446757 -0.023008192 -0.018839873 0.0022600512 -0.037265 0.06606752 0.13927579 0.13504511 0.124730304 0.10507575 -0.13614775 -0.1757509 -0.11950494 -0.020117573 -0.016160129 -0.024243215 -0.08076449 -0.06642785 -0.08115648 -0.020502098 -0.0030935777 0.0053496705 -0.00629787 0.03028922 -0.003988645 -0.041660596 -0.007386331 -0.016354613 -0.025716055 -0.028326653 0.05823845 0.05480409 0.019523099 0.042148475 0.15115486 0.11540086 0.08850213 -0.01816779 -0.22409509 -0.1433743 -0.085048854 -0.04304106 -0.047635723 -0.0572415 -0.09386181 -0.06385883 -0.07399391 0.004877655 0.010258698 0.028100153 0.011046218 0.019179132 -0.019280756 -0.06535062 -0.04022017 -0.0062860507 -0.0007575694 -0.050748363 -0.030409044 -0.049706098 0.029849565 0.043088313 0.14611939 0.15679891 0.09185749 -0.10065605 -0.21766938 -0.15525559 -0.12828527 -0.06418801 -0.110223226 -0.15888584 -0.079597205 -0.034226377 -0.014199676 0.01215403 0.007871022 -0.010146 -0.015867114 -0.009474996 -0.058926146 -0.09401133 -0.14227927 -0.11580788 -0.05451819 -0.023938473 -0.044865802 -0.06861093 -0.045879394 -0.0117237475 0.09074546 0.20243104 0.07237922 -0.09556006 -0.26528794 -0.2228881 -0.09918345 -0.13688298 -0.103146926 -0.13624795 -0.092604175 -0.0380468 -0.029700005 0.011910697 -0.02862826 0.0055089425 -0.032463286 0.026788985 -0.035730742 -0.070402466 -0.0981318 -0.0901745 -0.060310382 -0.022632403 -0.081816316 -0.027420277 -0.052772637 0.06440589 0.045040816 0.15905899 0.12161904 -0.03657348 -0.14468665 -0.118829876 -0.099243 -0.12355206 -0.06961878 -0.07587053 -0.042951453 -0.03017337 -0.0007443385 0.012328909 0.022440663 0.013597055 0.009743606 0.029595157 -0.070357025 -0.08608408 -0.090996645 -0.039919384 -0.0030935863 -0.06953541 -0.08354622 -0.061047476 -0.009821079 0.015188897 0.030098937 0.1199872 0.055424046 -0.0930608 -0.1783122 -0.16818053 -0.12075659 -0.066369735 -0.03172015 -0.07623894 -0.038263474 0.0016804978 -0.0054807495 -0.03408322 -0.021448515 0.010969041 0.035275243 -0.026083345 -0.045728195 -0.043345343 -0.01803757 0.035503224 0.028764866 0.052965496 0.018259209 -0.026919806 0.027507322 0.060528457 0.093669556 0.07109834 -0.02930526 -0.10456944 -0.1842474 -0.19048956 -0.120619066 -0.097086936 -0.030273678 -0.07059055 -0.01986971 0.0025643099 0.016575998 -0.0040789465 -0.018527556 0.024359483 -0.021644074 0.020039696 -0.012382807 -0.042350017 0.026043287 -0.02421198 -0.010208268 0.039228376 0.0341968 0.08437599 0.07206222 0.12331428 0.1379054 0.08912639 0.028292974 -0.06545793 -0.13304329 -0.16515037 -0.1259169 -0.08203074 -0.027619489 -0.022344658 -0.044444453 -0.0059915604 0.032059878 0.020185096 0.007494565 -0.024450444 -0.012257827 -0.0021527314 -0.0016956272 -0.029774621 -0.01946352 0.010388305 0.035774563 0.017043533 -0.027892563 0.025966426 0.09390962 -0.003605604 0.03568188 0.09328884 -0.040706288 -0.14320797 -0.13823481 -0.11487195 -0.073907115 -0.080242954 -0.037805915 0.0027603481 0.01642378 -0.03703525 -0.024783727 0.0015027807 -0.034739178 0.021185838 -0.027406694 -0.030035872 -0.010850075 0.009006045 0.0037680976 -0.021597113 -0.07044068 -0.022052707 -0.046297826 -0.011494134 -0.004411558 -0.015119718 0.049848672 0.024613263 0.009660101 -0.04759745 -0.09278156 -0.06648945 -0.01948743 -0.021060515 -0.029335642 -0.027733825 0.015338801 0.027892806 0.018013673 0.034493502 -0.0155001115 0.023020362 0.025578776 -0.021269208 -0.021349674 0.02042648 0.018935122 -0.0044981255 0.010093156 -0.02948346 0.0015043108 0.030297214 0.0011770031 -0.032615565 0.024107007 -0.018049449 0.009208845 -0.008278573 -0.0072624665 0.010784306 -0.01755764 0.014736222 -0.030415384 -0.018543327 0.022069044 0.0045854645 0.0061258734 -0.015227821 0.0040527033 -0.031644307 -0.02101462 0.034644913 0.023485256 -0.0045936317 0.0045619146 0.019015685 -0.024084361 -0.0237951 0.022209095 0.007120629 -0.0028542269 -0.019922925 0.009992091 -0.015940435 -0.003960515 0.015714461 -0.033400904 -0.0040965495 0.0062645623 -0.023660682 -0.011789877 0.008368404 -0.012778174 0.027572276 0.018008633 -0.03038091 -0.01796507 0.02547085 0.011571945 -0.026371403 0.030185224 -0.010190424 0.03348421 0.029552475 0.012485628 0.028687615 0.014309573 0.02745367 0.03544649 0.0045019304 -0.0016782625 0.019859225 -0.015890429 -0.017728789 0.020397212 0.0117966365 -0.030286679 0.0010561049 -0.030015947 0.024053076 -0.026954385 -0.0019604394 -0.014685908 -0.0013727887 -0.00213265 0.024656186 -0.027684161 -0.02167594 -0.019175002 0.026850289 -0.004406278 0.014501502 0.016209666 0.007821122 0.0350021 0.023921866 -0.0077559496 0.0036914179 0.0041970974 -0.021067124 -0.002073679 -0.004851844 0.007082517 -0.012228144 0.0035128181 -0.006305854 0.030763604 -0.02535845 -0.03472402 0.0070300065 0.02436666 0.024524022 0.01464651 0.010149999 -0.025139201 -0.02963754 0.027202161 -0.017299058 -0.0033677989 -0.0007186435 0.027321855 0.016502913 0.01623645 0.017386893 -0.018940505 0.011333756 0.01998259 -0.022338502 -0.034856815 0.0059133642 -0.032587565 -0.0011931338 0.037251115 0.028663872 0.042638108 0.013319021 0.01659899 0.016042303 -0.014549862 -0.02437407 0.024935609 0.0047077583 -0.02061199 -0.00877839 -0.0037432413 0.014068606 -0.0054494618 -0.0126511995 -0.016629389 -0.015214462 -0.021581352 0.024780389 -0.017316395 -0.005649049 -0.034374867 -0.024466684 -0.039405 -0.047946986 -0.04081518 0.028615918 0.014221924 -0.003142455 0.02282651 0.031748764 0.0025569855 0.03911079 0.01059352 -0.020540671 -0.02558986 0.014994341 0.007632077 -0.00087986264 -0.02282398 0.022594852 -0.004838632 -0.025936991 -0.037184756 0.015391918 -0.03487947 -0.04150052 -0.041386925 -0.05038705 -0.07220074 -0.08527679 -0.035401586 0.0030265239 -0.014685597 0.042246606 0.04464034 0.0474911 0.053351745 0.044475365 0.038050115 -0.016254816 0.0017951158 0.01971542 0.03021235 -0.031776816 0.009467343 -0.019745016 0.0237517 -0.029018756 0.02131793 -0.018000195 0.026851546 -0.03314667 0.0001673336 -0.051933974 -0.03609016 -0.06949432 -0.106091715 -0.17931698 -0.11989588 -0.060932994 0.007150072 0.095218614 0.12112027 0.106617235 0.02694617 0.013061227 -0.01356951 0.007542913 0.010712712 -0.005527307 0.002515587 -0.0061911093 -0.011235936 -0.030553795 0.00038942328 0.013307088 -0.030238291 -0.0010799839 0.019432982 -0.047671918 -0.072394 -0.09529371 -0.11131621 -0.20353758 -0.22098163 -0.15087213 -0.060253635 0.0155140655 0.09424131 0.08287126 0.06302941 0.06329658 0.014471608 -0.04000575 -0.018544447 -0.0146518005 -2.4741292e-05 0.03292082 0.037255544 0.0026754441 -0.015709916 0.0006205772 0.021406101 0.0010047484 -0.021481501 0.003132847 -0.050108094 -0.029280057 -0.08942565 -0.13264297 -0.21235229 -0.1869929 -0.10010782 0.0069630346 0.110557444 0.122116916 0.03468925 0.04756931 0.070348665 0.09018284 0.0540485 0.012176597 0.011084879 0.041129168 0.005791899 0.030450074 0.00810434 -0.009229485 0.017964099 -0.018849967 -0.03103765 -0.03606847 -0.017241592 -0.022429245 -0.042182997 -0.11168697 -0.097409666 -0.15514374 -0.13009666 -0.03567298 0.039179184 0.0071668653 0.05576546 0.09393617 -0.0058971127 0.015515931 0.030886134 0.013809565 0.077121034 -0.024093835 -0.0068342695 0.06428137 0.018358396 -0.020258581 -0.0234324 -0.030955222 0.029437069 0.0068762535 0.023787001 -0.0052216025 0.011534364 -0.025103385 -0.041762605 -0.14006828 -0.114418976 -0.04990956 0.0056483033 0.075086154 0.09513807 -0.00086216675 0.016053248 -0.018569637 -0.12787853 -0.12447812 -0.05707046 -0.015353706 -0.00089847593 0.012605702 0.0095703965 0.028541207 0.032757267 0.02313138 0.011392773 0.032705985 -0.032522924 0.009842243 0.017337836 0.00447473 -0.04763035 -0.053999055 -0.093635574 -0.07165951 -0.060962178 0.008924538 0.14646634 0.1696459 0.014940721 -0.040266972 -0.057888847 -0.0737046 -0.13239533 -0.14054352 -0.03077353 -0.053044878 -0.020868868 -0.053546187 0.0062328205 -0.015715156 0.010295303 0.014662366 -0.009404294 0.016051713 0.027211346 -0.0060203345 0.022402154 -0.0012181341 -0.02364484 -0.049052417 -0.048044767 -0.065610394 -0.00043399123 0.06723516 0.07869447 0.06705266 -0.047996104 0.005095943 -0.061706565 -0.062270425 -0.09401658 0.008796456 -0.026319088 -0.024625888 -0.028588504 0.008482532 0.040359363 0.03283565 0.035324253 0.011638471 -0.023727218 -0.03284999 0.029107817 0.0056036566 -0.0033724138 0.017872686 -0.03415246 0.004255359 0.027700916 0.030166268 -0.014979179 -0.0056915935 0.065457165 -0.07439097 -0.06543817 -0.01343256 -0.008787752 -0.039782207 0.0094904555 0.03321276 0.049938805 0.008028596 -0.009453885 0.0060073007 0.025176257 0.018321475 0.0138781825 0.032479256 -0.03502216 -0.010137439 0.019616468 -0.0056767478 0.015561999 0.027052654 -0.02246044 0.009129431 0.045948382 0.029867422 0.025328731 -0.053425897 -0.003834968 -0.01416836 0.09475436 0.055994283 0.07507243 0.04192186 0.043707892 0.03460224 0.014062788 0.019378882 0.017048277 -0.0023542459 -0.018598633 0.00292809 0.036939498 0.019715236 -0.03247898 -0.014247306 -0.0075788465 0.02769417 -0.027908027 -0.006356141 -0.01134065 -0.020406738 -0.01940308 0.0018093523 -0.0050200787 -0.065785445 -0.041233208 -0.016170954 0.102498285 0.16551755 0.10727816 0.022411812 -0.030883588 0.0041243667 -0.027075293 -0.0038710495 0.008087001 -0.015866673 -0.01481008 -0.013419434 -0.005082635 0.011418471 0.02039398 -0.035351012 0.00833723 -0.026497172 0.006290647 0.024504818 0.010879196 0.045866635 0.06514556 0.07195117 -0.020408146 -0.008459253 0.005796964 0.07197899 0.12375841 0.09457946 0.033571135 -0.020790854 -0.011088781 0.0002814031 -0.030725505 -0.00859388 -0.033128347 -0.028569024 -0.06931499 -0.03340301 -0.025556292 0.0028162424 0.025314707 0.0129763745 0.020920647 -0.023007844 -0.002644905 -0.0033097703 -0.0049508675 0.020688478 0.067967564 0.07871935 0.059244927 0.10047163 0.043800883 0.09389709 0.02583872 -0.0074020815 0.006302028 -0.0494793 -0.033788156 -0.02548033 -0.0648787 -0.039548233 -0.026951546 -0.039711088 -0.009340059 -0.029241363 0.018146798 0.005706586 0.0018028934 -0.014648336 0.008575199 -0.022837292 -0.024561616 -0.069148935 -0.01995542 0.031367704 0.0825355 0.08404678 0.083755404 0.12358894 0.022496458 0.015834566 -0.04318051 0.04748904 0.011626277 0.01075048 -0.055619676 -0.0339379 -0.022859363 -0.052599307 -0.047289874 -0.059474222 -0.008300318 0.008959988 -0.006721747 0.02316249 -0.032455187 0.011791122 0.008468034 -0.024189709 -0.0457675 -0.04481453 -0.053956155 -0.02217535 0.027631918 0.003832062 0.041545752 0.057416685 -0.0070124734 -0.009580472 -0.012386843 0.033497192 0.061001793 -0.018036135 -0.013698191 -0.037179213 -0.0776775 -0.036629334 -0.00465098 -0.05099184 -0.01980735 -0.0359416 -0.016794894 0.015247742 0.025018862 -0.00565708 -0.02031184 0.010692229 -0.006431987 -0.007640907 -0.017908234 -0.011906305 -0.010917719 -0.008756169 -0.033778906 0.027100809 0.013458897 -0.011764401 -0.068126604 0.025976323 0.016888944 0.018277863 0.05283655 -0.051739868 -0.04093145 -0.038650934 -0.059844065 -0.028585916 -0.027978525 0.0027700826 0.01043232 -0.031654034 -0.008041565 0.030528054 -0.0021649522 -0.03622859 -0.008781411 -0.0048565036 0.015991969 -0.026015364 -0.03728241 -0.08993003 -0.042447474 0.024211552 0.03896783 -0.034603007 -0.056194738 -0.011746686 0.044348724 -0.0397451 0.004511518 -0.05824358 -0.06786161 -0.074649684 0.0013211387 -0.031490184 0.018567868 0.022710402 -0.026055658 0.01860805 -0.014820029 0.017278718 -0.011015901 -0.030127922 -0.046608318 -0.019996408 -0.011114935 -0.036925692 -0.03310747 -0.03508266 -0.028858002 -0.0013932921 -0.0015327212 -0.0038668232 0.0070977216 0.017339783 -0.053710576 -0.03953155 -0.008288207 -0.0394158 -0.022343758 -0.064825974 -0.039540853 0.015507707 -0.029071001 0.015178961 -0.0014280684 -0.00878529 0.019118357 -0.027441481 0.016820416 -0.00517319 -0.03712476 -0.0016409082 0.02855103 0.010990775 0.0032969525 -0.036721822 -0.012842036 -0.026366968 -0.014807168 0.07716048 0.03532571 0.0070483866 0.02551956 -0.0033927544 -0.0377135 -0.03014747 -0.060936235 -0.008834745 -0.0174016 -0.019160345 0.032904096 0.026395498 0.0024387147 -0.022273684 0.008866694 -0.011321511 -0.029959697 0.02846566 -0.028660666 -0.0037422704 -0.003790778 -0.006894048 -0.01620905 -0.017352965 -0.0113448575 -0.07228751 -0.033937506 0.014724529 0.026109088 -0.031366635 0.011702663 -0.03424784 -0.053300604 -0.03131323 -0.036639366 -0.019257668 0.00406937 0.015468095 -0.034903128 -0.006147248 -0.026662186 0.018754823 0.03299014 0.0025786757 -0.034138523 -0.0015238649 0.027247429 -0.028030472 -0.046463627 -0.013942636 -0.03099711 0.027389418 -0.022468587 0.022736557 -0.02024001 0.006863781 -8.8103094e-05 -0.0029851964 0.009707239 0.016404996 -0.043708343 -0.046206813 -0.071298204 -0.009481986 0.015913572 -0.0077689844 -0.032994688 -0.014825239 -0.009220624 -0.015096893 -0.021487437 -0.018716617 0.009087205 0.02845932 -0.03335451 -0.044801693 -0.043927744 -0.027580496 -0.008362787 0.030022694 -0.012966162 0.037580013 0.05768619 0.0321265 0.07738096 0.08921896 0.0797054 0.067489795 0.062242903 0.025705239 0.012410849 0.031947035 0.0023363673 -0.019181909 0.012253718 0.015448457 0.013438478 0.02611707 -0.020836597 -0.023519976 -0.019371254 0.002824498 -0.02632825 0.026046406 0.015889617 -0.012475539 0.0016068211 0.023321148 0.06362576 0.009078798 0.05440295 0.046035435 0.04254727 0.08322278 0.061436478 0.026834626 0.056364145 0.011966989 0.029079381 -0.025302298 0.0080224825 0.012254114 0.02011753 -0.015017687 -0.017261386 0.022209799 -0.011278412 0.011341772 -0.014931075 -0.024326045 0.029173989 0.014467574 -0.01623047 0.00502255 -0.022595262 0.028134067 -0.012538239 0.007641498 -0.03283816 0.0389187 0.023952976 -0.02172889 -0.009135356 0.02003214 0.035006914 0.026443135 0.030035296 0.01784621 0.029369583 -0.0043227887 -0.023733195 0.022692166 0.030011617 -0.00580456 0.024293806 -0.024009356 0.028707381 -0.002947782 -0.028294198 -0.00033572744 0.028465426 -0.023383938 -0.004585854 -0.007866422 0.0036794161 0.023581905 0.0013565592 -0.01800783 0.035790082 -0.0059167575 0.01968269 -0.011168054 0.017571438 -0.026486976 0.034972813 0.008933183 -0.034609526 0.022854785 -0.026202757 -0.012834026 -0.015379408 -0.029603 -0.029933395 0.014072687 -0.002344651 0.035564136 0.008531502 0.01644854 -0.031278312 0.004613106 -0.020835062 -0.015046988 0.020090224 -0.011397563 0.023341218 -0.013231889 0.021722533 0.0015363976 0.022243237 -0.005364137 0.034914155 -0.021735214 0.011641902 0.022739151 0.0013508695 0.011676141 0.016674839 0.008880595 0.020351628 -0.0076019 -0.030813104 0.0020526436 0.029004047 0.010429766 0.034582045 0.0147164315 -0.022251295 -0.020571792 0.0081753 -0.01019205 -0.030165441 -0.0071506035 0.002589182 0.00688502 0.05280684 0.043037176 0.06949437 0.033265375 0.0027507881 0.0031151942 -0.007465788 -0.034051444 0.016849628 -0.016737722 -0.029583113 -0.031481016 -0.022651698 -0.022040684 -0.015249411 -0.004709968 -0.023878682 -0.0007064076 0.020951035 0.02641442 0.008536368 0.0004007179 -0.018639995 -0.007386817 -0.016261222 0.0017477113 -0.0062145954 0.055668514 0.050108597 0.09981378 0.1161711 0.13562782 0.15524763 0.11275832 0.06140849 -0.04454272 -0.0057452526 -0.07352248 -0.040291056 -0.039236113 -0.035063002 0.02040617 0.025838342 0.0043005263 -0.01614881 0.027177008 -0.013454156 -0.028022854 0.012669812 0.008617477 -0.0063780756 0.014935845 0.02596455 -0.011851801 0.017833553 -0.018179271 0.032683473 0.052089777 0.14638962 0.114745006 0.16846088 0.19125998 0.14960243 0.11766954 -0.001205639 -0.03377992 -0.08066175 -0.038830005 -0.038370296 -0.02434142 -0.0014826487 -0.01786514 0.001024936 -0.015005178 0.035162766 -0.006959024 0.025915489 0.041516908 -0.016668452 0.008984807 -0.053015362 0.074667394 -0.02671574 -0.080906786 -0.026918579 -0.023550428 0.035135366 0.04173229 0.07642206 0.11213434 0.116560265 0.15773255 0.065738305 0.071242206 -0.041094236 -0.050859146 -0.035625964 -0.051444963 -0.03262349 -0.03245477 -0.03447301 0.022282673 -0.0176108 0.017883364 0.0043514883 0.017590256 -0.012219671 0.012214932 0.04902387 0.053932324 0.015496851 -0.03209017 -0.032596614 -0.060632464 -0.010728663 0.058610056 0.1289515 0.077715196 0.08880847 0.057373744 0.038089167 0.025181578 -0.005780906 -0.089783095 -0.03396795 -0.019472783 -0.032393083 0.03159082 -0.03227496 -0.032638837 0.032058727 -0.018985284 0.01648912 -0.0050669783 -0.004262108 0.004805078 0.01836973 0.010561913 0.04555067 -0.03431631 0.032371 0.01250926 0.018291647 0.15237114 0.22753976 0.14142215 0.1385929 0.0841872 0.07486097 0.08314639 -0.019160746 -0.10734291 -0.031100182 -0.03510922 0.01739035 0.000648043 -0.03356706 0.022114782 0.04378467 -0.008003391 0.023162859 0.007730934 -0.035485346 0.06234053 0.1066938 0.017771838 -0.010543922 0.060422644 -0.030586325 -0.19632126 -0.04474829 0.13036305 0.20288779 0.14694445 0.1330393 0.092767835 0.06250264 0.10271865 -0.0054506925 -0.08701597 -0.06960137 0.017302282 0.024540719 -0.032575905 0.012704911 0.0050860485 0.033546984 -0.004850032 0.010699879 0.02434279 0.039635494 0.060750056 0.027315103 -0.100911796 -0.07910144 -0.08399028 -0.31659234 -0.47396797 -0.23444213 0.062171075 0.1375487 0.1244131 0.077169746 -0.028877167 0.006350844 0.06928065 -0.047033656 -0.07938334 -0.018390192 -0.005243301 -0.030132238 0.013835397 0.016061785 0.03549513 -0.0049460647 -0.051571254 