layer_stack.1.weight
0.012526338 -0.012326705 0.0010713893 0.0053509134 0.009936516 0.011227434 0.020663632 -0.0041093873 -0.026505182 0.006465678 -0.0015639493 0.00941484 -0.02189016 0.034564447 -0.0017874965 0.035506476 0.0049203425 0.031091917 0.02630678 -0.011258931 0.013801299 -0.02118086 -0.017861508 0.029455569 0.025275389 -0.01579088 -0.021536777 0.007961917 -0.012625303 0.017946262 -0.01136793 -0.030749846 -0.03005425 0.022107435 -0.017594542 0.026689049 -0.03086877 0.017746432 -0.034224514 -0.02789011 -0.0026236363 0.016901217 -0.023119366 -0.02256739 0.03444213 0.01102933 0.010921849 0.019104507 -0.023389919 -0.021148724 0.029808667 0.012871249 0.005063283 0.015415188 0.0141668115 0.006319638 0.011186511 -0.006694811 0.022759946 0.0010095239 0.028753862 0.013438694 -0.023982726 -0.01768894 0.017598124 -0.0014424121 0.0036997024 0.012961174 -0.033570483 -0.018782863 -0.03263951 0.0056351335 -0.027589489 0.006464081 0.025332648 -0.0066278195 0.017422708 -0.024172753 -0.033125963 0.0075793415 -0.026861794 -0.002696075 -0.024688901 0.010110732 -0.03270389 0.0028534406 -0.0058428682 0.010013123 -0.0030974406 0.004663689 -0.0319078 -0.010793816 -0.006218388 -0.012478792 0.00097389484 0.0020365273 0.00856336 -0.024988553 -0.015306113 0.0018278753 -0.005045595 -0.022200087 0.017972162 -0.013275464 0.020190665 -0.029398497 -0.015297154 -0.020258138 -0.006022093 -0.010835129 0.03023392 0.032577217 -0.009739846 -0.035296425 -0.0047323345 0.0010721374 -0.00063424 0.019687371 -0.028898712 -0.028591521 -0.01548468 -0.013910288 0.0015561748 -0.041613054 -0.022855647 0.011293111 -0.019316072 -0.02218875 -0.018664032 -0.0328169 0.029572621 0.017024696 0.000325396 -0.024760233 0.028717449 0.0068917125 0.014405659 -0.037051752 -0.011313575 0.0010362227 0.03232087 -0.0046045273 0.03128835 -0.008623085 -0.003444187 -0.031124048 -0.010557774 0.001975692 -0.020097433 0.023310302 -0.02182454 -0.044633575 -0.023630556 -0.029388478 -0.0568406 -0.02270171 0.004184063 -0.033390984 0.011499395 0.01686408 -0.041419256 0.0075010005 0.021807197 -0.024971789 -0.006317242 -0.02917267 -0.021273399 0.021547595 0.013205631 -0.03364209 0.014037254 -0.0021728359 -0.023852302 0.0050869253 0.030222882 0.00013768392 -0.03330275 0.0053969785 -0.0021114885 -0.054251708 -0.024156915 -0.04090877 -0.029827548 -0.013804565 -0.008710375 0.047395255 0.026266545 -0.024653252 0.011597247 -0.028027881 -0.01889136 0.021604383 0.027398111 0.0019838312 -0.03120485 0.033139583 0.0011531286 -0.02167684 -0.01858351 -0.016632514 -0.009093721 -0.037022468 -0.04119127 0.01589626 0.02581414 -0.021209585 -0.008748081 0.0053920727 -0.027469862 0.01713681 -0.004886341 -0.01494787 -0.010172721 0.037924547 -0.009950488 -0.025476197 -0.011792113 -0.009868826 0.01945533 0.039223548 -0.0113225505 -0.01377883 0.016125344 -0.014119278 -0.03441856 0.029327905 0.02010126 0.026416617 0.0034381566 -0.0075270818 -0.008721944 -0.012387043 0.02890983 -0.04259473 -0.010581638 -0.01612298 0.019089518 -0.025324397 -0.037572578 0.012916273 -0.02644265 0.04016777 -0.011743988 0.027616933 -0.021359611 0.009016319 0.034059297 -0.0028478177 -0.03078806 -0.035086397 0.009880605 -0.021152435 0.03034568 0.021074662 -0.030777577 0.0008176778 0.0319646 0.015872505 -0.015461575 -0.0019925537 -0.011428358 -0.021947496 0.0040754173 0.033662893 -0.022374393 0.010341383 -0.017237477 0.018387172 0.006263927 -0.0017174662 0.05149009 0.018317163 -0.007235747 -0.013215259 0.00609318 -0.014151968 -0.012910479 -0.031772733 0.032240167 0.034026977 -0.025907896 -0.0060745957 0.00400893 0.020545127 0.026581062 -0.004720134 -0.0016546089 -0.022447968 0.0066749 0.034164898 -0.012942416 0.003934354 -0.02359609 -0.010734611 -0.0222146 0.021053098 0.060414664 0.016477298 -0.022934902 0.0058520124 0.021706417 0.027842853 0.025333498 -0.01155028 -0.018407598 -0.0028933673 -0.027072746 -0.028171837 0.017452097 -0.03137759 -0.034949135 0.021048475 0.04394512 -0.009075968 0.009006283 0.02348466 0.018927496 -0.025082415 0.003315829 -0.0061416943 -0.011267896 0.014470073 0.060319666 0.043619655 -0.01333939 -0.0058777984 0.023099352 0.02594829 0.030976318 0.031692892 0.03276407 -0.013462847 0.030212205 0.0006762869 -0.019462436 0.014372306 0.010249998 -0.013129695 -0.019928223 0.0083471555 0.033335514 0.03500547 0.032770984 -0.031940453 -0.027492888 -0.0064937742 -0.007858369 -0.045728013 0.015205188 0.035007812 0.02718125 0.03372485 -0.012435283 -0.009948299 -0.012732822 0.0019394273 0.0068215695 0.0158616 0.0118916435 -0.0043050693 -0.009574772 0.0056591863 -0.005102365 0.011787636 0.019685177 0.0052091735 -0.01401543 0.015649578 -0.023298418 0.03881311 0.01792488 0.024485549 -0.033761922 -0.008029329 -0.031012654 -0.0066085486 0.017733281 0.057209004 0.082140386 -0.01611119 -0.020964809 -0.014697333 0.013024215 0.024684066 0.034795336 0.018743237 -0.025409613 -0.015537581 0.028767755 -0.008033296 0.004570515 -0.028071921 -0.013626648 -0.03488788 -0.015938986 0.03242624 0.02697658 0.03425742 -0.009632449 0.036987893 0.034836665 -0.025463248 -0.016385522 -0.008509664 0.057220336 0.03920169 0.013197314 0.018900504 0.00026362028 -0.036738407 -0.009508158 -0.021747014 0.0013976588 -0.019781549 -0.038441535 0.021238254 0.008632228 0.021546243 0.0075551188 0.01159337 -0.0037149703 0.031580646 0.032392383 -0.012982546 -0.01839525 -0.022130731 -0.03148357 0.03672498 -0.014036521 0.0129998885 0.008533455 -0.01567701 0.03540938 0.05329448 0.023185572 -0.054706592 -0.017938314 -0.042993236 -0.0087477965 -0.035127066 0.009043702 -0.025499182 0.008599854 -0.003996159 -0.013724739 0.012426518 -0.028662734 0.020125857 0.027691659 0.033084035 -0.021524495 0.033184767 -0.038606226 -0.028025847 0.010230407 -0.012042778 0.0043842546 -0.028083852 -0.00089857436 0.019063108 0.03411797 0.048701357 -0.016900541 -0.07236098 -0.05863379 -0.040074576 -0.07177936 -0.034095127 0.027043046 -0.0069522806 0.0072514284 0.025483204 -0.016112667 -0.01790128 -0.025271112 -0.0014714812 0.011211958 0.0072651063 -0.035360012 -0.0009403491 0.01757591 -0.03260877 0.025061956 0.0012597993 -0.010722032 -0.05126105 -0.009824978 0.030688735 0.09497738 0.040431056 -0.041658998 -0.101045825 -0.07223154 -0.037232682 -0.012673396 -0.045846853 0.0028326283 0.038259458 -0.025131913 -0.002347626 0.01859029 -0.006157352 -0.031391602 0.03367655 0.012146316 0.030649079 -0.009330613 -0.010252622 -0.028220516 -0.0056722006 -0.04999112 -0.012834461 -0.039916437 0.00083774794 0.034216106 0.054333776 0.09080203 0.04349751 -0.13006026 -0.119962916 -0.09381232 -0.070305176 0.0024355808 0.017796734 0.015214755 -0.02312671 -0.00650017 -0.02306458 0.0010089868 0.032596227 0.006496251 -0.0034482316 -0.011801893 0.01833374 0.00034519145 0.0057931477 -0.014909535 -0.0038096863 0.007831332 0.013509333 0.018121503 -0.026509037 0.056817815 0.08294241 0.11190087 -0.05942421 -0.1234783 -0.10664513 -0.100590855 -0.075863644 -0.041571938 -0.018907184 -0.017589845 0.017631728 -0.023834748 -0.0105022015 -0.010479975 0.00916183 0.02232442 0.0012481759 -0.023270365 0.030838111 0.02337748 0.032401804 0.0059956103 0.023325915 0.012493158 0.013626516 0.011791259 0.02706458 0.014802281 0.04555614 0.047776286 -0.059505194 -0.12079092 -0.1212272 -0.07615957 -0.03764557 -0.031182963 -0.009920552 0.036582112 0.0068150507 -0.023240648 -0.02586329 -0.02104496 0.013837077 0.032818627 -0.0010272964 -0.015474113 0.03394799 -0.014325467 -0.033956833 0.019698609 0.020923754 0.0023582452 -0.02002598 0.019991614 0.04044252 0.019212497 0.015354989 -0.027085122 -0.05301222 -0.08465699 -0.081214495 -0.055836484 -0.08341715 -0.014538043 -0.012740655 -0.013039734 0.016017474 -0.024273772 -0.02325494 -0.00026210846 -0.011659438 -0.003187396 -0.026856776 -0.017870497 0.0051816185 -0.0103897005 -0.012225455 0.020397559 -0.022904875 0.036015704 -0.016655462 0.002511859 0.057777263 0.016990308 0.009860813 -0.05328063 -0.043099325 -0.07127548 -0.064797625 -0.051161554 -0.06321325 -0.017775806 0.013404995 0.035048645 0.011647866 0.018219512 0.04386053 -0.017640363 -0.011310703 0.001557837 0.0039822757 0.017375512 -0.030434111 -0.0002570179 0.028735392 -0.022438612 0.0024100286 0.03913332 0.032637183 0.06964638 0.03449565 0.020999525 0.016401112 0.004110397 -0.046622775 -0.01939212 -0.040388096 -0.019770496 -0.05087098 0.0009269372 0.0117787095 -0.021758458 -0.015538339 0.018749423 0.04452583 0.004151988 -0.022729635 -0.024004346 -0.025026472 -0.01252274 0.0022323558 -0.015969018 0.016515132 0.031913802 0.028017534 0.045561045 0.050212845 0.028416727 0.029418191 -0.01141159 -0.022209361 -0.049131926 -0.02871425 -0.023226174 -0.040403243 0.00664516 -0.028983928 -0.036918897 -0.012096981 0.00080061256 0.03562273 0.04446394 0.023310132 0.0009366387 0.0153727345 -0.015465667 -0.0034211322 0.006588953 0.029927285 -0.0064940243 0.021891449 -0.021452816 0.03359419 0.031820063 -0.015836716 0.040398136 0.0052702813 0.02111775 -0.02199545 -0.024098689 0.024231184 -0.033199806 -0.039890945 0.021323545 0.008634065 0.02253761 -0.027538627 0.03836678 0.008840009 0.01225794 -0.001864111 -0.02818346 -0.011777695 0.031095902 -0.029538296 -0.030225392 -0.03219567 -0.00016060898 0.029226635 0.026997585 -0.012379364 0.029319746 0.012745759 -0.028104184 0.01579385 0.019506719 0.029191807 0.009744929 -0.02264685 -0.017058617 0.003756755 -0.014089931 0.010461531 -0.016007824 -0.019341793 0.039017655 0.033673454 -0.006336402 -0.022568554 -0.030734308 0.035374515 -0.030141896 -0.017083395 0.018778224 0.008231789 -0.018246226 0.01012846 0.035043422 0.013177845 0.029468914 -0.0027869814 0.032030318 -0.017831536 -0.030603584 0.018630952 -0.028873932 0.014519701 -0.032455906 -0.0014698867 0.03234038 0.019240787 0.020710008 -0.0012741445 0.026219495 -0.023748498 0.030876203 0.01599871 -0.021244051 0.026026132 -0.011953261 0.0028191125 0.005837028 -0.027265916 -0.017500956 -0.033896983 -0.0071070963 0.011789987 -0.012744913 0.012184982 0.027717149 0.013671096 -0.0063555073 -0.009503407 -0.0048124804 0.030429296 0.032810982 0.010639715 0.0042655515 -0.011926187 0.023397826 -0.009254899 -0.012649681 0.03072018 0.035203356 0.027059475 -0.0348305 -0.0146369515 0.032046404 -0.020405348 -0.029432604 -0.029755091 -0.009356644 -0.007269821 -0.019998102 -0.0131820915 0.023005487 -0.026603667 -0.0064587635 0.029239481 -0.010664609 -0.028705688 0.025722507 0.012893176 -0.018632304 0.021539116 0.022417307 0.016105454 0.03242514 0.004650237 -0.030108005 -0.015566348 0.012390207 0.0038981515 0.03545348 -0.0015988563 -0.028012792 -0.0019317227 -0.016955905 -0.01907829 0.03390422 -0.01489194 -0.00094496604 -0.018436829 0.021865586 0.0239232 -0.011924721 -0.011324596 0.012317844 -0.015817864 0.009049616 0.017421722 0.024060339 0.026556315 0.016571349 0.00049592584 -0.00017461447 0.01946121 0.015126296 0.016871445 0.02673562 0.009948488 -0.0012644711 0.0051411563 0.027181396 0.033220213 0.025037924 0.02781852 -0.0046027596 0.0041258764 -0.007002945 -0.005333946 -0.03302437 -0.02236616 -0.006513682 0.029898927 -0.020354178 0.019473625 0.07443009 0.09589198 0.06739067 0.07797612 0.032578956 0.018618118 0.016583618 0.035046313 0.024041114 -0.026334794 -0.01622428 -0.019477537 -0.019559005 -0.003395912 0.013385621 0.0038211092 -0.007788369 0.0081483 0.009627688 0.022272304 -0.014044039 -0.0061363494 -0.05744389 -0.055716816 -0.032929286 -0.0073666684 -0.002200666 0.10159555 0.08647698 0.06652295 0.09377376 0.16781054 0.12772447 0.09813969 0.116479486 0.020588826 0.07164523 0.009287335 0.0007212095 -0.0033749742 -0.029348914 -0.026309252 0.018526724 0.005716899 -0.009270843 0.00088539725 -0.03471502 0.019968638 0.0089170225 -0.027701594 -0.054754987 -0.05345526 -0.018795226 0.015504878 0.090142466 0.12328688 0.08612942 0.114693224 0.04031151 0.046147447 -0.01804419 0.032076403 0.061032657 0.031582963 0.013754154 0.02403891 0.04171782 -0.016459668 -0.015475243 0.019105855 0.026531495 -0.0028931084 -0.020218058 -0.030139342 -0.011031831 0.0137124 -0.053518504 -0.09377035 -0.07414788 -0.06966242 -0.0055389996 -0.026630983 0.09787529 0.1774134 0.15342924 0.22673506 0.14321315 0.037168212 -0.002576086 -0.052830983 -0.07565201 -0.038535748 -0.09660573 -0.031266157 -0.014939115 -0.045718424 0.008495933 0.004887616 -0.0030215124 0.0051558735 0.009328394 0.022073464 -0.022991678 -0.02369244 -0.08166936 -0.099302314 -0.08405913 -0.0053842994 0.012791344 0.05562534 0.16700317 0.1747005 0.16959059 0.10538832 0.121579885 0.007234782 -0.07061613 -0.14228791 -0.14043394 -0.029382017 -0.10108553 -0.099986 -0.115981296 -0.06579108 0.04029249 0.023835247 0.0011309751 -0.035612848 0.023352016 0.0016028275 0.004868224 -0.015916687 -0.06598746 -0.06222434 -0.013020801 -0.052817635 0.11026077 0.10547285 0.10074564 0.17736378 0.0755804 -0.031103568 -0.039701752 -0.060454667 -0.102743395 -0.16217323 -0.15805066 -0.1907003 -0.132763 -0.08912911 -0.17272079 -0.09202208 -0.017742114 0.017328622 0.00519742 0.007445925 -0.02852502 0.020342633 -0.018710626 0.006514836 -0.08159809 -0.07971196 -0.009211169 0.064078405 0.10367345 0.09262825 0.15005255 0.19394322 0.0010891501 -0.15127677 -0.1524754 -0.06990212 -0.08824123 -0.070293754 -0.11529673 -0.21823652 -0.19300705 -0.18945196 -0.25231475 -0.15349336 0.03024592 0.042780597 0.035004795 -0.020508498 -0.024706751 -0.02034027 0.028581621 0.0069416356 -0.07149701 -0.0065461504 0.074418075 0.11760684 0.13207988 0.1315187 0.084035985 0.057886835 -0.05840946 -0.18424132 -0.09868345 -0.02394886 0.023915451 0.079916425 -0.06503074 -0.14667605 -0.11557352 -0.15420616 -0.1806909 -0.047837254 -0.02919724 -0.009707393 -0.02135627 -0.017770264 -0.02005302 0.023428477 -0.010893485 -0.0033919737 -0.036657147 0.014366133 0.110167444 0.12430276 0.11026139 0.032890283 -0.11004102 -0.15138996 -0.16667593 -0.12602846 -0.06407481 0.04202376 0.18970758 0.22833416 0.12823088 0.008325237 0.022137742 -0.048305754 -0.07065664 0.03354767 0.012383593 -0.03222265 0.016978372 -0.004741904 0.014600997 0.030899119 0.011415071 -0.0015882135 0.010043975 0.019987246 0.098256126 0.08945154 0.07593082 0.008994853 -0.09601118 -0.12513515 -0.15479894 -0.108500734 -0.052324314 -0.07103799 0.039205097 0.118075944 0.093443535 0.10365875 0.06278701 0.00902756 -0.0037510558 0.051374357 0.032900393 0.0029812967 -0.026534855 -0.02059239 0.027480664 0.017104503 -0.004779736 0.037371017 0.07031931 0.05166529 0.06514159 0.1300469 0.038036894 -0.013012432 0.04660916 -0.06499684 -0.10294693 -0.15603517 -0.14029372 -0.11790885 -0.021225153 -0.045305733 -0.008046933 0.098694 -0.0042571886 -0.0010923648 0.04939562 0.039559964 -0.0102048125 0.004327884 -0.0015768923 -0.0040123276 -0.02205624 -0.032852463 0.0066194586 -0.026536467 -0.0040289215 0.020091342 -0.0014304088 0.021749983 0.03990071 0.061295502 0.041379124 -0.0075903046 -0.068551295 -0.109219566 -0.16630359 -0.102368765 -0.037611566 -0.019476676 0.063586 -0.09198688 -0.038696174 -0.025997011 0.013768082 0.06587033 0.009737049 -0.0009859969 -0.038510527 0.028127356 0.030344987 0.015122944 -0.009727626 -0.031563662 0.0076620583 0.028723031 -0.0019264801 0.018104797 -0.044837024 0.009626492 0.014344555 0.033952832 -0.051183697 -0.102478616 -0.20496812 -0.14664136 -0.06850776 -0.010110413 0.018661115 -0.005560258 0.021678373 0.0032151313 -0.043236345 -0.017183041 -0.019400986 0.008058663 -0.030076416 0.0028406577 0.031971656 0.00995265 0.009603465 0.0011344759 0.02733587 0.02202227 -0.07182745 -0.10712035 -0.039111797 -0.05824822 0.00863274 0.032045994 -0.049730305 -0.13153063 -0.19287951 -0.17528366 -0.05228175 -0.040627524 -0.06277448 0.0044324724 0.015712246 -0.055119514 -0.035309248 0.025487164 -0.032920193 -0.0054998244 -0.04121557 -0.042604882 0.034861796 0.0067439065 0.023981884 -0.001855272 -0.03681126 -0.0029046822 -0.017560475 -0.07402117 -0.013742827 -0.009844969 0.060587827 0.11643861 0.070424825 -0.049630336 -0.16674736 -0.14339204 -0.0406712 0.012237875 -0.029122094 -0.0023031088 0.021723116 -0.0174439 -0.03924725 -0.041050233 -0.05573379 -0.02897799 -0.029415581 -0.029844165 0.010001455 0.009091977 -0.03636277 0.023341386 0.025380544 -0.047272313 0.0052208984 -0.007330597 0.016907673 -0.007358687 0.07492913 0.069725424 0.061385803 -0.05975724 -0.13534692 -0.1122993 -0.04139112 0.049019072 -0.0026352142 0.030073354 -0.0009101536 -0.019979164 0.025578137 -0.005601018 -0.004998191 0.011737687 -0.01790899 -0.025280148 -0.031431604 0.02994073 0.024458198 0.017603304 -0.018019166 -0.028207246 -0.08164658 -0.03063434 0.0055569317 -0.026104543 -0.012066487 -0.010555912 0.012377026 -0.12247534 -0.13375852 -0.06881238 -0.033296276 0.015561738 0.012401599 0.0096161 0.0037332077 -0.020854045 0.006799509 0.0059147924 0.030385979 0.00085976755 -0.027272604 0.03381833 0.033983476 -0.0345199 -0.021321151 0.043796495 -0.0017598636 0.06065596 -0.087803945 -0.09377215 -0.05604539 -0.021902353 -0.10354695 -0.04420715 -0.020876935 -0.09609381 -0.032610554 0.03830837 0.087013856 0.05794628 0.020313578 0.09851735 -0.050868586 -0.0631713 0.0076968577 0.03456298 0.029791538 0.018034842 0.011490236 0.008903483 -0.030939287 0.017723681 -0.027516957 0.013277961 0.011841293 0.060290113 -0.009604546 -0.05081903 -0.07608665 -0.06467089 0.005199246 -0.08309849 -0.0349356 -0.073593564 -0.017057776 0.060966216 0.07597273 -0.054641757 0.033909686 -0.029753806 0.04491292 0.0027651298 -0.0026622524 -0.012759302 0.002118307 0.04788403 0.02934368 0.013940921 -0.0040028524 -0.016949756 -0.0288692 0.00953716 -0.03878307 0.03530169 -0.031281535 -0.06603211 -0.06349199 -0.11183569 -0.0380829 -0.03277105 -0.05608732 -0.028940016 0.07358102 0.07011383 0.090526015 0.021367125 0.03593567 -0.00046750944 -0.04342644 -0.079486676 -0.0009923953 -0.008481073 0.010636352 -0.013683959 0.01390604 0.018371183 -0.0090449285 -0.024360258 0.008056169 -0.0021491884 -0.033196714 -0.03327462 -0.033333767 -0.028347015 -0.045663685 -0.1322561 -0.06324771 -0.06969733 -0.008402716 0.024505414 0.13037291 0.055681523 0.032727573 0.017020965 0.016788071 -0.03369856 0.016780136 0.031012606 -0.021660237 0.035646718 0.010622313 0.02757592 -0.030418769 0.011086584 -0.008355384 -0.0002577092 -0.028244572 -0.013715193 -0.020644637 0.014245669 -0.04117762 -0.0130001055 -0.036636278 -0.0307476 -0.026765378 -0.059331764 -0.02365592 0.029675512 0.04212506 0.06000337 0.040279366 0.051598232 0.03641391 0.04014223 0.09497081 0.056999408 0.02948802 0.021879693 -0.018838275 -0.044366915 0.018997245 -0.017239017 0.01735703 0.002595412 0.029572431 -0.007517739 0.024030568 0.029098578 0.01223801 -0.04595377 -0.02590555 0.015645117 -0.030545648 -0.006256842 -0.014271615 0.03420713 0.0482696 0.014935117 0.07802079 0.09215745 0.103141166 0.14219224 0.10477711 0.1022145 0.027532266 0.009418597 0.03299597 0.010889527 0.032660455 0.032034714 -0.025206449 0.031918306 -0.016258849 -0.030957773 0.009310531 -0.029472046 -0.035430163 -0.004503296 0.021748634 0.0050504007 -0.014740573 -0.0037264936 0.02171593 -0.0061696605 0.055461746 0.062357068 0.06623827 0.044079207 0.07744321 0.05196365 0.022737104 0.060947374 0.0051271725 -0.0082250675 0.0039003044 -0.02492739 -0.031727012 0.0050678765 0.0082329605 0.013075778 -0.005515844 0.034891605 0.013582529 0.012359356 0.005811542 -0.00016128704 0.021551909 -0.0051904116 -0.002593128 0.008959344 0.018597618 -0.032038074 0.024636416 -0.027609484 -0.024635408 -0.01388582 0.02223563 0.04005712 -0.0077554174 0.0008332958 0.028038392 0.028783843 0.010957936 0.03140261 -0.010400454 -0.011555208 -0.011488906 -0.011019928 0.017485619 -0.0016754569 -0.017939799 -0.0055908905 0.01658183 0.019871313 0.019579062 0.021990122 -0.015976124 0.016189631 -0.032308653 0.020521894 -0.023484848 0.013704073 -0.017744772 -0.016071558 -0.020875122 -0.014729241 0.028421536 0.016347269 0.015521617 -0.022995332 -0.018342555 -0.026749574 -4.8343627e-05 -0.035622384 0.028993804 -0.0102125155 0.032488734 -0.024413105 0.0012932395 -0.024077378 -0.026316995 0.01338431 -0.028269157 -0.003737702 -0.02562355 -0.027191998 -0.0065656463 0.012167127 -0.010054117 0.011737263 -0.029137673 0.026584463 -0.011993605 -0.023212865 -0.022867361 -0.025483826 -0.0006427055 -0.012220566 0.03318312 -0.017960489 0.02356704 -0.012120635 -0.008422333 -0.004455635 -0.030519368 0.028777935 0.032101855 -0.016288806 -0.024697267 -0.032989416 -0.029724462 -0.039568238 -0.055631217 -0.055239096 -0.07408614 -0.05898853 -0.059723668 -0.052000117 0.00013299043 -0.046954267 -0.01435574 0.014786073 0.004512594 0.021794477 -0.015031653 0.012914844 -0.021324525 0.020457843 0.03201887 0.028667685 0.009454149 -0.025835967 0.023704255 0.007239113 -0.02482882 0.029503752 0.0028241917 -0.018749053 -0.057147667 -0.09474952 -0.06380167 -0.091367826 -0.11973809 -0.14134318 -0.09928174 -0.08637777 -0.05751933 -0.038910966 0.02593687 0.013050584 -0.0014508766 0.011542818 -0.006869072 -0.041193917 -0.013596733 0.024992662 -0.012360902 -0.010898254 -0.004195839 0.014565273 -0.007411737 -0.021874335 0.015810924 -0.010167238 -0.010356646 -0.023055559 -0.094878696 -0.067336656 -0.07007986 -0.063089795 -0.07280154 -0.09268386 -0.06082662 -0.06586068 -0.031036947 0.04741107 0.036828853 -0.006343826 -0.021450235 0.014419251 0.06030194 0.059143733 0.047359746 0.013449711 -0.027369808 -0.017999293 0.009967468 0.0182251 0.018404117 -0.030383753 0.002461585 -0.045090724 -0.041683864 -0.094060406 -0.12038051 -0.07487513 -0.023987835 0.02078185 0.085585766 -0.05009911 -0.048246898 -0.07093992 -0.08310795 -0.042437434 -0.09419136 -0.025661685 -0.014258975 0.010539306 -0.008314339 0.0017616001 0.058169834 0.01429136 -0.012638906 -0.019258795 -0.020783966 0.024910692 0.036058445 -0.0021487938 -0.05428077 -0.06297027 -0.029683845 -0.08899975 -0.050887704 0.04282913 0.023251606 0.0733302 0.038799122 -0.016131088 -0.020156017 -0.012289066 -0.038081102 -0.021109521 -0.06031994 -0.027484624 0.010500319 0.00034726996 0.0072622886 0.100716956 0.04296315 0.015167173 -0.015818192 0.012140492 -0.026646245 0.032716066 0.011305735 -0.002745007 -0.019650431 -0.0394301 -0.027543606 -0.032902453 0.05716266 0.071091115 0.05892566 -0.02541264 -0.0092539415 0.0378822 -0.015137647 0.06891779 0.06132361 0.033564102 0.043467022 0.054444578 0.04215995 -0.0069921794 0.043201424 0.093517825 0.07855155 0.01978603 0.034721542 0.026136527 0.00960165 -0.00013513355 -0.034164403 -0.0468081 -0.03917508 -0.05388674 0.053049028 0.031758208 0.07643685 0.09204765 0.026465254 0.017890012 -0.040604327 0.042152632 0.007632269 0.06879771 0.011459837 -0.047142815 0.05640631 -0.05983259 0.020486215 0.04467478 -0.0041222214 0.11412139 0.17700976 0.11795753 0.045446075 0.006035056 0.012386401 0.011927064 0.015176093 -0.06677745 -0.08512617 0.018937951 0.037121154 0.05208685 0.06497127 0.037461184 -0.022276632 0.000897959 -0.10956806 -0.0881783 -0.08325652 -0.0045795823 -0.0005079113 0.06307664 -0.0014102157 -0.045090962 -0.005231412 0.081436835 0.057984617 0.09549558 0.09070697 0.030656787 0.04519326 0.009024735 0.027059954 -0.0015788487 -0.024832226 -0.044415433 0.002984755 0.022837866 0.088362485 0.039178256 0.08705408 0.05046543 0.051103696 -0.003476782 -0.0370846 -0.17356096 -0.24486174 -0.08983794 -0.022143576 -0.0652644 -0.07344505 -0.0497643 0.041709263 0.0852484 0.06511412 0.0406716 0.07474875 0.058155797 0.009873931 0.0171065 0.0029136795 0.017264508 -0.03489137 -0.054367505 0.012607346 0.0848188 0.13577437 0.13283601 0.18616413 0.18423831 0.09542817 0.11988208 0.08993126 -0.10381166 -0.09527231 0.009588355 -0.026205057 -0.07545078 -0.051397067 0.0028374947 0.08490741 0.0547323 0.103312425 0.08447985 0.07078795 0.004892399 -0.018325029 -0.021164581 -0.019242398 -0.023635877 -0.004433558 -0.062050667 -0.0054224054 0.14229451 0.15861592 0.15945235 0.19556573 0.0695999 0.1288446 0.15234835 0.17462069 0.09953229 -0.038501527 -0.0074543897 -0.039162174 -0.08429477 0.0034902054 0.011919747 0.07584158 0.112307586 0.08970409 0.059353366 -0.0073628207 0.024223404 0.014813697 0.003226437 0.014120946 0.0035484273 -0.0045576124 -0.037273392 0.0103733055 0.14519988 0.14403519 0.20129646 0.20313938 0.16367573 0.14081027 0.23273653 0.21748792 0.07976796 0.05444686 0.107456 -0.009268011 -0.06365726 0.00861631 0.052524064 0.10368797 0.0652768 0.079798214 0.010518984 -0.029157324 -0.045862347 0.005498503 0.0047739698 -0.0021009617 -0.01131301 0.023024537 -0.022981588 0.033073578 0.09991804 0.067385375 0.15277523 0.18145755 0.09375031 0.08477461 0.085221976 0.13312748 0.0984326 0.109053254 0.03002679 0.0029833731 0.051330186 -0.050719872 -0.018900987 -0.059351552 -0.041827567 -0.007896575 -0.036416367 -0.068941504 -0.034711864 -0.00144355 0.010162578 -3.2892338e-05 -0.017119749 0.005700717 -0.011136077 0.0074395253 -0.020227661 0.025920497 0.07600197 0.078022964 0.11386464 0.15143922 0.090998605 0.117249966 0.07687449 0.14806311 0.07608302 0.0054188906 0.030825632 -0.13963906 -0.18890513 -0.13901961 -0.062158514 0.0045382516 -0.0057772878 -0.06537062 -0.06978102 -0.033199903 0.0046896674 0.00016164417 0.020418251 0.01124479 -0.0063794083 -0.034723263 -0.09005198 -0.016293555 -0.017930066 0.0539022 0.08009579 0.1254322 0.06335907 0.06968778 0.1368215 0.05429189 0.055697285 0.030125983 0.07505886 -0.09493293 -0.19805488 -0.16777809 -0.0859939 -0.022800684 -0.006503108 -0.044726416 -0.049860913 -0.043692995 -0.03662702 0.03166791 0.018416818 0.0008763834 -0.033559367 -0.08517533 -0.099260345 -0.06368337 -0.10823178 -0.11157897 -0.0055972645 -0.032962196 0.07716892 0.00011219841 0.07928649 0.06626078 0.030434193 0.059340373 0.020192824 -0.07781679 -0.18668307 -0.06949085 -0.09844675 -0.09792821 -0.032788824 -0.021568289 -0.086701885 -0.023000114 0.0324734 -0.02871031 -0.011590418 0.0133461915 -0.0827052 -0.114683285 -0.0620652 -0.06037439 -0.17756864 -0.15037577 -0.16657495 -0.12729213 -0.04530625 -0.07585314 0.03547524 -0.010087566 -0.08024357 -0.016155848 -0.09580282 -0.12615833 -0.1266551 -0.0855673 -0.10069128 -0.111692205 -0.03271109 -0.035050735 -0.07419483 -0.0052026496 -0.030110562 0.035539348 0.0017405808 0.0077959034 -0.037630923 -0.16029629 -0.085524164 -0.121059574 -0.16752435 -0.09720486 -0.18901533 -0.09941115 -0.19612122 -0.13637012 -0.020290537 -0.005789262 -0.007933795 0.023259532 0.023795685 -0.01800549 -0.031204205 -0.11868633 -0.10129107 -0.06277763 -0.07335601 -0.044214055 0.008177885 -0.027576858 0.014016472 0.012414073 -0.0016112882 -0.018003447 -0.03240394 -0.124924675 -0.07190367 -0.096730754 -0.1027726 -0.030961758 -0.10001241 -0.13365063 -0.04604916 -0.050577104 -0.012485701 -0.015357813 0.0703488 0.019547494 0.044285737 -0.011413872 -0.056408454 -0.057265915 -0.053301997 -0.035852674 -0.01967029 -0.069657065 0.014606373 -0.024432026 -0.014292644 -0.014511721 -0.010558798 0.003936175 -0.020537397 -0.07393241 -0.038420167 -0.04790863 -0.007932844 -0.0017130855 -0.029750591 -0.0478122 0.022915678 -0.06251229 -0.024738295 -0.035244465 -0.019355847 -0.06644054 -0.005231588 -0.025166372 -0.07370933 -0.071987785 0.019623997 -0.027197659 0.011915453 -0.041922826 -0.047198437 0.0012999688 0.03304149 0.028251413 0.023221597 7.152835e-05 0.009571267 -0.028850043 -0.024840469 0.027421895 0.0728804 0.07253621 0.0041849315 0.0042233644 0.07101493 0.010142915 -0.030910728 -0.0010488502 -0.057671778 -0.06756817 -0.046700135 -0.00735911 -0.014974989 -0.03821993 -0.024323527 -0.0333332 0.018709032 0.003380674 0.022505319 0.0029536092 -0.005706118 0.01173346 0.007715711 -0.009346109 -0.010571643 -5.9761496e-05 -0.011108131 -0.054674596 0.0018080514 0.06880954 0.101422325 0.103525616 0.09460429 -0.0015572937 0.042928558 -0.047897242 -0.0644812 0.0528622 0.020659475 0.049224038 0.03787333 -0.02178333 0.029600266 0.022338506 0.0046162754 -0.038366947 0.015696183 0.008357842 0.035682585 0.032196954 -0.018134488 0.011747118 -0.014856061 -0.019788612 -0.036933735 -0.022719242 0.028307844 0.039392527 0.026369823 0.066970676 0.11554254 0.009753012 0.035054296 0.019253448 0.019582774 0.006498004 -0.039392166 0.029857911 0.06898797 0.06159303 0.04504815 -0.008038733 -0.0076716105 -0.04965557 0.013572948 0.030694809 0.028308632 -0.022331525 -0.011223662 -0.008704768 0.02520944 -0.035793185 0.04012652 -0.03728223 -0.012805521 -0.037399635 0.0028951194 0.078591704 -0.004887059 -0.026755061 0.05223894 0.031215264 0.01856287 0.06558459 0.05275643 0.0328951 -0.01065781 0.009212125 0.04384564 0.0205559 -0.027118172 0.022915915 0.0030529276 -0.026232792 0.0036526877 0.008847561 0.033001292 -0.015585546 -0.0005617569 0.02348118 0.034762282 0.03193315 0.00463777 0.013288832 0.043404814 0.047941294 0.022818018 0.020564545 0.017791256 0.042175733 -0.014876606 0.016748361 -0.0110588 0.025556525 0.016244952 -0.029378923 0.0038218377 -0.014688673 -0.011531166 0.01666297 -0.012727747 -0.02179302 -0.004708963 -0.02983122 -0.008971279 0.025312446 0.011107317 -0.028845342 0.026705295 -0.028659558 -0.018070491 0.011986269 0.027884139 -0.00708441 0.016862394 -0.014159047 0.022861868 -0.010776208 -0.0035678803 -0.03200309 -0.039031565 0.018419228 0.015404304 -0.007669422 0.023869893 0.007615703 -0.005360997 0.027173001 -0.024255222 -0.024973942 -0.022543175 0.02442843 -0.013169123 -0.023748787 0.015133539 0.024451602 -0.0045045787 0.013432555 0.000521992 0.018202573 0.031401735 -0.02824163 0.025330575 0.009901583 0.024309244 0.0020691839 -0.024796458 -0.0253465 0.03262461 0.025948891 -0.009505468 -0.012365755 -0.0028280788 -0.00029712915 -0.024167825 -0.016255546 -0.02769329 0.0070873713 0.0345096 -0.031943996 -0.006422358 -0.02878587 0.0034792724 0.029092556 0.011791483 0.021897685 -0.010359108 0.014647167 0.03132037 0.01827494 -0.019000458 -0.016573964 0.0023048236 -0.017593151 -0.021506594 -0.034053043 0.017432002 0.00977939 0.022910397 -0.028484022 0.010524487 0.03336295 0.011224878 0.019765485 -0.016790072 0.00020869715 -0.014805058 -0.02596702 -0.01705392 0.0027047964 -0.012828878 0.0020654805 0.009473073 0.019602967 0.013415504 0.012851252 0.00140727 0.017522467 0.003832208 -0.0130289765 -0.0041373903 0.056529656 0.0677028 0.032254063 0.02254816 0.017840672 0.023200333 0.0042999494 0.01466904 0.02967889 0.026140617 -0.028644336 0.03146557 -0.005795824 0.019297665 0.01953713 -0.01388968 0.01428142 -0.0058398214 0.01994542 -0.01988924 -0.010813126 -0.020409891 0.006824464 -0.008236211 -0.053600926 0.0047217696 -0.039257195 0.04047636 0.020932384 0.023822803 0.089077376 -0.0019815203 0.049112298 0.002545998 0.007603416 -0.03585099 -0.02277911 0.0134259835 -0.007492958 -0.02885226 -0.037964333 -0.0004917979 -0.012231818 -0.017013425 0.024345087 0.023308454 0.01652545 0.0093448525 0.021857882 0.04450634 -0.005765486 -0.0126329465 0.0045902343 -0.045795266 0.0637266 0.061569486 0.08064075 0.08300511 0.11096969 0.036162492 -0.005700175 0.06922256 0.028960073 0.021618776 -0.0031710668 -0.016821623 -0.037205793 0.02192825 0.0405727 0.016148463 0.017046643 0.019457627 -0.011303727 -0.0011479484 -0.017075388 0.057677716 0.0047298376 0.020804917 -0.03806569 -0.049536876 -0.13258159 -0.05190244 0.0324715 0.036345035 0.043431316 -0.0050569708 0.042442497 0.020061951 -0.023602117 0.06882672 0.011180317 0.08348657 0.0013966538 -0.054043815 0.01824466 -0.01454308 0.028466802 -0.036967866 0.009372188 -0.012190098 -0.013894816 -0.024026752 -0.014163945 0.02227243 -0.0062979227 -0.06740249 -0.03336004 -0.099328905 -0.06849645 -0.06545869 0.004486136 -0.045004293 -0.048361566 -0.038332146 -0.056229584 -0.024956472 0.002866532 0.008062049 0.0189401 0.024600988 -0.035510972 -0.0059536113 0.028942773 -0.0020636024 -0.01480824 0.019410698 0.022856032 -0.029654548 0.01023766 -0.010072729 3.392248e-05 -0.046487346 -0.005292338 0.0060713217 -0.06139041 -0.037890196 -0.07410294 -0.12357732 -0.13322325 -0.10874324 -0.05101379 -0.092779316 -0.10571858 -0.032463744 0.07003503 0.0002997213 -0.050167922 0.028711993 0.04191794 0.012749423 -0.0055370135 0.023366652 0.017532462 -0.02921264 0.007117037 -0.007727704 -0.006479725 0.01433661 0.04939389 -5.135067e-05 0.0061351373 0.04768763 -0.07896573 -0.029510234 -0.024439534 -0.1604465 -0.09483754 0.014568562 0.023818487 -0.011333947 -0.14089958 -0.05253117 0.015918288 0.0520428 -0.0017333422 -0.06965969 -0.06116845 0.01519267 0.0086583365 0.033045873 0.05270565 0.009123321 -0.032756973 0.026039626 0.009940408 0.047244675 -0.0002614133 0.051171288 0.028944055 0.040980823 0.009411511 0.0067464146 -0.03276076 -0.0529928 -0.017128855 0.14682816 0.11055722 0.050601587 -0.032046977 -0.025221488 -0.008477653 -0.008654278 -0.046882287 -0.020670695 -0.02848016 0.008447234 0.0023683931 0.0043977653 0.0042486256 -0.022172118 -0.029505357 -0.02022396 0.02443816 0.020667735 0.019522522 0.039871603 0.061680846 0.04009048 -0.028761663 -0.038106836 0.025915258 0.08343798 0.13844125 0.26577988 0.17745048 0.12394248 -0.024461374 -0.055161107 0.013648692 0.016795777 -0.03157515 -0.03996894 -0.06354385 -0.024921607 -0.0011431627 -0.005782247 -0.02952775 0.012329812 0.020919954 0.03931598 0.030028624 0.005973191 0.02138571 0.025455449 0.05322786 0.050074436 0.008763806 0.04626297 0.08287739 0.11132319 0.18362309 0.28381383 0.2946767 0.20200469 -0.10334215 -0.10737225 -0.03133007 0.012729058 0.022251165 -0.012962888 -0.08348273 -0.011168156 -0.021567676 -0.0075453036 0.024813652 0.009644501 -0.0037719626 -0.031183964 0.024249407 0.025027998 0.014862623 0.044329636 0.019648148 0.03143185 0.01981892 0.007234504 -0.029096521 -0.020872833 0.032798436 0.1663559 0.24779332 0.17891644 0.009331949 -0.03997253 -0.068941854 -0.009068728 0.036319014 -0.013072064 -0.023092147 -0.034032144 -0.033129394 -0.015617572 -0.032490894 -0.009341116 -0.008995408 -0.020728387 -0.015705833 -0.011472641 -0.04012309 -0.020504363 -0.020139964 -0.025395833 -0.0033376939 0.018011592 -0.11384931 -0.09567339 -0.08298933 -0.038674075 0.18357551 0.109514154 0.057234466 -0.040992334 0.0076855514 0.010150123 0.06147234 -0.039876472 -0.026340365 0.00028951393 -0.0023588953 -0.026448624 0.03809821 0.02171796 -0.0211939 -0.012617938 0.026697047 -0.0026407398 -0.026082207 -0.03103339 -0.11695416 -0.1460435 -0.020544542 -0.09537796 -0.1317736 -0.22561355 -0.18497254 0.038254514 0.2013481 0.061024122 0.037182033 -0.053507946 -0.08550072 -0.017310178 0.005028017 -0.06632896 -0.07837285 -0.057814788 -0.056505613 0.04198453 0.03792221 0.015793907 -0.0056688776 -0.018301928 0.0046530855 0.018537963 -0.036369782 -0.12285319 -0.1330621 -0.11674486 -0.03230647 -0.034822702 -0.11731229 -0.07022406 -0.02181533 0.15543106 0.24097852 -0.03022859 -0.07729479 -0.21602032 -0.11432952 -0.08571901 -0.112392925 -0.102066524 -0.043501105 -0.06499745 -0.046237033 -0.005550007 0.03700853 -0.012944903 -0.0140742455 0.012988446 -0.029858055 0.015033869 -0.045212407 -0.12418767 -0.12765686 -0.07373646 -0.092360556 0.024127332 -0.019245332 0.0047346135 -0.05652524 0.11154382 0.1594549 -0.011268527 -0.05472156 -0.20578422 -0.11087394 -0.08514507 -0.15457073 -0.12673554 -0.04922778 -0.06670099 0.009948348 0.01282357 -0.0055857454 0.028259998 0.02086894 -0.012831687 -0.029505905 -0.008188614 -0.059672296 -0.072190754 -0.08330954 -0.06001592 -0.042905908 0.03123258 0.03770936 -0.0037896163 -0.019123403 -0.039322507 0.08225452 -0.095690265 -0.14666268 -0.22708961 -0.08620489 -0.10280387 -0.08432655 -0.06392332 -0.028765181 -0.05552031 -0.0083181225 0.041274354 0.027968362 -0.008491176 0.024323229 0.019469524 0.020016402 -0.019438634 -0.023762897 -0.05647766 -0.08029215 -0.056874238 -0.018598132 0.03252971 0.042479567 -0.079835795 -0.081476465 -0.052094292 -0.02471507 -0.046077374 -0.0958572 -0.022320958 -0.035256717 0.023209663 0.035066232 -0.017652761 -0.037831288 -0.02698385 0.008385718 0.019422058 0.013404736 0.026255671 0.012610742 -0.030338863 0.020648764 -0.0014429849 -0.018277092 -0.066482276 -0.055463243 0.031650864 0.04718781 0.13557644 0.10421845 -0.08204829 -0.11674715 0.0627175 0.0148069225 0.014982152 0.065134056 0.022961993 0.055907216 0.043173194 0.065654635 -0.04910972 -0.031352676 0.0031296562 0.030888662 0.042686038 0.010421566 -0.022388171 0.02631302 -0.025703577 -0.009435134 -0.018277137 -0.014909518 -0.088305384 0.00039555924 0.03395129 0.019133693 0.046728276 0.07062059 0.036467683 0.09032185 0.013055037 0.1255751 0.124385044 0.1321391 0.06889192 0.13652815 0.055008594 0.09928095 0.009320776 -0.0080230655 0.007909048 0.035621326 0.024900729 0.01706015 -0.033247884 0.0072183385 -0.015405335 -0.004078825 -4.783958e-05 0.008214692 -0.03735475 0.050324213 0.049558356 -0.033335615 0.021204574 -0.008678937 0.023245206 0.033648428 0.02556796 0.0785688 0.09581983 0.0732404 0.10508984 0.16818208 0.13464051 0.068229884 0.044854403 0.038975745 -0.012981426 0.011361616 -0.023594968 0.017185528 0.00092901866 -0.011605915 -0.014650023 0.03393848 -0.013479845 0.021719793 0.06916238 0.044380423 0.06516172 -0.013273302 0.0016624043 -0.016420195 0.04526864 -0.0068271887 -0.0040014735 0.07227473 0.09553422 0.049993034 0.079621084 0.05158094 0.06250276 0.10320363 0.04999306 -0.004343053 0.029499283 0.009387908 0.031152966 0.028899392 -0.015460216 -0.019614471 -0.013539855 -0.011404482 0.029364154 0.04402585 -0.025976889 -0.018649163 -0.008227761 -0.016698852 0.02544212 -0.010619879 -0.008620115 0.07978244 0.034355067 0.0051302495 0.058580704 0.04574731 0.009798827 0.0009690949 0.055250112 0.034527484 -0.021792898 -0.029291332 -0.04135518 0.014235712 0.02803366 -0.029337576 0.010201502 0.024654057 -0.0043849647 -0.028109806 -0.030219598 -0.028809596 -0.025010813 -0.012484026 -0.048089102 -0.052936073 0.0048069325 -0.05404855 0.006765075 0.0072082034 -0.07560528 -0.006951806 -0.077192456 -0.11535852 -0.08061718 0.017444994 0.040226273 -0.027815225 -0.04406033 -0.05219374 -0.0074160676 -0.031712852 0.010097408 -0.027823191 -0.020056197 0.0074842745 -0.03235869 -0.0031274345 -0.031426623 0.008416299 -0.056275595 -0.03577881 -0.04117643 0.01870637 -0.037258364 -0.06716541 -0.07033779 -0.013517941 -0.007902266 -0.058470603 -0.05518756 -0.120769195 -0.060186587 0.010513566 -0.0431857 0.008418415 -0.039876923 -0.034171063 0.016963542 -0.01267953 0.01217156 0.00927828 -0.009434062 -0.00973478 0.01662798 0.021270694 0.019328203 -0.0071497248 -0.008411792 -0.019218685 -0.0006989439 -0.038610477 -0.036006954 -0.016741198 -0.05237512 -0.082437 -0.028463697 -0.042473827 -0.07414778 -0.026408346 0.0076803835 -0.004616356 0.014908726 0.0035089876 -0.019652443 -0.036710773 0.03172332 -0.029344134 0.021679139 -0.017922027 -0.013058808 0.031200424 0.011180934 -0.01324695 -0.032426756 0.0136816865 -0.03380457 0.00598561 -0.009975662 0.02900286 0.009142609 -0.0100259585 -0.02652787 0.012612361 -0.017236916 -0.032082625 0.02127198 0.019952001 -0.029238079 0.012954317 -0.004384702 -0.020251788 -0.0028585882 -0.0022274028 -0.0334415 0.013681506 -0.027365021 0.019826375 0.03346002 -0.024112111 0.018773586 0.017047126 -0.012083152 0.024698121 0.010803224 -0.029381013 0.014292811 -0.005198049 -0.017861402 0.031296518 -0.008156057 -0.026886733 0.03503691 0.0054750866 -0.03527393 -0.018934574 0.0018765884 -0.009718095 -0.011042804 -0.014212656 0.0052682804 -0.027325436 0.0043484317 -0.03026133 0.032037407 0.030778741 0.005197504 0.02251325 -0.014693746 0.021500958 0.016796364 -0.019951032 0.0099322 -0.026702112 -0.008995587 0.0029241613 -0.023957444 0.023754505 0.033850133 0.011581259 0.027391355 0.021962678 0.025774235 -0.01435808 0.0094111385 0.017925149 -0.010395722 0.0031686819 -0.011156363 0.033263043 -0.01603466 -0.011625086 0.0073946803 -0.018888053 0.006399504 0.00062286854 -0.033809975 0.005537258 -0.024806457 0.015927698 -0.00081347063 -0.028025998 -0.02245508 0.02371101 0.032302722 0.024267131 0.02811556 -0.0016247835 0.015575592 -0.022979844 -0.005043951 0.024971513 -0.019276155 0.0071398807 -0.0006140448 0.007469258 -0.025985256 0.025147995 0.001917694 0.018266706 -0.031080283 0.0046813237 -0.012826201 0.016388213 0.020237816 -0.03470285 0.0018006422 0.014144293 -0.016700642 -0.008056671 0.0198734 0.04772328 0.025650779 0.05850396 -0.000105702726 0.0051169638 0.008538976 0.009247656 -0.0001324017 -0.038691405 0.036359288 0.06802691 0.025097711 0.046351284 0.04011197 0.043508004 -0.01073618 -0.0055743554 0.0104648555 -0.005764431 0.030734072 -0.029670274 0.009632111 -0.018115366 -0.028942857 -0.007870132 0.017312432 0.040976368 0.011827188 0.041435216 0.006526066 0.03151988 0.0188594 0.005541851 -0.07739927 -0.07929461 -0.03288823 0.0044248425 -0.00630449 0.064294256 0.02658085 0.026170585 0.027396725 0.037071977 0.0011920921 -0.0063216584 -0.04405953 -0.02251549 0.03216012 -0.0024474945 -0.015156504 0.006567643 0.0034193846 -0.024178572 0.034056466 0.061246045 0.0218837 0.07387444 0.047102243 -0.02895527 -0.04352146 -0.052188706 -0.112097934 -0.07047864 -0.026439806 -0.045900892 -0.07979121 0.009869279 0.016949726 0.0006589746 -0.015225534 0.015296363 -0.013002186 -0.05517355 -0.010972651 0.025544718 0.034824543 0.030061778 -0.033664696 -0.027715668 0.04062312 0.01583039 0.06007208 0.032109924 0.0829377 0.062464233 -0.029791724 -0.07826723 -0.10081194 -0.13135934 -0.12416381 -0.05958401 0.013300086 -0.04759323 -0.012163163 -0.018310899 -0.023178574 -0.020994898 0.021853652 0.010082592 -0.0025804313 -0.031656675 -0.017274877 -0.027120885 0.012114549 0.032218218 -0.026688736 -0.02488118 0.009762659 0.0112025635 0.03226726 0.05590211 0.06584486 -0.029067483 -0.028584117 -0.062124282 -0.08873797 -0.07242716 -0.011540976 0.028402485 0.035714485 0.0061615855 -0.045400105 0.017788257 0.012841022 -0.08535643 -0.06838177 -0.060334 0.01758186 0.006172104 -0.03292329 -0.0062205927 -0.01759789 0.025535228 -0.005087386 -0.024912043 0.014574469 0.029349195 0.03363929 -0.0041020713 -0.009793527 0.017216409 -0.055564865 -0.08198548 -0.04240466 0.02902237 0.019672848 -0.021126628 -0.031370234 -0.03980502 -0.015958395 -0.019465283 0.01066308 -0.03185947 -0.009332914 -0.03506084 -0.045471527 0.013979075 0.015592631 -0.03282766 0.020074213 0.035523523 0.02228465 -0.00970273 -0.011639679 0.033939812 -0.006394254 -0.012165252 0.0009594268 -0.022548731 -0.04759045 -0.065014 0.014672475 0.06437696 0.044944257 -0.04150707 -0.069934666 -0.04481939 -0.022295447 0.032412376 0.00093453017 0.013542366 -0.026908046 -0.08628769 0.010256529 0.014325918 -0.015618135 0.009326711 -0.032224283 0.011217971 0.032558627 -0.016390227 -0.003450944 0.040861983 0.0065662367 -0.015649535 0.0055367453 -0.025876582 0.01240999 -0.0032972232 0.028470082 -0.0038495893 0.021292515 -0.0077414596 0.009189419 0.054970536 0.09037876 0.064218 0.009288067 0.04524857 -0.007912907 0.03803722 -0.019083323 0.009865603 -0.002686621 -0.005784041 0.009662984 -0.009991679 -0.026714524 0.043598965 0.03420581 0.01239416 -0.021593267 0.010753746 0.019759912 0.016448176 -0.0006650989 0.07748404 0.05596847 0.054433454 0.008790226 -0.0600248 -0.01323635 0.131185 0.14363073 0.14303918 0.054807626 0.069223374 0.06300535 0.0827443 0.0070424476 0.004844763 -0.04784426 -0.033677544 -0.026732497 0.021765089 0.0022041625 0.034109782 0.010781631 0.087109216 0.069606096 0.1176266 0.07523065 0.032406002 0.051844586 0.10023039 0.0799218 0.024218425 0.011600415 -0.02602187 0.04574558 0.17177612 0.108397864 0.14406171 0.10387292 0.08455019 0.081255585 0.11246894 0.05487542 0.05197169 -0.0019188977 -0.0019101952 -0.016299125 0.008964727 0.006180114 -0.0008721929 -0.004311479 0.06335692 0.09576474 0.17603236 0.16975304 0.09340616 -0.004662616 -0.025515294 -0.032616265 -0.035366055 -0.09645534 -0.057888042 -0.042955052 -0.038284887 0.016093662 0.062305856 0.03427323 0.018561654 0.14844997 0.14797343 0.13581617 0.02254548 0.00026807465 -0.021336107 0.013990939 0.0072685764 0.022274446 0.00846926 0.016586157 0.017991813 0.10278195 0.094285525 0.098203965 0.07148897 0.002870333 -0.08468736 -0.06432027 -0.054702606 -0.13330457 -0.13422826 -0.104086556 -0.06575048 0.010121979 0.022165192 -0.026544614 0.08636407 0.12637295 0.16050765 0.13562575 0.069065504 -0.026364526 -0.0081065325 -0.022486733 -0.023713328 -0.008488696 0.010136883 -0.022329113 0.022301609 0.08153357 0.06111134 0.08466563 0.057481952 -0.06990974 -0.07121928 -0.072911374 -0.08356388 -0.103321925 -0.07783767 -0.1389909 -0.103320956 -0.027530262 0.03914611 -0.05335621 0.15010394 0.13975374 0.16691673 0.104872644 0.019867584 -0.058218673 -0.028311174 0.021805203 0.02559283 0.0034204365 -0.019483475 -0.014461596 -0.005090704 0.12943119 0.10369641 0.14151007 0.06001021 0.02221929 -0.10562222 -0.124416985 -0.13546751 -0.13412486 -0.113470346 -0.16729942 -0.23604527 -0.12128443 -0.02175541 0.002928423 0.1595075 0.14616016 0.121802345 0.06769897 -0.0059175906 -0.008498208 -0.030279368 -0.029880295 -0.0077491873 -0.02055454 0.016941898 -0.021956734 0.0046906783 0.10993454 0.041527998 0.11014772 0.10334518 0.023161476 0.010859181 -0.02160366 -0.091628626 -0.08414361 -0.1391819 -0.18660188 -0.18885243 -0.10496706 0.0064545646 0.09195282 0.121453024 0.14987884 0.12656546 0.069406405 -0.035588894 -0.075970076 -0.009324267 -0.005980568 -0.014436304 -0.030154878 -0.011075959 0.028634785 -0.008543369 0.04838594 -0.023107227 0.075375065 0.10733178 0.095015846 0.070528604 0.020823782 0.020763954 -0.031086026 -0.1334316 -0.12120027 -0.085132025 -0.033245254 0.08177963 0.10650743 0.06553952 0.116285086 0.07740377 -0.010755627 -0.07675583 0.008308309 0.002527053 -0.023979021 0.020369824 -0.003814903 -0.017803544 0.0023400711 -0.0037552132 0.028715583 -0.04071988 -0.04863832 0.0767441 0.07519213 0.11409356 0.16094598 0.10554128 -0.033823315 -0.13088734 -0.16210335 -0.024550738 0.053745016 0.091271326 0.08499462 0.08137406 0.041616738 -0.052229017 -0.074420325 -0.0053253463 0.0051534884 0.027216991 0.030484684 0.023498422 0.02573906 -0.031884823 -0.035180897 -0.0031534315 0.02595327 -0.01561704 -0.05907272 0.0094429925 0.12976319 0.15838298 0.11069903 0.035817467 0.006565571 -0.0010822706 -0.017485525 0.043359704 0.06769733 0.056168642 0.052661527 0.049867015 -0.022019878 -0.050107863 -0.0531647 -0.0074001723 -0.0065624756 -0.0113776745 0.018599734 0.015427905 -0.02317438 -0.048375737 -0.06426731 -0.059060127 -0.078233235 -0.07089196 -0.057794414 -0.016280526 0.06705121 0.105003245 0.091391765 0.07749409 0.027948534 -0.013122276 0.056110926 0.07230793 0.055236634 0.025403084 0.011066183 0.014536368 -0.071533866 -0.10776597 -0.067693226 -0.07479796 0.013952928 -0.027719062 0.014696865 0.022333631 0.026942816 0.026570149 -0.008497665 -0.07403813 -0.041821554 -0.0880589 -0.1124696 -0.09630246 -0.06304507 -0.06004389 -0.05183515 0.0029734864 0.04143599 0.04083258 0.10075606 0.0937171 0.09612637 0.061713427 0.007027274 -0.03204545 -0.050716504 -0.060580473 -0.068618976 -0.0315755 0.02048103 -0.032368165 0.0015363658 -0.0012872219 0.014655467 -0.030150948 -0.03097921 0.010348118 -0.03370992 0.01538554 -0.043607965 -0.09562227 -0.08499821 -0.083046205 -0.12413802 -0.1077818 -0.05661338 0.0349548 0.103097945 0.06921362 0.12166799 0.03794867 0.00047555752 -0.027108677 -0.06838951 -0.08576518 -0.015636839 -0.038112503 -0.001301391 -0.0054863603 0.018624634 -0.020316448 -0.025943702 -0.027128099 0.020954942 0.036021512 -0.029736606 0.020962013 0.031597465 -0.01996354 -0.030694542 -0.056691576 -0.064232126 -0.0270391 -0.012972916 0.031637788 0.05213547 0.107322164 0.09151004 0.057575878 -0.0007237572 -0.006013035 -0.043530673 -0.017132832 0.003899974 -0.024339614 0.03056792 -0.0062694917 -0.034724858 -0.020748233 -0.01801899 0.03140662 0.0040851394 0.014629186 0.023948124 0.0105784405 -0.023797695 -0.0026869897 0.011427113 -0.017926393 0.014737229 0.026842164 0.035727516 0.040242977 0.050763372 0.025195247 -0.015426367 -0.007100935 -0.026421923 0.0128174 -0.020937873 0.0012873741 -0.024549875 0.024102503 -0.00354209 0.014340681 -0.020471169 -0.028120885 0.017412907 -0.010503033 -0.012295966 -0.011135459 -0.008984246 0.018636772 0.008046492 -0.019189313 -0.001722767 -0.004673633 0.028281344 0.036364295 0.037063286 0.03131377 -0.008889132 -0.02534662 0.03231999 0.022425568 0.041276243 -0.008037849 0.0047954456 -0.0067278435 0.006083519 -0.012483038 0.034769375 -0.029397659 -0.013598745 0.011565047 -0.018785525 -0.025982926 0.0020853197 0.008734155 -0.035001796 -0.032124173 0.0119568575 0.011940565 -0.002888163 -0.022242524 0.021865534 0.014297283 -0.002985525 -0.01701301 -0.0009788391 4.50741e-05 -0.026429664 -0.017834775 -0.012980191 -0.03361417 0.028390486 -0.010351614 0.016267598 0.009075893 -0.005162584 0.031104222 -0.0010852814 -0.027560346 -0.033086892 0.009580774 0.024663491 -0.016240288 0.034076348 -0.020163162 0.031758696 -0.030147001 -0.02045522 -0.019739548 0.026515367 -0.0077833636 -0.0035041587 -0.009303024 -0.013212831 -0.017375816 -0.0085400175 0.024536675 0.02009597 -0.0019691288 0.021914167 0.016403157 0.01479352 0.0088498425 0.02197043 -0.00344127 -0.014991667 0.0031525665 -0.010865795 0.0311177 0.013401415 0.02294494 0.00994563 0.03316982 0.010531102 -0.020809365 -0.006018532 -0.032561313 0.0030674557 -0.0026588999 -0.01941809 -0.020299658 -0.025182342 0.035824355 -0.026052285 0.025712833 0.0016701786 0.028994577 0.033822063 -0.027230209 0.022074725 0.0009791341 -0.019901464 -0.016009834 -0.031395793 0.02966376 -0.035423603 0.022806028 -0.019970808 0.032882616 0.01615643 -0.03569546 -0.027378144 -0.017124576 0.018843686 -0.009625513 -0.01459866 0.01294488 0.0055894027 -0.027656632 -0.054217894 -0.04730269 -0.008098899 -0.03441558 0.0056574745 0.024260039 -0.0003359778 -0.017284855 0.013842659 -0.020682177 0.021058392 -0.016242646 0.028580304 -0.0064191096 -0.0057793176 -0.016293384 -0.0062491456 -0.01789134 0.010035875 -0.03609932 0.022632454 0.017111547 -0.035855297 0.007128638 -0.022620458 0.025965651 -0.0382972 0.0111533115 0.026377238 -0.011480895 0.0005573733 -0.06508775 -0.048117742 0.008562948 -0.03816272 -0.0040675397 -0.02302502 -0.0026925984 0.022313466 -0.0029670466 -0.012774889 0.026597561 -0.0064350017 -0.035631455 0.02680305 -0.01242094 0.0292579 0.03818848 0.030519497 0.052151978 0.03118287 0.061314516 0.07187565 0.017979333 -0.029445862 0.009080049 0.05048027 -0.00065870094 0.0100999465 -0.008668316 -0.023153571 -0.038610723 -0.071057566 -0.04300677 -0.048360553 -0.012337619 0.021204129 -0.012997409 -0.031275854 -0.016133893 -0.030703882 -0.01161944 0.023169566 -0.010487917 -0.015575061 -0.0012255233 0.003960415 0.068630666 0.044629358 0.005858981 0.00052888447 -0.052914117 -0.012881073 0.02937211 0.042527717 0.009376064 0.00021952395 -0.04504776 -0.0765054 -0.012026046 0.00403273 -0.034495406 -0.050156742 -0.00043884423 0.022822153 0.026909908 -0.013672179 -0.01987642 0.012589787 0.03405685 0.029778223 0.056967072 0.044469096 0.036897365 0.06362359 0.04779016 0.018314352 -0.052542143 -0.046982184 -0.08503118 -0.060452074 -0.12802207 -0.13789332 -0.07144339 -0.017751578 -0.030374626 -0.04311151 -0.04821885 0.018492658 0.030856973 -0.028708491 -0.0040239044 -0.042984862 -0.0148097705 0.013575129 0.03328983 0.03281469 0.01468669 0.004912292 0.021490833 0.055794142 0.06735755 0.06737739 0.058964726 0.057099953 0.0182221 -0.054137576 -0.08442388 -0.092725664 -0.22187766 -0.23420225 -0.16355668 -0.080369845 0.01388221 -0.05704065 -0.09438829 -0.041721582 0.04320713 0.01808674 -0.043629088 -0.0083011845 -0.037025224 -0.029904354 -0.014615062 -0.022533214 0.040185433 0.007882822 0.06134101 0.042665675 0.07072116 0.0653498 0.047721174 0.058132764 0.03864767 -0.03259199 0.036551934 0.012566458 -0.012427263 -0.007731533 -0.027866475 0.037477776 0.03110084 -0.054449707 -0.04420228 0.016569687 0.019782722 -9.2691436e-05 -0.05560523 -0.01570686 -0.02558672 0.018706052 0.027591933 0.018264102 -0.01442127 0.072751366 0.10928267 0.08733444 0.06881466 0.031035632 0.016418247 0.062388103 0.08352558 0.058462672 0.14624591 0.15265156 0.24281234 0.084499255 0.11311585 0.077158816 0.10844773 -0.008957635 0.047885597 0.06965105 0.048630167 0.041336678 -0.051182885 0.0107876565 -0.019413786 0.021715213 -0.031288475 -0.011483723 0.039508045 0.013557069 0.040870517 0.053299937 0.031039886 0.021115348 -0.020992212 0.09529641 0.10517076 0.15911518 0.19346403 0.27386472 0.15044497 0.024947267 0.045545653 0.0537538 0.104820855 0.098082684 0.092734136 0.053498007 0.01940511 0.013148126 -0.0015838225 0.009333827 0.025724843 -0.022292634 0.015113656 0.032294482 -0.006850218 0.06556794 0.053930245 0.014231335 -0.02790149 0.02832093 0.047208916 0.12143448 0.12226488 0.17567739 0.132907 0.06320625 -0.04161084 -0.043797538 -0.072368346 -0.012370828 0.038684253 0.059981972 -0.008443898 -0.0042667664 -0.025806218 0.027392088 -0.03245931 -0.029828867 -0.007242771 0.0010435994 0.027080486 0.035364605 0.03841449 0.055736728 -0.01131375 -0.022141732 -0.053378336 0.012067021 -0.0017315286 0.07544296 0.07238076 0.04701744 0.018576639 -0.06565064 -0.12033956 -0.037022494 -0.0064895838 0.004550043 0.012026401 0.005299103 -0.046223946 -0.0304478 -0.02065481 -0.0051948302 0.039790705 0.0062745675 -0.027094563 0.0051100315 -0.00056645274 -0.022114005 -0.012195409 0.004076581 -0.08084314 -0.06320548 -0.0026574547 -0.0016937762 -0.015027619 -0.01031175 -0.03786123 0.048553415 -0.08088217 -0.14940244 -0.105686575 -0.05871623 -0.042636603 -0.028940339 0.028303243 -0.032308 -0.063235365 -0.05740793 -0.03692381 -0.014820506 0.027892657 -0.0145357065 -0.007991721 0.010587405 -0.014452714 -0.015370144 0.032520756 -0.041534554 -0.09449179 -0.07121625 -0.043033976 -0.022722108 -0.08763412 -0.124770895 -0.032093246 -0.037103716 -0.06043967 -0.14901118 -0.084350884 -0.048813973 -0.10102727 -0.01625006 0.008863669 0.0015037981 -0.09020802 -0.024219714 -0.004366316 0.1040526 0.09211031 0.0026049807 0.035694532 -0.030975882 0.012040069 -0.02075823 0.0054882704 -0.02788273 -0.02151778 0.0078422725 0.011844032 -0.01276321 -0.14088665 -0.07072973 0.002173162 0.00019440684 -0.06363339 -0.11390831 -0.05285484 -0.04171998 -0.107204854 -0.028754596 0.058113385 0.020146113 0.04364314 0.013676848 0.10820388 0.11836164 0.0589598 0.05244857 -0.020340651 0.025272207 -0.026381975 -0.02792864 0.003096279 -0.040108297 0.014333213 -0.044426974 -0.07529882 -0.044689212 -0.07136129 -0.03541888 0.016589506 -0.013268088 -0.021686627 -0.06412779 0.020793619 0.010701425 -0.05100055 -0.02671988 -0.014675086 0.024865026 0.09584389 0.07366305 0.093312874 0.08119262 0.031075811 -0.010182827 0.022034477 -0.009243603 -0.0119184945 -0.02307991 0.034062985 -0.033221766 0.02997069 0.023203311 -0.05548984 -0.02552082 -0.03237662 -0.008091756 0.0095057795 0.07688849 0.055105574 0.056048147 0.053771757 -0.003713166 -0.055899203 -0.061216738 -0.055850923 0.002671372 0.05083043 0.091375686 0.101228915 0.08357562 0.042861752 0.034046877 0.037726346 -0.0025821563 0.020012539 -0.017233677 0.029837571 0.022583019 0.0050248 -0.013059201 -0.030980418 -0.012373836 -0.028170507 0.041020777 0.06872811 0.06778671 0.11294164 0.029668793 0.062197953 0.04199708 -0.071848206 -0.067811035 -0.060809277 -0.021751685 0.013014774 0.049473297 0.03791985 0.02967488 0.040148005 0.0025223256 0.01934478 -0.02203981 -0.0022230276 0.024149412 0.029387927 -0.030717665 0.0076967166 0.002371356 -0.019118883 -0.0016358884 0.013534405 0.019548735 0.05521514 0.040553253 0.076326236 0.020279756 0.03308367 -0.05355063 -0.036147337 -0.005197152 -0.019556064 -0.026330369 -0.011807903 0.01007528 0.04866763 -0.029292753 -0.034006547 0.032200992 -0.00994283 0.018381046 0.022966523 -0.03205128 -0.015011192 0.022113787 -0.021858675 -0.0040868265 -0.028536307 0.030705927 -0.020505896 0.020377932 0.009697599 0.06817535 0.08723815 0.06969646 0.025973855 0.0057817064 -0.0053004385 -0.052118428 -0.055925734 0.012760959 -0.008129518 0.0040838164 -0.053802352 -0.065842286 -0.037422664 -0.027358303 0.009055394 0.0049899905 0.0020491665 0.0062380186 -0.003417233 -0.0056881686 -0.00030796003 -0.060956508 -0.010800576 -0.026985701 0.039984386 0.00878769 0.018359384 0.06096377 0.09499536 -0.009763116 -0.040159643 0.016462496 0.022812812 0.035632953 0.0027800952 0.036168177 -0.11513782 -0.063481465 -0.05585036 -0.042914722 -0.011862117 -0.007830634 -0.031212186 -0.018370539 0.012966719 0.033998538 -0.014952669 0.02042814 -0.038856667 -0.062262263 -0.01130277 0.019771818 0.011100381 0.038679726 0.037937112 0.09134713 0.07870701 0.015844626 0.053283125 0.017412474 0.06239542 0.051071588 -0.0136209205 -0.023513176 -0.107704245 -0.044078976 -0.048870206 -0.030656505 -0.028774515 -0.033840682 -0.018094733 -7.555111e-05 0.028570011 -0.029477056 -0.009657314 0.010420008 -0.044866223 -0.02323386 -0.008201743 -0.049557723 -0.024723474 0.031148693 0.05730911 0.07037783 0.034386933 0.05014888 0.044243716 0.013628329 -0.004204587 0.024890369 0.009156789 -0.083058015 -0.07719048 -0.07105517 -0.03669523 -0.010689624 -0.016276682 0.027021358 0.024760112 0.015489409 -0.012731459 -0.014094468 -0.014552016 -0.0075057033 -0.007026438 0.034090552 0.028456999 -0.031050146 -0.10381137 -0.06598426 -0.037255973 -0.015846005 -0.047361232 0.020806894 0.034424257 0.03981178 0.037058488 -0.006404762 -0.0053531113 -0.00880965 -0.063281335 -0.07149782 -0.038700897 0.0076495814 -0.033622514 0.023038609 -0.02943884 -0.022025438 0.034503564 -0.011761329 -0.029982988 0.007893773 0.0035529726 -0.006179843 -0.02572203 -0.024457945 -0.041744474 -0.06513379 -0.034268577 -0.012748569 -0.0027455208 0.0031305866 0.0016446569 -0.004146993 0.058845785 -0.027915638 0.01589294 0.024394393 -0.066614166 -0.053928707 -0.018494615 -0.010316881 -0.032587662 -0.015611984 0.023964036 0.018635478 -0.024362408 -0.019856151 0.015581251 -0.03333494 -0.040655155 -0.035645824 -0.046997465 0.012055096 0.014871146 -0.018436981 0.0009914071 -0.04950344 -0.02588453 -0.013256491 -0.019678513 0.0005278102 -0.00029254184 0.029459318 0.017349778 0.036444277 -0.0367148 -0.03831194 0.028129222 0.029439654 -0.016937463 -0.010130218 0.015014994 0.029165622 -0.0020589405 -0.02119661 -0.0022572961 0.01776328 -0.011578992 -0.012269883 -0.007989472 0.023552766 -0.03446359 -0.02369747 -0.022941621 0.03031534 0.029111654 0.043284476 0.0037874284 -0.016446391 0.022383844 0.008172259 0.038354304 0.0019518803 -0.009298899 -0.0031130584 -0.021085555 -0.0061855237 0.01913554 -0.030252757 0.008513677 -0.008369846 -0.011743184 0.01637922 0.006754403 0.03350815 0.010681034 0.00093819416 0.023386313 -0.0008888841 0.022701597 0.0073303794 0.010458091 0.034919016 -0.011742219 -0.004716478 -0.009265261 0.0015210655 -0.03381186 -0.0023117661 0.0032743516 0.0075866627 0.021662006 0.030883182 0.03370578 0.023597224 -0.03002458 -0.0040990245 -0.0006225407 -0.029160433 0.006987857 -0.0127186095 0.025735129 -0.02459372 -0.016606744 0.014227565 0.014010017 -0.034796786 0.010619095 -0.032360997 -0.019415865 -0.009237315 0.033814944 -0.025966361 -0.016337527 0.028783048 0.024872534 -0.0012067371 0.031482656 0.022229485 -0.03002515 0.01549485 -0.02815079 0.020913346 0.022939973 -0.006352008 -0.03199489 0.0032632991 -0.020901378 -0.0034650906 0.034425996 0.025505017 0.0035603968 0.034996323 0.03451985 -0.02358642 0.0036268407 0.02596863 -0.032928325 0.022526614 0.016517451 0.0014625698 0.014238063 -0.020539587 -0.011004691 -0.020156626 -0.019542307 -0.0057963165 0.009200899 0.024021018 0.0035080449 0.0135576725 -0.008262707 -0.013099161 -0.024382465 0.001602803 0.008407099 -0.032109212 0.0038128805 0.018632688 -0.004133191 0.017716661 0.0078324 -0.040220216 -0.014212728 -0.036857992 -0.00518286 0.008885084 -0.035747603 0.018075306 0.011067199 -0.04683264 -0.005516812 0.0048697605 -0.023304721 -0.0016884985 0.02680031 -0.012614567 0.053487767 0.00077672536 0.018221453 -0.015470379 -0.024528012 -0.028606212 -0.01531188 0.03136904 -0.022764593 -0.021872789 0.015028666 -0.03803936 -0.01904275 -0.007841053 -0.07540405 -0.039371833 -0.080993146 -0.02533874 0.0058524637 0.046543244 0.017813098 0.01329613 -0.009087795 0.0112321535 0.012277377 -0.0008649889 0.013049577 0.033772886 0.011707208 0.032192547 0.007832863 0.0069660167 0.02851209 0.033023838 0.005073245 0.024751242 0.012346624 -0.008839162 0.010338922 -0.013078161 -0.04304939 -0.10818996 -0.06491021 -0.111494236 -0.027237816 0.02387705 -0.07085212 0.030160509 -0.0011221403 -0.023624424 -0.025360279 0.06441873 0.08936802 0.030424682 0.07586415 0.07042305 0.032076437 0.022463549 -0.026033217 0.00067387917 0.035716712 0.036483612 0.01952535 -0.010670648 -0.0008463017 -0.02369557 0.0071089924 -0.08747632 -0.08116326 -0.13355115 -0.10178777 -0.08415164 -0.014502546 0.030162292 0.022790892 0.108505756 0.075432785 0.09294436 0.06160081 0.05387462 0.048143398 0.075874224 0.021884765 0.009763238 0.054033093 -0.003922565 -0.0083057005 0.025504665 -0.019190103 0.013304569 0.032344446 -0.028754596 -0.025610043 0.011769075 -0.03178524 -0.072763 -0.05014364 -0.07882797 -0.10702979 -0.07283736 0.02705088 0.13550697 0.16565156 0.15217899 0.05720902 0.066304244 0.05910082 0.11528542 0.119878575 0.051001694 -0.02276917 0.041026257 0.038100597 0.0038944453 0.022820773 -0.008010746 0.016277118 -0.01515499 -0.033525873 0.015886212 -0.018160054 -0.02544946 -0.058368165 -0.08962049 -0.09733331 -0.07552237 -0.082789116 0.0052071093 0.04960541 0.12009228 0.10778467 0.1195565 0.06807772 0.0066124257 0.08816916 0.15233645 0.039132506 0.00032041236 0.0060335514 -0.0012075487 0.0141954785 0.034621343 0.028515069 0.017130822 -0.014027938 -0.019806404 -0.01972623 -0.03118324 -0.016898494 -0.02354344 -0.054303605 -0.06587609 -0.09846911 -0.08576269 -0.055021632 -0.04059688 0.04511203 0.04473376 0.05534809 0.042938314 0.017185898 -0.055878025 -0.030257633 -0.0084266905 0.041879844 0.013649588 -0.0065670237 -0.044474564 -0.0015698578 0.035366483 0.019957239 -0.017639307 0.009947096 0.019209757 0.009975289 0.0041306657 -0.027018338 -0.016138032 -0.027736811 -0.04781611 -0.036578953 0.008792215 0.0030697882 -3.7219546e-05 0.037385788 0.0666583 0.03158196 -0.012428755 0.0053967685 -0.1448549 -0.15765408 -0.019689973 -0.0062252455 -0.04148055 -0.017220918 0.053808276 0.07079527 0.09922604 0.051423293 -0.03813253 0.035052974 0.0010196548 -0.016681233 -0.0069639673 -0.027778443 0.022243569 -0.060464673 -0.013215142 -0.0014854418 0.08279679 -0.018228842 -0.013759239 -0.03159355 -0.017791234 -0.021112558 0.046229146 -0.06902113 -0.21235625 -0.15212339 -0.13492057 -0.09782338 -0.031154342 -0.042736445 0.07066392 0.037827723 0.06357384 0.04553012 0.026698021 -0.028932014 0.019242845 -0.00324033 -0.01655894 -0.023278514 0.0068925465 -0.04858901 -0.03053086 0.05831246 0.058256473 -0.039010193 -0.038600247 -0.012317297 0.036693685 0.051126268 0.029711377 -0.06931707 -0.15509696 -0.16254851 -0.112362005 -0.11934821 -0.039524805 -0.05448978 0.0047260863 0.05050091 0.06816581 0.07944448 0.030083952 -0.01469384 0.022138007 -5.116633e-05 0.020700715 0.030964049 -0.01785244 -0.018611979 0.012462293 0.07269813 0.02950818 0.029305182 -0.029218739 0.020637868 0.026781552 0.09119019 -0.013654706 -0.0642093 -0.08599227 -0.1305549 -0.15804303 -0.07189077 -0.10016533 -0.08708176 -0.0037526188 0.048126813 0.09621084 0.059873655 -0.0020202752 -0.026945647 -0.02315222 -0.029367233 0.01007387 0.010975663 -0.011802012 0.01420578 0.088431396 0.09729551 0.06611736 0.00081196974 0.007007465 0.039408755 0.10235776 0.03424923 -0.006943632 -0.06836332 -0.07072982 -0.09295 -0.09805241 -0.08862273 -0.0804689 -0.05936568 -0.014924469 -0.017121233 0.016103331 0.047975205 0.005547691 -0.0019663428 0.035439067 0.015147948 0.004939624 0.0159958 -0.045349658 -0.006019313 0.107971676 0.069373935 0.08110273 0.046842746 0.05072077 0.019056147 0.06568579 -0.030181704 -0.12045094 -0.06574216 -0.06734012 0.005265387 0.007717921 -0.05069885 -0.09716722 -0.042441607 -0.016428627 -0.041246142 0.03750593 0.040506124 0.028507829 0.0037116085 -0.031003479 0.009566735 -0.008043969 -0.007484594 -0.033501912 0.0057360036 0.06867105 0.08016967 0.07804681 0.0527157 0.09144607 0.10759614 0.008954953 -0.034406014 -0.097302504 -0.06382991 -0.03967581 -0.07188633 -0.0026591544 -0.062259838 -0.06440033 -0.021294834 -0.01441077 -0.033641674 0.011195796 -0.023136808 -0.0026518593 0.0342906 0.009709128 0.024998223 -0.008227197 0.015597075 -0.002707154 0.011754841 0.099832594 0.111984886 0.094501406 0.05811128 0.072768524 0.1169987 -0.078341536 -0.08359259 -0.081621446 -0.008192856 -0.0015154306 0.008131531 -0.052695308 -0.07619641 -0.036059983 -0.049819518 0.009871627 0.0055391504 0.025504794 0.04713221 0.008845353 0.009173701 -0.028861256 0.017863257 0.031199573 -0.025635052 -0.0025487766 0.017908294 0.0940993 0.1263346 0.116403714 0.11891314 0.15851036 0.0559375 -0.0897253 -0.101641655 -0.16361442 -0.09264307 -0.040130958 -0.015088711 -0.044623382 -0.043342102 -0.041230366 -0.042258274 0.009574195 0.06312294 0.059697427 -0.02521292 0.03764319 -0.034785617 -0.009505626 -0.0047636377 0.008736245 0.014846234 -0.06106186 0.06784305 0.0824856 0.102467865 0.12536882 0.123713896 0.13033186 0.0965604 -0.019446092 -0.054358535 -0.11303395 -0.11618133 -0.035195034 -0.062003113 -0.018564224 -0.06260982 -0.040002845 0.03828029 0.10758388 0.11646313 -0.013592491 -0.027867397 0.0034759918 -0.033023972 0.0025245657 -0.019827617 0.008319769 -0.023104165 0.016471693 0.013176903 0.073923014 0.11333825 0.16542217 0.11993726 0.102015026 0.12272971 0.015871443 -0.018996874 -0.120237425 -0.07576888 -0.010242298 -0.04902841 -0.054922033 -0.05604279 -0.057789754 -0.014233234 0.07655695 0.024789758 -0.0024183942 -0.03821783 0.019773068 -0.01233397 -0.0005322597 -0.004647038 -0.0058221617 0.020004652 0.015585004 0.025498327 0.08214666 0.11683845 0.07269338 0.10219422 0.17950737 0.07478026 0.068176515 -0.03706089 -0.032911066 -0.09559796 -0.00068699976 -0.07267534 -0.008314544 -0.038605623 -0.055049747 -0.055723395 -0.03489428 0.024274822 0.0009964134 -0.051125597 0.026079958 -0.0015528058 0.020947328 0.025765045 -0.0036311105 0.009487231 -0.0053239847 0.046652045 0.033788566 0.089645326 0.16001984 0.15488338 0.17985024 0.10620506 0.14210029 0.0730298 -0.022400621 -0.0577192 -0.039844092 -0.0009766301 -0.045792304 0.028019201 -0.06989151 -0.07141944 -0.08104876 -0.023233337 -0.03001644 -0.0017485118 -0.045674503 0.011397116 -0.011654374 0.018204575 -0.029213408 0.016895995 -0.031955853 -0.041221645 0.010511684 -0.0073446175 0.041267056 0.072325766 0.06671409 0.101529665 0.050924182 0.06648121 0.012172968 0.008565794 0.0029046517 0.008332493 -0.034239456 -0.10880928 -0.038475547 -0.020977404 -0.009413704 -0.016428716 0.029385718 -0.034591656 0.024667708 -0.02823853 0.01931414 -0.008151481 0.019407153 -0.02453352 0.02341707 0.0026121447 -0.06573243 -0.01900283 -0.005735923 -0.008778398 -0.016843801 0.024669992 0.08207108 0.1341197 0.09559967 0.01895477 0.0036009739 -0.036812417 -0.062269695 -0.046107594 -0.019728301 -0.025282467 -0.040690456 -0.018545665 -0.03494697 -0.011487792 0.015044875 -0.0047484166 0.0008544539 -0.015076046 0.004297495 -0.021091444 -0.034403127 -0.00059036695 0.0064216815 -0.004042318 -0.02284682 -0.09834912 -0.013121078 -0.02700943 0.011281059 -0.04350612 -0.0359099 0.0074036918 -0.016942685 -0.021540364 -0.020688938 -0.029786557 -0.018552545 0.0008796449 0.0067274375 -0.009947811 -0.007281192 0.036478862 -0.020842554 -0.032719154 0.01789699 -0.033749923 -0.016726494 0.0076617263 -0.028663907 0.01496113 0.020869145 -0.005307015 -0.011611465 -0.033138234 -0.04778891 0.002943146 -0.034664012 0.02541353 -0.018654592 -0.060675308 -0.04450974 -0.012503778 0.013941705 -0.018448932 0.034274716 -0.0052201296 -0.03704023 -0.012665246 -0.019223692 0.014219903 -0.024766732 -0.012923024 -0.016710997 0.026651014 0.02083217 -0.03085737 0.006534125 0.034960378 0.018360006 -0.025334595 0.00015702863 -0.010795152 0.03176608 -0.025525283 -0.0010735773 0.030837778 0.026960157 0.004410803 -0.0020908366 0.004765697 -0.0043783844 -0.010933852 0.017701363 0.03249599 -0.022787705 0.01714273 -0.010350142 -0.031837095 0.018071866 0.01567874 0.005197768 -0.025928043 -0.016055448 -0.024401287 -0.020605037 -0.015491934 -0.019639276 0.034543056 -0.030932697 -0.011370042 -0.028266167 0.024395637 -0.010759435 0.0060174377 0.00014118444 -0.011150074 -0.0069487183 0.007019005 -0.03372522 0.012136077 -0.0024828955 0.0035888087 -0.022586113 -0.008233028 0.02082256 0.021962387 0.0198928 0.001706068 0.015304196 -0.013097998 0.024340542 -0.028676098 0.015387455 -0.027685886 0.017419614 -0.028669355 -0.033808038 -0.028554669 -0.009073288 -0.017715609 0.034716293 0.032140505 0.0101231765 0.004571944 -0.0032074328 0.00034945577 -0.011171091 0.0023120309 0.019897597 -0.022100903 0.0022265047 0.031202141 0.011076055 -0.015545667 0.03345129 -0.023696829 -0.026303208 -0.0026022494 0.013956202 0.017535686 -0.028263086 -0.023455927 0.02640533 0.004530533 0.010970067 -0.004010351 0.0059434935 0.026688045 -0.0258271 -0.0014731728 -0.045668904 -0.00065339415 -0.028390959 -0.063148625 0.010778237 -0.020797098 -0.02572244 -0.018985407 0.0073645893 0.02900343 0.028020019 0.02190771 -0.03404458 0.030552844 0.014545233 0.028700745 -0.017932488 0.0030357428 0.013202913 -0.034090348 -0.020246997 -0.03715088 0.0013553981 -0.03941418 0.019640459 0.0078148 -0.03827939 -0.026914546 0.019588785 -0.024918582 -0.0112857185 -0.04520605 -0.051198356 -0.050509434 -0.043044377 -0.02577224 -0.012677869 0.007465596 0.02849821 0.024967257 -0.019346645 -0.03371875 -0.033859 -0.015666932 0.033624213 -0.028258733 -0.0030771014 -0.031108236 0.027634054 -0.00097155396 -0.008401324 -0.01637659 -0.0015111136 -0.034994803 0.002111222 -0.013712321 0.014998989 -0.043629482 -0.011851374 -0.019508833 -0.058960147 -0.06892453 -0.009682057 0.026330424 0.013926732 0.0018982176 0.0062461505 0.0093973065 0.0018177385 0.033263035 0.0055563836 0.017786141 0.008494565 -0.020504529 0.016556446 0.03934133 0.018903745 -0.008143938 0.0010977259 0.062471073 0.037278008 0.0028404377 0.009443061 0.034303088 0.04196608 -0.03405838 -0.037548803 -0.008018926 -0.0733455 -0.10205451 -0.025267329 -0.06200589 -0.054947156 -0.059741776 -0.029713066 -0.040793825 0.019037139 0.008221773 0.015103086 0.022540238 0.028470552 0.032186322 -0.020945046 0.00592552 0.037159666 0.0050063 0.025261652 -0.018111195 -0.042831756 -0.030208094 -0.019338174 0.012657507 0.024239514 0.009291152 -0.025147237 0.016545717 0.05981143 0.040264387 0.045318674 0.029345494 0.014338127 -0.08189724 -0.078942075 -0.06360868 -0.009839343 -0.035147127 0.0023554054 -0.017987272 -0.00041966778 -0.02034814 -0.004483522 0.051451374 0.044555377 0.054801617 0.024754932 -0.076479845 -0.028583216 0.062862016 0.035138775 0.0018263457 -0.07234071 -0.012726764 -0.013324885 -0.014891778 0.012928086 0.051280644 0.09283845 0.0062672645 -0.033667717 -0.049165208 -0.074736685 -0.0568268 -0.043921005 0.014332807 0.033992317 -0.021419564 0.006983621 0.014194164 0.05150702 0.02125356 0.010856768 0.02648297 -0.038276564 0.0024881365 0.017771598 0.061002225 -0.043234352 -0.053458735 -0.06493329 -0.03177542 -0.05153785 0.004212653 -0.00021545628 0.10464989 0.12091024 0.05901029 0.021351177 -0.06714401 -0.065656446 -0.029201053 -0.013505344 0.012758204 -0.016782537 -0.014277927 0.030983776 0.0390771 0.017341195 0.050058037 0.06882179 0.055281796 -0.01394049 -0.012376488 0.07167964 0.00020452346 -0.035705887 -0.053240623 -0.04098049 -0.067575775 -0.079685144 -0.03279141 0.0789491 0.14261435 0.19577672 0.10800338 0.034321547 -0.010460769 -0.050224084 -0.049975898 -0.077104904 -0.05702961 0.0076165367 0.0015218175 -0.007796376 -0.012845947 0.057925966 0.05295199 0.06865656 0.08488857 0.06624159 -0.008583881 0.060766563 0.05336404 0.095587194 -0.024236588 -0.15989208 -0.2090082 -0.21143733 -0.014427729 0.14207503 0.1796501 0.20665471 0.12905595 0.07707879 0.07178524 -0.025783312 -0.078884594 -0.059592657 -0.0039368416 -0.001104653 0.03555984 0.03898644 0.03124554 0.0047862367 0.045834165 0.023051165 0.074605614 0.016747491 0.050694868 0.027598506 0.14054662 0.038619455 0.0033823731 -0.11363499 -0.15606712 -0.14317724 0.026135435 0.063472 0.05880371 0.091340974 0.15960811 0.069099836 0.07045952 0.019633459 -0.09492758 -0.009681417 0.020294324 0.007648504 0.02413199 0.01859512 -0.016546858 0.044555556 0.082412355 0.037134524 0.04230705 0.005352013 0.069886655 0.06698069 0.097519055 0.048185352 -0.048238672 -0.17912929 -0.17475772 -0.09906544 -0.025293786 0.013895325 0.0017258859 0.0050416333 0.11133532 0.08754791 0.07585047 -0.016894652 -0.017339429 -0.044877395 0.0012375453 -0.03260193 -0.016461978 0.026768196 0.010579128 0.049459286 0.047896814 0.024640877 -0.010740564 0.009256262 0.042920697 0.087039314 0.033221435 -0.035873767 -0.20141283 -0.2451185 -0.14092298 -0.056035325 0.06367004 0.019807689 -0.08637912 0.02080415 0.12366304 0.14460528 0.07089197 0.01497775 -0.005619153 -0.0530335 -0.0129633695 0.021461874 -0.0031633794 -0.017958978 0.040211692 0.0029809717 0.058874603 0.025879178 0.0466378 0.041540686 0.089405224 0.0147525305 -0.057631593 -0.14343818 -0.17495003 -0.15634412 -0.03670833 0.022729766 0.06423557 -0.040740017 -0.037487216 0.1013943 0.17731039 0.037987035 0.036087178 0.043039408 -0.036333527 -0.042959444 -0.025844622 0.014609774 0.0038320227 -0.033426482 -0.0016499948 0.008889992 0.016014533 0.06492294 0.114833556 0.15033369 0.07531336 -0.05012668 -0.11394267 -0.15295945 -0.2172432 -0.12148832 -0.08170043 0.017984642 -0.08600706 -0.025334269 0.013010606 0.13725579 0.17652604 0.068644255 0.067692064 -0.07401238 -0.054073174 0.006948027 -0.0042455196 0.014823802 0.031414047 -0.023563087 -0.022368541 -0.0059651383 -0.025892582 0.059463494 0.16300629 0.118139364 0.076710224 -0.033557925 -0.14954738 -0.19148444 -0.19607605 -0.09243864 0.0004688505 -0.027055064 -0.09109369 0.009062184 0.056218192 0.08261434 0.097098865 0.032591086 0.016973794 -0.057270505 -0.04941459 0.008565274 0.0041035027 -0.007891672 -0.021009888 0.031360008 0.012030331 0.0011698189 -0.053204454 0.05741676 0.11019521 0.11734313 0.11489164 0.053510044 0.033752177 -0.10169105 -0.07748753 -0.048244756 -0.01821402 0.033218484 0.015916612 -0.0007704704 0.14502667 0.12651451 0.054600127 0.08783936 0.04030105 -0.09013135 0.0018375866 0.025736794 -0.00036478197 0.014449977 0.010704002 0.035204347 -0.029972786 -0.080573626 0.015458933 0.029693253 0.029372506 0.10814692 0.026345393 0.031185025 0.013832265 -0.024124175 -0.051528294 0.014914226 0.019630264 -0.03353178 0.06456337 0.19405372 0.18774994 0.13365003 0.072273135 0.08632434 -0.0005800767 -0.0635895 -0.026611803 -0.006315519 -0.021077443 0.02554152 -0.015991181 0.02309705 -0.003976043 -0.016388055 -0.033571705 0.014751052 -0.016693953 -0.043799862 -0.018616617 -0.036313716 -0.01174847 0.06598532 0.020895341 -0.055692513 0.02453765 -0.044578157 0.02558655 0.09803092 0.04519072 0.059115842 -0.02767246 -0.029997721 -0.07178574 -0.08420313 -0.026282564 0.018941874 -0.0252031 -0.01747675 0.017620474 0.017824335 -0.01834311 -0.009861547 -0.03381298 -0.024223635 -0.09265219 -0.121798985 -0.1384002 -0.080930986 -0.02300007 0.015499486 -0.023140179 -0.03366791 -0.06800577 -0.076392405 -0.041029535 0.035519958 -0.06273923 0.005701288 -0.050899357 -0.07182353 -0.054891754 -0.013946471 0.011483204 -0.000499993 0.022392226 0.032057352 0.021787103 -0.011130686 -0.0056600515 0.0028473136 -0.015178578 -0.019501556 -0.058997422 -0.14816678 -0.11502466 -0.102172166 -0.034501668 -0.0014510578 0.028249526 -0.06071877 -0.12115682 -0.15056501 -0.014166589 -0.06889226 -0.04443327 -0.057152294 -0.079374656 -0.0005534066 -0.025179435 -0.045535635 0.06370322 -0.032437984 0.015952252 0.03300632 -0.001340219 0.0078052664 0.029516952 0.026130825 -0.014398485 -0.0743345 -0.061387304 -0.003055864 -0.00058624765 -0.026792832 -0.0066557573 0.0040953797 0.01594629 -0.070369095 -0.08849099 -0.07166924 -0.06880185 -0.057299998 -0.05500551 -0.08145227 -0.05704364 -0.036130197 -0.0044541545 0.019894859 0.028741017 -0.0155859 0.00068847777 -0.020801077 0.01260591 -0.0009896202 -0.00091224984 -0.004583878 1.0327667e-05 -0.05665114 -0.0052674087 0.054702945 0.017448433 0.019598152 -0.011316062 0.0057328874 -0.10792267 -0.103637435 -0.07955697 -0.07024629 -0.10170092 -0.08521381 -0.11638943 -0.12990063 -0.052364245 0.00021707968 0.013257331 -0.036095 0.0033011516 -0.005448976 0.013737614 0.02931597 -0.002110443 0.02211922 -0.0063473973 0.027430335 0.029629422 0.03380122 0.070689104 0.04678957 -0.0022376212 0.08002395 0.024093188 -0.038011227 -0.09672219 -0.1287389 -0.16291322 -0.095019475 -0.07184234 -0.07997775 -0.11627646 -0.04016478 -0.013888863 -4.8087557e-05 -0.012914439 -0.019538393 0.035269134 0.039081898 -0.018466372 0.0351195 -0.0200261 -0.032114185 -0.028096728 0.024605757 0.0036335965 0.053490326 0.009882708 0.017054731 0.024214765 0.037417807 -0.011235816 -0.0027140225 -0.024476754 -0.041417852 -0.0054039103 0.0050903885 0.043021724 -0.02573293 0.033514164 -8.738839e-05 0.028374135 0.056491204 -0.01802842 0.0007816325 -0.03467061 -0.033354018 -0.026767364 -0.0075337207 -0.014662684 0.026312174 0.0078067994 -0.029535692 -0.033407472 0.02938146 0.034233984 -0.011259596 0.05170082 0.082116865 0.05014792 -0.018278763 0.005412168 0.02871352 0.07201758 0.061501857 0.09979819 0.013612535 0.015164338 0.03901368 0.0026678334 0.036605686 0.0043834858 0.03449162 0.032868177 0.018306598 0.0034379407 -0.01519549 -0.026188357 -0.0030952948 -0.035256464 0.023740591 0.007722924 -0.017650593 0.03087743 0.029765733 -0.002833662 0.032302637 0.031384632 0.042092055 -0.021899655 -0.018312681 0.031089533 0.0024179807 -0.019295827 0.007994167 0.010493445 0.031846657 -0.016242042 0.013959035 0.044232085 0.0055760015 0.03536749 -0.029235551 0.035631843 0.015817583 -0.008626027 0.025266113 -0.019010315 0.024223465 -0.030052062 -0.020021405 0.021345412 -0.018415814 0.03369215 0.012525967 -0.009379592 0.00528769 0.023420675 -0.017058084 0.026731195 0.019277884 0.028546365 -0.027601764 0.03151764 -0.015157364 -0.0296799 0.025204204 0.013070972 0.028899152 -0.01520724 -0.03343124 0.030074883 0.005924208 -0.0017110026 -0.0044598156 0.015823185 0.0003604378 0.029672138 0.0098507665 -0.022915293 -0.0050011207 -0.001510208 -0.026892617 -0.0025791177 -0.0012153066 0.020158522 0.029201543 0.0027658786 0.01362738 -0.008946554 -0.020665111 -0.020255707 -0.00958225 0.015366327 0.015522836 0.0002949258 0.015058967 0.0075561707 -0.03384922 -0.00844614 -0.003213393 0.031296093 0.031891543 -0.029027233 0.032628626 -0.033745866 -0.0015507115 -0.024086032 0.013303766 0.00051131233 0.020160675 -0.038453992 -0.01826103 -0.013918146 -0.015809868 -0.03594037 0.020340638 -0.025067722 -0.028717939 0.02688724 0.019952077 -0.018409148 -0.02813302 0.019522067 0.0042556915 -0.008851572 -0.009745286 -0.019688364 -0.011750111 -0.023756387 -0.015614749 0.016976139 0.02383604 0.010694813 -0.021961702 0.024615794 0.00043818343 0.009420729 0.0066495785 0.013226677 -0.00885723 -0.049298912 -0.0149003295 -0.06425906 -0.07437614 -0.07265061 -0.031141708 -0.03400296 -0.023498643 -0.01113299 -0.02877191 0.010955284 -0.01686146 -0.025794363 -0.034456696 -0.018029334 -0.020200312 0.0061849146 -0.03263149 -0.019118482 0.022414744 0.01793592 0.030177314 -0.021985276 -0.03820237 -0.010460508 -0.03532519 -0.06308732 -0.027997151 -0.042839937 -0.03207594 -0.069522 -0.10453943 -0.061947975 -0.035366047 -0.02154512 -0.015149564 -0.0035315538 0.0034897719 0.016694525 -0.004377207 -0.0024724812 -0.016927907 -0.033777412 -0.02686547 -0.004882289 -0.0002321303 0.015883986 0.031903792 0.022168338 -0.0029616216 0.0052800896 -0.026035175 -0.064149596 -0.06357196 -0.074657634 -0.057684485 -0.03680131 -0.015528463 -0.048889153 -0.07851043 -0.03282305 -0.041443523 0.019307466 0.010936696 -0.020427754 0.00012872073 0.04754712 0.029292256 0.0067196777 0.014269712 -0.024928339 -0.01888392 0.011308969 -0.016787147 -0.017687427 0.0046587037 0.0059022475 0.020164484 0.00231021 -0.0068998435 -0.07042791 -0.058359455 -0.04820989 0.03013303 -0.03464664 -0.04354354 -0.04871273 -0.11736602 -0.05491816 0.013811376 -0.044694193 0.033457834 0.021933392 0.046104338 0.02271833 0.046295144 0.027690824 -0.0312534 -0.00070793804 0.02793083 -0.012908476 0.01634819 0.0068925438 -0.0074067824 0.0013688273 -0.029455105 -0.0025198925 -0.03398114 -0.028148491 -0.005009366 -0.03367014 0.041000642 0.030546071 -0.033714883 -0.0613797 -0.14904046 -0.050928835 -0.0040151947 0.016973654 -0.0143347895 0.030802995 0.0155960675 0.019126395 0.04170294 0.033940542 0.02660769 -0.0035458505 -0.008303275 0.008046608 0.01780283 -0.01931355 0.029323397 0.015931878 -0.033324 0.0009488687 0.013577571 -0.021019362 -0.018784242 -0.048417594 -0.014377796 -0.02890902 -0.022573689 -0.06339554 -0.08456303 -0.071438275 0.032828398 0.01245557 0.00908349 -0.005423301 -0.0120284045 0.0038671067 0.0032840788 0.052220155 0.040410094 0.037938226 -0.019176247 0.0022128269 0.002034821 0.00014818633 -0.014453785 0.014649963 -0.01574736 -0.039877005 -0.04400702 -0.03549787 -0.022674264 -0.040967092 0.022889573 -0.025780093 -0.0145671675 -0.030609256 -0.011469742 0.044580206 0.062279247 0.11066749 -0.013043138 -0.031517316 -0.017228888 -0.013922163 0.005217357 0.042152185 0.04478241 0.022670595 0.0059657833 -0.031270012 0.0051119803 0.006757782 0.01208439 0.011501273 -0.015797984 -0.023205258 -0.026052063 -0.061550166 -0.024897067 -0.040967975 0.006236719 0.015419723 0.038326874 0.006002721 0.043250136 0.04486675 0.07832973 0.056817383 0.018986015 -0.028412562 -0.021689553 -0.021355556 0.015609261 0.011397479 0.0060441494 -0.00066076184 -0.025430236 0.013566123 0.01963479 -0.019221127 0.016234135 -0.039079867 0.006396754 -0.032985233 -0.035815503 -0.02320069 -0.031328063 -0.031725258 -0.046441846 0.036521025 0.04911701 0.017760152 0.0009966549 0.0375928 0.053521786 0.033922456 -0.031385966 -0.03988171 0.019163769 0.0054818857 -0.010520262 -0.018425053 -0.008754876 -0.0026217357 -0.031830177 -0.009291125 -0.035506774 -0.027396275 0.023409411 0.017857175 -0.0001637209 -0.014557728 -0.032557517 -0.0212507 -0.007154227 0.026452001 0.058819596 0.08018159 0.077303395 0.051432565 0.012804082 0.01606927 -0.0014314628 -0.022419916 -0.058543105 -0.037065405 -0.008814228 0.012438315 0.020223454 -0.011909928 -0.02614467 0.01988602 -0.010407999 -0.025571212 -0.027043812 0.020706177 0.0059221885 -0.009730331 -0.01094613 -0.012774665 -0.023634449 -0.0073923534 -0.002920272 0.033107046 0.03427816 0.034780044 0.0635244 0.04861017 0.06425152 0.007410697 0.024174824 -0.0070276847 0.012164921 -0.005013842 -0.0057252496 -0.04563666 -0.025604533 0.008796193 -0.0010826355 -0.04231485 0.015723094 -0.01454619 -0.02514488 -0.033736993 -0.014776974 -0.033535026 0.031743016 -0.045648683 -0.025473472 0.028628737 0.018213406 -0.00015995596 0.0073516006 0.054197464 0.07925853 0.09020169 0.025123857 -0.00762426 0.034494147 -0.031151166 -0.0021713895 -0.008106481 -0.016615188 -0.020026503 -0.06820699 -0.009666129 -0.010879541 0.00856646 0.024595441 0.029590873 0.003915459 -0.024261935 0.0039345296 0.0037186015 -0.025615975 -0.0035687224 -0.0066505484 -0.04428421 -0.020548448 -0.041647147 -0.060893953 0.056363046 0.061982304 0.13537492 0.03205315 0.020818258 -0.00859245 -0.02276986 -0.06705791 -0.05732287 -0.02434082 -0.06726328 -0.060846686 -0.004554055 -0.0043553934 0.016911693 0.021326508 -0.03518664 0.024277681 0.0153726945 -0.036567733 0.025209822 0.024882056 0.008862283 -0.017416753 -0.06073352 -0.0424656 -0.07354657 -0.023399841 0.0027951018 0.12445233 0.11429165 0.008261552 -0.005825034 -0.06188424 -0.026071457 -0.030565098 -0.032072045 -0.056607507 -0.056982256 -0.04698935 -0.04899553 -0.03855664 0.009515467 -0.0104644755 0.0325221 0.006617715 0.030891893 -0.018958004 -0.03028579 -0.0065266816 -0.03089311 -0.006832741 -0.08960463 -0.049489226 -0.045881085 -0.0602681 0.020553805 0.063836254 0.06382049 0.043008253 -0.018302534 -0.114830956 -0.07623225 -0.026503954 -0.05497405 -0.011171437 -0.045106374 -0.051471222 -0.04750688 -0.04073713 -0.024629198 -0.029802881 -0.025376523 0.008155534 -0.0244778 -0.04007258 -0.036796577 -0.042752326 0.010320432 -0.027586766 -0.021827985 -0.03917739 -0.07837024 0.02990902 0.042336427 0.11615735 0.043801002 -0.023256445 -0.12909655 -0.08444455 -0.06503183 -0.043008123 -0.081664234 -0.029974602 -0.032868553 -0.05764948 -0.03933403 0.013389067 -0.02641419 -0.028229136 -0.00069392554 -0.030441707 0.034554042 0.012277965 -0.003514988 -0.04192424 -0.0017231107 0.018425958 -0.043210264 -0.05491092 -0.023965174 0.036434658 0.038565267 0.076471895 0.044136096 -0.059797242 -0.073248886 -0.0751662 -0.08670686 -0.086736 -0.07799389 -0.08024863 -0.027019631 -0.05306839 -0.032966 -0.0320414 -0.023547173 0.02896353 0.019036677 -0.016321123 -0.031098317 -0.03700791 0.017837204 0.0038288818 0.04407033 0.01917867 -0.016015245 -0.03741712 -0.042090967 0.023054615 0.036051534 0.022669278 -0.026621671 -0.04289567 -0.039731823 -0.031843796 -0.06704737 -0.06152793 -0.042180985 -0.038081612 -0.06817517 0.002002055 -0.017155247 -0.016805856 0.014223967 0.013153504 0.009664623 -0.0045539644 0.018434634 0.0030526798 -0.011800204 0.008599143 0.0040657134 -0.0109157525 0.061613 0.04297851 -0.020627849 0.024277339 -0.050569057 -0.04263366 -0.045461923 0.021554226 -0.06500291 -0.045407254 -0.03489559 -0.09554494 -0.047144435 -0.026946208 -0.016721679 -0.0127842855 -0.007966805 -0.03259218 -0.033911332 -0.0074977493 -0.018049639 -0.024070019 -0.03526706 -0.009409484 -0.04147874 -0.013265459 0.025403095 0.0386267 0.037003435 0.050289933 -0.024118507 -0.039532814 -0.051473465 -0.044656925 -0.029958252 -0.047444932 -0.023412755 -0.05720984 -0.03599545 -0.039523996 -0.070790365 -0.04741454 -0.041975494 -0.009614186 -0.008127602 -0.007204526 -0.024152538 0.016126122 0.014666868 -0.033507563 -0.009273728 -0.0049787 -0.019619768 0.021797318 0.02808239 0.033861216 0.016064236 0.057221048 0.026983755 -0.014019614 -0.007592197 0.039592903 0.010842002 0.008710766 -0.044099357 0.008877893 0.003995769 -0.010799255 -0.03793598 -0.030586679 -0.017072964 0.012185839 0.0040133614 -0.02485989 -0.02940693 0.021811951 0.029579267 0.026575733 -0.030928332 -0.03497957 0.021828404 0.024989586 0.019470435 0.026090821 0.034491856 0.042891994 0.0029277208 -0.0075373407 -0.014659898 0.012384495 -0.0019089584 -0.049484696 -0.04256124 -0.024304086 -0.035001054 0.02401013 0.0026317737 0.004690904 0.03153178 -0.0026440579 -0.018129751 -0.018627057 0.009325191 0.018831372 -0.030114772 0.0066772318 0.032073833 -0.031491127 0.03632438 0.006349785 -0.010716351 0.01436223 -0.014904746 -0.015229023 -0.007645007 -0.05084391 -0.023891546 -0.008550118 0.02091908 -0.015284422 -0.03629713 -0.014068842 -0.024615057 0.021335717 -0.037652478 0.015688444 -0.008716127 -0.009289826 0.028744975 0.014785215 0.0024736656 -0.026288098 -0.002370268 0.0194808 -0.024236472 -0.013571139 -0.009988637 0.039464515 -0.0056345062 0.008739596 0.0033032491 -0.035591338 0.0023931994 -0.030479066 -0.021566546 -0.045355618 -0.054551072 0.011282758 0.008697093 0.013417947 -0.025925832 -0.0077079283 -0.007965422 0.034277096 0.021102587 0.00580934 0.027730305 -0.009995071 0.02212009 0.020302258 0.009090948 -0.03459935 -0.009601504 0.008900541 0.01244296 0.0045140665 -0.035326213 0.023992969 0.019290283 0.03406606 0.0018395192 -0.03534325 0.02278927 -0.0004993917 -0.024212208 -0.007728198 0.0050598853 0.012791245 0.019976681 -0.032572225 -0.033617668 0.018941041 0.029301792 0.020025093 -0.0027075752 0.016875664 -0.021007577 -0.032458033 0.008833183 -0.011874165 -0.0073919343 0.00859766 0.010823229 0.014263366 -0.023014624 -0.03558544 -0.012039419 0.025641583 -0.021559628 -0.025701698 -0.02100586 0.019737473 0.028078776 0.018484764 0.010950795 0.017062426 0.023466716 -0.010096682 0.00015704548 -0.0016955861 -0.0013460475 -0.027198615 -0.02754665 0.023635533 -0.00026461057 -0.016353438 0.03279741 0.028981466 0.034558803 0.00823841 0.00931128 -0.013797046 -0.031155068 0.010561837 0.009708996 -0.023288662 -0.006216037 0.0017785078 0.006377717 0.0331609 0.015805425 -0.013816805 -0.0053087967 0.006994476 0.00036469687 0.009446557 -0.0006968797 0.019200936 0.0069597675 -0.031741753 0.016594738 -0.017708609 -0.010764378 -0.029265048 -0.010799374 -0.01553381 -0.024196384 -0.0013301444 0.00583711 0.025741858 0.013212304 -0.006091188 -0.019327095 -0.0058240527 -0.005144453 0.046792693 -0.004406951 0.0029284733 -0.02527815 -0.0028279545 -0.029247195 0.021083219 -0.02833478 -0.032223098 -0.0025102424 0.031168742 0.015521902 0.023143278 0.008849796 -0.023307256 0.013718163 0.01258679 0.0175111 0.03197726 0.023400553 -0.020445285 -0.034487005 -0.004846153 0.018297013 0.013541813 0.011308804 0.02489921 0.02944408 0.025585625 -0.010842857 -0.039009336 -0.056375735 -0.03439237 -0.019573128 -0.007514831 0.0014768876 -0.056391794 -0.030479534 -0.008901266 0.017626839 0.03149009 0.011028323 0.004506623 0.01495131 -0.0010113546 -0.01985034 0.017397856 -0.02259889 -0.012629763 -0.032693807 -0.0045329053 0.011524673 0.018255534 0.00738297 0.030225443 0.028594935 0.027629038 0.07246346 0.012297477 -0.0060842643 -0.0049285805 0.020628659 0.039616264 -0.030203978 -0.04476815 0.000101527796 -0.068153985 0.012082299 0.023255387 -0.008139278 -0.012498642 -0.00530259 0.021100366 -0.023479301 -0.011118702 0.01879814 0.026739366 -0.039137956 -0.08324279 -0.04698963 -0.0418128 -0.015625648 0.0073339697 0.056121383 0.14030847 0.1625831 0.11529536 0.13909006 0.082393594 0.04433011 0.014235591 -0.025360186 -0.00079054735 -0.04875547 -0.038969032 -0.116149515 -0.113454424 -0.051613115 -0.0069398875 0.031978857 -0.012892323 -0.026076693 0.028434988 0.011045011 -0.032424223 -0.004115093 -0.079718634 -0.06623196 -0.046029743 -0.033119634 -0.010595987 0.063458435 0.068144366 0.03701206 0.10862054 0.08841852 0.084568456 0.043470595 0.001372106 -0.037472617 -0.037351847 -0.092037916 -0.10893404 -0.027881766 -0.037289444 -0.060028307 0.025561275 0.0070441132 0.028131211 -0.025618583 0.03458252 0.028505564 0.022500362 0.019449294 -0.073414125 -0.015964802 -0.12424806 -0.10484576 -0.015205522 0.041002665 0.055918213 -0.026674513 0.015157069 -0.07006892 0.047385897 0.0005883194 0.073306866 0.0028124484 -0.08262457 -0.078079164 -0.012129928 -0.06075273 -0.044707354 0.005839474 -0.042934407 -0.02267858 0.009844697 -0.0212909 -0.004425854 -0.019992724 -0.014477574 -0.0052831457 -0.018261084 -0.057562917 -0.09364663 -0.10471752 -0.02380827 0.07069866 0.074593954 -0.015289685 -0.053139817 -0.041704282 0.033197653 0.08649732 0.10537192 0.09885894 0.00857435 -0.011905765 0.04695843 -0.05145938 -0.06056718 -0.008003608 -0.0024786806 -0.013523065 -0.01538724 -0.012865245 -0.022168102 0.006141458 -0.005068451 -0.063520156 -0.059527714 0.039014574 -0.06334168 -0.08512887 0.040604968 0.06480402 0.030074501 -0.032746267 -0.08953427 -0.1211772 -0.12202691 0.013358061 0.1289751 0.13061674 0.15334491 0.11064263 0.0055171717 -0.063168064 -0.032589808 0.028845856 -0.01440393 -0.029604595 0.0023211916 -0.03331034 0.0036844185 -0.029251106 -0.048062503 -0.0088470755 0.012929114 0.040752064 0.057348542 -0.0072954465 0.05154342 -0.019067043 -0.06951691 -0.04214022 -0.16957101 0.00034853062 -0.116173126 -0.112700224 0.05514182 0.13410729 0.08704827 0.02435986 0.0360081 -0.020977437 0.027235392 -0.0011519897 -0.061364114 0.0081992885 0.021880168 0.0026723 -0.017352933 0.00838144 -0.015512656 -0.04949894 0.014626527 0.08727202 0.118397444 0.05345092 0.048856325 -0.05437279 -0.039014637 -0.096673325 -0.015000938 0.04262613 -0.09169144 -0.05592434 -0.0018808979 -0.03993491 0.08965689 0.053926297 0.10626627 0.08920853 0.12957776 0.062943906 0.038860586 -0.030673428 0.007947097 0.008212719 -0.0013206565 -0.041488405 -0.019502025 -0.013848255 0.0316797 0.08163034 0.041950013 -0.012324876 0.01730391 -0.08576201 -0.12612897 -0.11967348 -0.04009018 0.027630087 -0.09347979 -0.12969306 0.002067941 -0.09832451 0.14219229 0.1346566 0.1645866 0.17172395 0.1808275 0.06933973 0.016373998 -0.004996333 0.024394019 0.006871215 0.009679283 0.002831152 0.014372937 0.03942718 0.04571828 0.08792993 0.05097309 0.06565636 0.020439137 0.014838004 -0.07981514 -0.12287188 -0.05846057 0.031184996 -0.03245637 -0.054487195 -0.07702885 0.024172468 0.19204903 0.09592622 0.07009453 0.15790965 0.14660883 0.054458156 -0.0029553939 0.021792777 -0.022974644 -0.03305887 -0.012642052 -0.03287969 -0.012565543 0.08041013 0.08846777 0.12763156 0.07405014 0.060771905 0.056856677 0.040096983 -0.035571095 -0.056388777 0.047558106 -0.035119727 -0.017892197 -0.08971263 -0.034105744 0.11639109 0.06930461 0.105284 0.081077754 0.044502605 0.01053855 0.02950121 -0.02103938 -0.020839566 0.010059256 -0.012426795 -0.0068112696 -0.015774032 -0.013898086 0.080126256 0.110512294 0.0721108 0.061178263 0.10479997 0.097041965 0.05971838 -0.024603667 -0.073091075 0.0009992908 -0.042576466 -0.051417943 -0.05979771 -0.027578127 0.037352864 0.03818817 -0.027824987 -0.10997621 -0.07360193 -0.030996827 0.0425588 0.023769768 -0.016211906 0.017172795 -0.033422016 0.02098908 -0.021658478 -0.019783307 0.040216725 0.085681744 0.10316055 0.050210442 0.13773526 0.060460962 0.048404217 0.068059616 0.03765767 -0.026083719 -0.050022364 -0.04205113 0.032699693 0.10348992 -0.021811772 -0.06411051 -0.0112655135 -0.14300041 -0.069857225 -0.004972366 -0.04069496 0.019090539 0.032836158 0.033873994 -0.032940555 -0.0018217514 -0.028477175 0.012530869 0.026948212 0.013074824 0.07188565 0.07781718 0.10596924 0.07632023 0.09056219 0.08844651 0.082030304 -0.09867389 -0.15060455 -0.043405924 0.13866392 0.1130532 -0.1087115 -0.05440983 -0.02412188 -0.010612554 -0.03677801 -0.031180758 -0.04516578 -0.016353678 0.030685665 0.036034398 0.021565247 0.035065576 0.003683952 -0.015013761 -0.0022947276 -0.0121036945 0.06813366 0.07470432 0.04490136 0.060938824 0.16742095 0.081152394 0.023786312 -0.11705694 -0.12748785 -0.007841127 0.050539393 -0.021506958 -0.050027687 -0.037941407 -0.04065794 0.0202736 0.001295041 -0.020198563 -0.062765755 -0.0055723297 -0.017536415 -0.009267088 0.017108599 -0.034667637 0.020929346 -0.018857712 0.0024829598 -0.010983242 0.07129111 -0.01983356 -0.013461586 0.014406573 0.16249356 0.12757352 0.066131495 -0.0674045 -0.11427095 0.0124593275 0.03800739 0.00029638462 0.04164989 -0.0452845 -0.039833333 0.078826495 0.084578276 -0.030992463 -0.05121779 -0.006452049 -0.009213222 -0.010504057 -0.019465571 0.025341796 0.015987024 0.0091649 -0.005531688 0.051612966 0.0106496075 -0.020980095 -0.11607151 -0.012903874 0.13938032 0.065568455 0.018136168 -0.018035471 -0.090404175 0.087964125 0.037240576 -0.0036359364 -0.016399726 -0.03488294 -0.06520592 0.05881596 0.023905488 -0.013280681 -0.016260825 0.025321508 -0.01656937 -0.031261183 0.0037384676 0.024928467 -0.010221075 0.003261782 -0.023127696 0.0071302317 0.06250926 -0.006917374 -0.084030025 0.0072860355 -0.00022923667 0.109971374 0.035889395 -0.012514518 0.025839237 0.100989915 0.0728383 0.020634498 -0.022947792 -0.03477989 -0.06638032 -0.034872167 0.003610525 0.0038993668 -0.041011315 -0.011885179 0.0055160034 0.018436786 0.018748377 -0.0323142 0.008950673 0.05418435 -0.017568544 0.019062372 0.01706944 0.04550914 -0.029880768 -0.027373942 0.03265261 0.103507124 0.13259871 0.16900747 0.033082075 0.11141208 0.07041837 0.0013569131 -0.00045916054 -0.066729814 -0.027430099 0.010600561 0.051052436 -0.012999424 -0.015217608 0.023648612 -0.002886821 -0.016879786 0.012584133 -0.034858786 0.012652897 0.02550103 -0.023763787 -0.047309384 -0.109168045 -0.07860427 0.025275964 -0.072510794 -0.09014602 -0.019323023 0.02705713 0.1300519 0.07627426 0.05214983 0.023386803 0.020253334 0.030391445 0.009538876 0.023901263 0.09044637 0.057591308 0.058257524 0.014618858 0.030073013 -0.029622199 -0.008645377 -0.014321732 -0.0071099913 0.025041955 -0.0026440865 -0.009483403 -0.09204862 -0.077653535 -0.10738452 -0.043187227 -0.047352124 -0.0843381 -0.036027737 0.05776214 0.024065267 0.00083319173 -0.013562524 0.022162205 -0.009488804 0.010024034 0.087141976 0.05630285 0.049170684 0.012886993 0.06883688 -0.0017897268 0.008037424 0.017074404 0.008865783 0.023967339 0.026374247 0.0342044 -0.01870799 0.017138211 0.03109404 -0.013381079 -0.005128238 -0.042146243 -0.026366023 -0.04656955 -0.0072589675 -0.11182214 -0.062760055 -0.07016874 -0.05193744 -0.0338402 -0.059309173 0.016082283 0.03171779 0.017449817 0.024268838 -0.015310724 0.025893897 0.004315664 0.008833394 -0.0004414101 0.023917492 0.02992413 0.02450434 0.018700264 0.0058967914 -0.01949563 0.062824205 0.032486618 -0.0027719263 0.014525542 -0.03568847 0.00934261 -0.015948826 0.021666816 0.009628503 1.2951396e-05 -0.027113374 0.006082406 -0.030213721 -0.0218793 -0.013161869 0.026039172 -0.0057919463 -0.033285376 -0.010294786 0.013385587 0.028911814 0.030937975 -0.028537998 -0.006962998 -0.0013253562 -0.024681736 0.015382243 0.03354345 -0.01613995 -0.033392765 0.014869982 -0.009645781 -0.0144998655 0.023191184 -0.010273802 0.014027362 -0.019533506 -0.017794933 -0.03664774 -0.0412251 -0.0039118873 -0.00053248357 0.008246202 0.02173565 -0.022611555 -0.0032683339 -0.023514088 0.029421726 -0.013496144 -0.0104659675 0.022156538 0.021591099 -0.020349635 -0.03540267 0.013341023 0.013926426 0.028573493 -0.022924962 0.024226198 0.020634137 -0.014335893 0.020002497 0.012023015 0.006560172 -0.021235209 -0.01023448 -0.0073524266 -0.029918851 0.03496563 0.016974365 0.024834106 0.025380643 0.018334974 0.016148914 0.021828482 -0.019700497 -0.022238664 0.033823725 0.022153473 0.011430643 0.014044584 -0.012111319 -0.026150746 -0.025200726 0.0028063485 -0.022328608 0.031448614 0.020371038 0.0062199826 0.022882111 -0.011858349 0.002747943 -0.019877262 0.018886117 0.0042668236 -0.013481316 -0.010218736 0.024598517 0.014570774 -0.02158685 0.018773956 0.017670806 0.013379457 -0.005008685 -0.012209552 0.016199423 -0.017204737 -0.030134955 0.0013056356 0.03123588 -6.908446e-05 -0.0079570655 0.022058247 0.033026665 -0.013303634 -0.0035608858 0.027766867 -0.022093788 0.020323003 -0.03116483 -0.043700766 -0.018217418 0.02015188 -0.0040359325 0.0054586194 0.03157641 0.032508593 0.023806596 -0.0007708976 -0.006164317 0.015109589 0.0032040342 0.027525563 0.029015636 -0.032763265 0.011240036 0.013024782 0.031848837 0.0022302086 0.03354014 0.0015321827 -0.031111844 0.016697906 0.025875054 0.042327274 0.014073044 0.03528842 0.04315787 0.0135970805 -0.021406924 6.941041e-05 0.06122968 0.058451854 0.06552193 0.06981311 0.019477077 0.034223802 -0.044226225 -0.03322035 -0.0059509347 0.026250564 -0.021377755 -0.019162519 -0.016267875 -0.034981675 0.03435025 0.0037116683 0.03203442 -0.021885814 -0.017951716 0.013585111 0.041355815 0.02960776 0.051759884 -0.0062871096 -0.023929942 0.012337417 -0.022714442 -0.012587084 -0.001763793 -0.01368192 0.048783284 0.03561237 -0.00042272924 0.012517732 0.0011533712 0.009799093 0.041920934 0.004823702 0.013562069 0.012504801 -0.008941877 0.018298788 0.0077244327 0.0014622624 0.022787172 0.007148099 -0.043835614 0.023492692 0.02317411 0.010858054 0.02596493 -0.005530815 -0.07100239 -0.012884692 0.009738108 0.006171121 -0.008867436 -0.0012317251 0.016201805 0.0006819914 -0.021788482 0.030662943 -0.01077903 0.018401595 -0.03439131 -0.013599025 -0.004508266 0.0019695465 -0.017165858 0.016136713 0.012335465 0.011550131 -0.03374017 0.017233841 -0.008359318 -0.051858623 0.023744455 -0.038158465 -0.038854253 -0.06802325 -0.065494 -0.0026145424 0.01667582 -0.013516338 -0.020939229 -0.04055582 0.009869296 -0.024870608 0.034194153 0.00868571 -0.034104448 -0.010725782 0.023996778 -0.01871705 -0.024287926 -0.0066448427 0.0043307543 -0.020722821 -0.017169192 -0.015001999 0.0071871867 -0.049988523 -0.041034453 -0.056243803 -0.033201482 -0.040370476 -0.102460735 -0.085517734 -0.030134661 -0.044392984 0.05346038 0.0015722638 0.03597063 -0.013191425 -0.053779066 -0.023018738 -0.016512737 -0.016310733 -0.052572176 0.029849816 0.029361723 0.029968303 0.0035475327 -0.0074884426 0.03039979 0.0056586117 -0.0021648495 -0.03550603 -0.03936735 -0.03992446 -0.0593837 -0.039528232 -0.016549958 -0.09088058 -0.06254786 -0.035814837 -0.0074003767 -0.006697629 -0.047760732 -0.07362183 -0.04732846 -0.030028708 -0.06842732 -0.05197835 0.027381321 0.01870994 0.021759896 -0.009239158 0.06815439 0.06649966 0.010975827 -0.034920305 -0.0028294874 0.0100045195 -0.030893741 0.026873177 0.021590512 0.017244661 -0.041894563 -0.0630143 -0.044182103 -0.084663786 -0.01853853 -0.02860273 -0.02146678 -0.027808217 -0.028851394 -0.05768546 -0.030974096 -0.037862476 -0.017460309 -0.043462608 -0.005668512 -0.047252465 0.025024254 0.050955262 0.060646553 0.0490693 0.012059616 0.034992 -0.0117114205 0.02668439 -0.018656528 